1.519569039344787598e+00
-6.160011887550354004e-01
1.216020155698060989e-02
-1.045473933219909668e+00
-8.997371792793273926e-01
1.291510939598083496e+00
1.615198254585266113e+00
1.683737874031066895e+00
-1.326790302991867065e-01
-2.653532028198242188e-01
-5.512802600860595703e-01
-6.383886933326721191e-01
-1.254594475030899048e-01
-7.031261324882507324e-01
-1.037821397185325623e-01
1.271277546882629395e+00
-7.674551010131835938e-01
1.386056900024414062e+00
-1.111328601837158203e+00
1.261665463447570801e+00
-1.670767813920974731e-01
-1.252372384071350098e+00
-1.376096606254577637e+00
9.551724791526794434e-01
-8.978617936372756958e-02
8.294419050216674805e-01
-4.512795209884643555e-01
-7.090228050947189331e-02
-3.978229463100433350e-01
1.053750038146972656e+00
2.341896444559097290e-01
-1.099406123161315918e+00
8.251453638076782227e-01
-1.529430627822875977e+00
-1.350703239440917969e+00
1.144796252250671387e+00
1.774175167083740234e+00
-1.320137232542037964e-01
-1.294975399971008301e+00
2.186402976512908936e-01
5.105440616607666016e-01
-7.890100479125976562e-01
5.833491086959838867e-01
1.211029648780822754e+00
-7.436941266059875488e-01
4.215935766696929932e-01
-5.851929783821105957e-01
5.081021785736083984e-02
-1.689311146736145020e+00
-1.651307754218578339e-02
