1.453530341386795044e-01
-3.640135228633880615e-01
-2.683009803295135498e-01
-7.575751543045043945e-01
-4.958827495574951172e-01
3.291560709476470947e-01
7.896368205547332764e-02
4.624440371990203857e-01
1.191197261214256287e-01
1.352808717638254166e-02
1.270690858364105225e-01
-2.325149923563003540e-01
-1.418143361806869507e-01
-2.804870307445526123e-01
-5.837758779525756836e-01
3.397197127342224121e-01
-2.506171464920043945e-01
-4.260356426239013672e-01
-3.574041724205017090e-01
6.730369925498962402e-01
-1.682232618331909180e-01
-1.881494671106338501e-01
-3.325018584728240967e-01
3.546004593372344971e-01
4.240870475769042969e-02
-7.669337093830108643e-02
-3.812916874885559082e-01
-3.113774657249450684e-01
-3.053011596202850342e-01
2.719511389732360840e-01
4.534237682819366455e-01
-1.004732698202133179e-01
-8.876439183950424194e-02
-1.099032163619995117e+00
1.736565120518207550e-02
3.889376521110534668e-01
5.493335127830505371e-01
-3.384585678577423096e-01
-1.987306624650955200e-01
-2.229293137788772583e-01
2.561238706111907959e-01
1.479653525166213512e-03
-3.306633979082107544e-02
5.609423518180847168e-01
-4.787954092025756836e-01
-3.384460210800170898e-01
-5.061872601509094238e-01
-4.532027542591094971e-01
-3.617362678050994873e-01
-3.412400782108306885e-01
