5.532522499561309814e-02
-3.324271440505981445e-01
1.945672556757926941e-02
-1.928483247756958008e-01
-1.904632151126861572e-01
-2.149352338165044785e-03
6.623054146766662598e-01
7.788402438163757324e-01
8.197914958000183105e-01
-8.938178420066833496e-02
-1.145537048578262329e-01
2.007784843444824219e-01
-5.276755690574645996e-01
-7.342430353164672852e-01
-2.673668563365936279e-01
2.525518536567687988e-01
-2.105378210544586182e-01
4.475758671760559082e-01
-1.704462617635726929e-01
3.418518602848052979e-01
-7.171946763992309570e-01
4.484122693538665771e-01
6.317727565765380859e-01
-4.596894979476928711e-01
-4.275417625904083252e-01
2.169012278318405151e-01
6.127767562866210938e-01
-5.248199105262756348e-01
-4.110996127128601074e-01
-7.661327719688415527e-01
2.753121554851531982e-01
-6.874237060546875000e-01
-5.605999231338500977e-01
7.502160221338272095e-02
-6.234855651855468750e-01
-3.269092738628387451e-01
2.551974058151245117e-01
6.372593641281127930e-01
-9.166423231363296509e-02
1.261818557977676392e-01
3.171067833900451660e-01
-5.588515996932983398e-01
7.077512796968221664e-03
-7.564377784729003906e-01
-4.934341832995414734e-02
-4.534661769866943359e-02
2.083637267351150513e-01
-1.201540946960449219e+00
5.371533632278442383e-01
6.557669639587402344e-01
