2.320855259895324707e-01
-5.852754712104797363e-01
-4.074389487504959106e-02
-5.046960115432739258e-01
-3.686715066432952881e-01
-5.682097077369689941e-01
1.360223770141601562e+00
1.403724193572998047e+00
1.059646725654602051e+00
-9.823727607727050781e-02
-4.001863002777099609e-01
2.256197482347488403e-01
-4.436642527580261230e-01
-1.186341404914855957e+00
-8.677023649215698242e-01
3.459298908710479736e-01
1.035278663039207458e-01
1.414951086044311523e+00
3.336714208126068115e-01
2.769632041454315186e-01
-7.137539386749267578e-01
7.279772162437438965e-01
1.146747827529907227e+00
-4.390902519226074219e-01
-1.108036756515502930e+00
5.291368365287780762e-01
1.456942915916442871e+00
-1.119388461112976074e+00
-1.522982239723205566e+00
-1.682903766632080078e+00
4.927973151206970215e-01
-1.307044506072998047e+00
-5.248625874519348145e-01
4.273856878280639648e-01
-1.404792666435241699e+00
-8.588048219680786133e-01
-4.642397165298461914e-02
1.785380959510803223e+00
5.099580064415931702e-02
6.818509101867675781e-02
-1.247538849711418152e-01
-2.480733394622802734e-01
-2.199345827102661133e-02
-4.682604670524597168e-01
-4.912893101572990417e-02
-8.568077683448791504e-01
3.547234535217285156e-01
-2.321148157119750977e+00
9.348475337028503418e-01
1.248426914215087891e+00
