-1.373263299465179443e-01
1.191871389746665955e-01
1.693968325853347778e-01
-3.851550444960594177e-02
3.837608918547630310e-02
2.542659454047679901e-02
-2.151889652013778687e-01
-1.804848164319992065e-01
-1.308929175138473511e-01
1.041928082704544067e-01
1.384632885456085205e-01
5.242139473557472229e-02
-1.185426712036132812e-01
7.006668299436569214e-02
-2.101341784000396729e-01
1.649195700883865356e-01
-5.674878507852554321e-02
8.408863842487335205e-02
7.452299445867538452e-02
-1.578239798545837402e-01
-2.102378755807876587e-01
-6.770238280296325684e-02
-3.993233665823936462e-02
-1.946509033441543579e-01
-1.742634773254394531e-01
8.863611519336700439e-02
-1.585041135549545288e-01
1.668217331171035767e-01
-1.125711500644683838e-01
-9.927421063184738159e-02
-1.231646835803985596e-01
-1.422628611326217651e-01
1.329847574234008789e-01
-2.075923830270767212e-01
1.653071194887161255e-01
-5.939658731222152710e-02
6.010470166802406311e-02
1.333532631397247314e-01
-2.345149368047714233e-01
1.082965359091758728e-01
6.039094924926757812e-02
-1.315693706274032593e-01
1.082439348101615906e-01
-4.492894187569618225e-02
-1.092122029513120651e-02
4.964581131935119629e-02
-1.698463261127471924e-01
-1.005801633000373840e-01
-5.352707952260971069e-02
5.408754944801330566e-02
-1.347701549530029297e-01
-1.426665782928466797e-01
-2.180633842945098877e-01
-9.162956476211547852e-02
4.646521992981433868e-03
-1.614736616611480713e-01
-1.503691524267196655e-01
1.295916736125946045e-01
8.854930102825164795e-02
-3.081438504159450531e-02
7.109148800373077393e-02
-4.550867155194282532e-02
1.232300326228141785e-01
4.758128896355628967e-03
-1.592692285776138306e-01
1.025519073009490967e-01
4.939381405711174011e-02
5.991791188716888428e-02
6.308197975158691406e-03
-2.821257151663303375e-02
-1.057100668549537659e-01
-1.596649140119552612e-01
-2.199614197015762329e-01
1.411394327878952026e-01
1.754210442304611206e-01
4.726052656769752502e-02
5.610697343945503235e-02
6.692568212747573853e-02
1.317437738180160522e-01
-1.355405449867248535e-01
-1.561223864555358887e-01
-6.178965792059898376e-02
-1.248207017779350281e-01
-1.799230575561523438e-01
-1.349184066057205200e-01
1.062351092696189880e-02
4.632423818111419678e-02
-1.989632397890090942e-01
9.048452973365783691e-02
-2.072504311800003052e-01
7.269975543022155762e-02
-9.207980334758758545e-02
7.106363773345947266e-02
-2.054141908884048462e-01
-2.255181968212127686e-01
-7.478210330009460449e-02
-1.167540401220321655e-01
-2.212444692850112915e-01
-7.221922278404235840e-02
5.431342124938964844e-02
