1.996821463108062744e-01
1.746990680694580078e-01
-1.379983574151992798e-01
4.609975218772888184e-02
2.065481990575790405e-01
2.239053845405578613e-01
1.754377782344818115e-01
1.572321951389312744e-01
2.682493925094604492e-01
1.324732555076479912e-03
1.462935060262680054e-01
1.174170672893524170e-01
-2.220076322555541992e-01
-2.947445213794708252e-01
-1.246538385748863220e-02
-1.036722585558891296e-01
-4.163412377238273621e-02
-1.170100644230842590e-01
1.989511027932167053e-02
4.932488501071929932e-02
7.436529546976089478e-02
4.446052387356758118e-02
2.387798726558685303e-01
-8.217921108007431030e-02
-1.042534708976745605e-01
-2.275237441062927246e-01
2.480327934026718140e-01
-2.298560291528701782e-01
-6.003418192267417908e-02
1.186073347926139832e-01
2.420847117900848389e-01
3.226767480373382568e-02
1.273917853832244873e-01
1.130551695823669434e-01
-1.673953533172607422e-01
1.674501299858093262e-01
1.092153862118721008e-01
-5.010019242763519287e-02
1.275109499692916870e-01
6.880423170514404774e-04
1.173174232244491577e-01
-1.272523254156112671e-01
-1.019152328372001648e-01
-2.949242293834686279e-01
4.777269437909126282e-02
-2.199126780033111572e-02
2.317152470350265503e-01
2.760240575298666954e-03
1.896652132272720337e-01
2.901590764522552490e-01
