1.464064270257949829e-01
-3.738920688629150391e-01
-1.998707652091979980e-01
-8.401047587394714355e-01
-5.499856472015380859e-01
2.865004241466522217e-01
1.112975329160690308e-01
5.646762251853942871e-01
2.234447598457336426e-01
1.291680783033370972e-01
1.040421947836875916e-01
-3.155907690525054932e-01
-1.795214265584945679e-01
-2.506843507289886475e-01
-6.171037554740905762e-01
4.099707901477813721e-01
-3.497954010963439941e-01
-4.596148729324340820e-01
-4.295024275779724121e-01
8.000887632369995117e-01
-1.918209195137023926e-01
-2.738771438598632812e-01
-3.531034588813781738e-01
3.404765725135803223e-01
4.124419018626213074e-02
-5.965864658355712891e-02
-3.716650605201721191e-01
-2.442844808101654053e-01
-3.229158818721771240e-01
2.080201655626296997e-01
4.667409956455230713e-01
-1.984139084815979004e-01
-6.051450222730636597e-02
-1.235871672630310059e+00
3.729925304651260376e-02
5.389948487281799316e-01
5.987035036087036133e-01
-3.918859064579010010e-01
-2.783724665641784668e-01
-3.545725643634796143e-01
2.550790607929229736e-01
-5.020966380834579468e-02
1.385846734046936035e-02
6.201056838035583496e-01
-5.050411224365234375e-01
-4.027252197265625000e-01
-5.048918128013610840e-01
-4.671128988265991211e-01
-4.626968502998352051e-01
-3.731367886066436768e-01
