-5.771003291010856628e-02
-5.265849083662033081e-02
3.096669167280197144e-02
4.628517851233482361e-02
-2.662695385515689850e-02
4.415374621748924255e-02
1.879605837166309357e-02
2.555922791361808777e-02
-1.087201014161109924e-02
-2.356988750398159027e-02
-4.988630115985870361e-02
4.186885803937911987e-02
-2.193761430680751801e-02
4.452026262879371643e-02
4.510997608304023743e-02
1.105949189513921738e-02
4.558844491839408875e-03
9.606160223484039307e-03
-2.564858831465244293e-02
-4.400000721216201782e-02
2.594352886080741882e-02
6.827916018664836884e-03
-9.732361882925033569e-03
1.964462175965309143e-02
-3.665507584810256958e-02
5.680947378277778625e-02
2.762243896722793579e-02
-5.167808383703231812e-02
-2.388511039316654205e-02
-1.809961907565593719e-02
-1.954252645373344421e-02
2.771801501512527466e-02
4.439516738057136536e-02
1.655551255680620670e-03
3.023047931492328644e-02
-2.142177522182464600e-02
3.497570008039474487e-02
-3.001184668391942978e-03
6.457196176052093506e-02
-1.761149801313877106e-02
1.351251453161239624e-02
-1.131421420723199844e-02
-4.064099863171577454e-02
2.643086947500705719e-02
-2.458274550735950470e-02
-6.168637052178382874e-02
2.476617135107517242e-02
-1.017487049102783203e-02
-3.660370036959648132e-02
-2.327756397426128387e-02
-1.827704161405563354e-02
5.321191158145666122e-03
5.388347432017326355e-03
-4.457785561680793762e-02
6.681762635707855225e-02
-4.193131625652313232e-02
1.996607892215251923e-02
-1.741771958768367767e-02
5.079092457890510559e-03
2.256406284868717194e-02
2.328426577150821686e-02
-2.164896763861179352e-02
1.059609930962324142e-02
1.165790297091007233e-02
-1.557821128517389297e-02
7.367046549916267395e-03
5.742757767438888550e-02
-5.461079254746437073e-02
3.258489072322845459e-02
-1.926871947944164276e-02
-1.856633089482784271e-02
-2.004215493798255920e-02
6.513018161058425903e-02
-1.692494377493858337e-03
7.302603218704462051e-03
-3.252398595213890076e-02
-5.416028574109077454e-02
1.053469348698854446e-02
-2.601604536175727844e-02
-3.283461183309555054e-02
-1.849082671105861664e-02
-2.422589436173439026e-02
1.070396695286035538e-02
1.627969183027744293e-02
-5.827323347330093384e-02
-2.754300832748413086e-02
1.300096698105335236e-02
-3.547889646142721176e-03
-1.364684198051691055e-02
-9.207355789840221405e-03
1.280002109706401825e-02
3.788172453641891479e-02
-2.613277174532413483e-02
-3.046610625460743904e-03
-1.693175174295902252e-02
4.406154155731201172e-03
-2.869328111410140991e-02
2.075623348355293274e-02
1.144824363291263580e-02
2.343535050749778748e-02
-4.476455599069595337e-02
2.428420446813106537e-02
-7.481767237186431885e-02
-5.244337022304534912e-02
-1.374012380838394165e-01
3.028421849012374878e-02
-5.206774547696113586e-02
-5.807101726531982422e-03
4.793788539245724678e-04
-1.917520724236965179e-02
2.073623426258563995e-02
-2.383205341175198555e-03
1.369473990052938461e-02
-7.012628763914108276e-02
1.812300272285938263e-02
-4.673524200916290283e-02
-4.237703979015350342e-02
-3.524805605411529541e-02
7.396459579467773438e-02
-9.634774923324584961e-02
-1.185744185931980610e-03
3.928587585687637329e-02
-1.347270607948303223e-02
-2.727378346025943756e-02
9.487267583608627319e-03
8.861589245498180389e-03
-2.096615359187126160e-02
4.904902540147304535e-03
-1.772041618824005127e-02
3.218176588416099548e-02
-2.365811914205551147e-02
-5.375204607844352722e-02
4.144239798188209534e-02
-1.717237569391727448e-02
2.324012853205204010e-02
-5.826612189412117004e-02
7.324539870023727417e-02
2.075331471860408783e-02
1.174665405414998531e-03
5.561781674623489380e-02
2.189779281616210938e-02
4.741862788796424866e-02
-1.818086393177509308e-02
1.131757348775863647e-02
2.728320099413394928e-02
-4.513173922896385193e-02
-4.876674339175224304e-02
3.381965309381484985e-02
-3.980999439954757690e-02
-4.312773700803518295e-03
9.881954640150070190e-02
-1.148454323410987854e-01
9.400533884763717651e-02
-3.284960240125656128e-02
1.589441895484924316e-01
1.329391896724700928e-01
1.519521921873092651e-01
7.503671944141387939e-02
-1.077454388141632080e-01
-4.949602857232093811e-02
2.936256118118762970e-03
-4.186863452196121216e-02
8.909134194254875183e-03
-9.856400080025196075e-03
-2.276841364800930023e-02
2.341175451874732971e-02
-1.845156587660312653e-02
-5.015724524855613708e-02
-3.081343136727809906e-02
5.539731122553348541e-03
-7.635721936821937561e-03
2.664706297218799591e-02
1.019977554678916931e-01
-7.788298279047012329e-02
5.310436338186264038e-02
4.921644181013107300e-02
5.633591115474700928e-02
1.035797968506813049e-01
8.509050309658050537e-02
9.600450843572616577e-02
3.542010113596916199e-02
7.607281208038330078e-02
-5.658039450645446777e-02
1.288766562938690186e-01
7.247649878263473511e-02
