-4.559295717626810074e-03
-4.805279895663261414e-03
-3.401144174858927727e-03
-3.775491495616734028e-04
-4.504648502916097641e-03
2.329834736883640289e-03
2.336925826966762543e-03
2.607957925647497177e-03
-3.991039935499429703e-03
-3.983647096902132034e-03
-4.736479371786117554e-03
1.695163809927180409e-04
5.409734789282083511e-03
6.372743751853704453e-03
7.433122023940086365e-03
2.344353124499320984e-03
1.517247525043785572e-03
-3.843325190246105194e-03
-4.013025201857089996e-03
-4.239156842231750488e-03
5.719433538615703583e-03
3.101917915046215057e-03
-3.579119220376014709e-03
1.883938210085034370e-03
-4.611767828464508057e-03
8.295768871903419495e-03
-3.521504346281290054e-03
-4.547161050140857697e-03
-4.388451110571622849e-03
-4.077188204973936081e-03
-4.042902495712041855e-03
1.796848373487591743e-03
4.634622018784284592e-03
2.804580843076109886e-03
1.458600861951708794e-03
-4.194160457700490952e-03
2.956876996904611588e-03
-4.514245665632188320e-04
6.857407744973897934e-03
-3.912996500730514526e-03
3.369636135175824165e-03
-3.857408184558153152e-03
-4.607316106557846069e-03
-1.181570230983197689e-03
-4.623863380402326584e-03
-4.413349553942680359e-03
-4.010691773146390915e-03
7.799093145877122879e-04
-4.303276073187589645e-03
-4.176501184701919556e-03
-3.965420648455619812e-03
2.419034950435161591e-03
4.942520987242460251e-03
-4.608624614775180817e-03
7.018636446446180344e-03
-4.167077131569385529e-03
4.777066875249147415e-03
-4.017549101263284683e-03
3.467951901257038116e-03
2.457599854096770287e-03
8.081745356321334839e-03
-4.873462952673435211e-03
3.459063125774264336e-03
3.478416707366704941e-03
1.517224824056029320e-03
3.823798149824142456e-03
3.232148243114352226e-03
-4.624971654266119003e-03
8.453938644379377365e-04
-4.858276806771755219e-03
-3.806395223364233971e-03
4.973893519490957260e-03
6.080321967601776123e-03
3.252550028264522552e-03
9.754449129104614258e-04
-4.230259917676448822e-03
-4.204209893941879272e-03
5.162814632058143616e-03
-3.848728956654667854e-03
-3.813800401985645294e-03
-1.384620205499231815e-03
-3.759350860491394997e-03
1.929076388478279114e-03
1.352310180664062500e-03
-4.868268966674804688e-03
-4.230348858982324600e-03
2.466566395014524460e-03
1.731712138280272484e-03
-3.646637080237269402e-03
-4.932228941470384598e-03
-3.748371032997965813e-03
2.523445058614015579e-03
-7.461278000846505165e-04
1.927586621604859829e-03
-4.149974323809146881e-03
6.091712275519967079e-04
-3.773572854697704315e-03
6.935597863048315048e-03
-3.570724045857787132e-03
3.510835813358426094e-03
-6.460305303335189819e-02
8.935224264860153198e-03
-7.886110804975032806e-03
2.228126488626003265e-02
7.205958478152751923e-03
1.598097197711467743e-02
-1.563413068652153015e-02
7.590778172016143799e-02
-8.518999069929122925e-02
1.021642237901687622e-01
2.283774875104427338e-02
1.328126061707735062e-02
-9.330595843493938446e-03
-7.384052965790033340e-03
1.669117435812950134e-02
-3.247101977467536926e-02
1.491754222661256790e-02
-3.345495322719216347e-03
5.682501941919326782e-02
-3.488759044557809830e-03
2.045047283172607422e-02
3.745056921616196632e-03
3.866802726406604052e-04
4.252569377422332764e-02
1.359381899237632751e-02
1.085399463772773743e-02
1.444257609546184540e-02
1.036246865987777710e-02
2.330363355576992035e-02
1.125152315944433212e-02
2.143541350960731506e-02
-3.478977829217910767e-02
-6.946725398302078247e-02
-4.236081987619400024e-02
-1.001552306115627289e-02
3.184087574481964111e-03
-7.613581418991088867e-02
-4.715847782790660858e-03
-7.722618523985147476e-03
-6.507375277578830719e-03
-6.194796878844499588e-03
2.624025382101535797e-02
2.712420187890529633e-02
4.297261312603950500e-02
-8.762003853917121887e-03
-2.507844474166631699e-03
1.167494524270296097e-02
1.195453200489282608e-02
-1.428015436977148056e-02
-1.521969120949506760e-02
-5.575995892286300659e-03
-7.325951009988784790e-02
3.045136295258998871e-02
3.373523801565170288e-02
-9.231877326965332031e-02
7.108119875192642212e-02
7.268751412630081177e-02
2.238433575257658958e-03
-3.559873998165130615e-02
-3.095340915024280548e-03
-4.168337211012840271e-02
-2.538086660206317902e-02
6.987717002630233765e-02
4.882051050662994385e-02
-4.668795317411422729e-02
1.902708783745765686e-03
-7.999138534069061279e-02
-4.322475567460060120e-02
-4.529925435781478882e-02
3.572030737996101379e-02
3.798244148492813110e-02
2.235821448266506195e-03
8.978467434644699097e-02
-7.923296093940734863e-02
5.909261479973793030e-02
6.837687641382217407e-02
1.059436947107315063e-01
6.538037955760955811e-02
6.255020201206207275e-02
4.450344294309616089e-02
5.283279344439506531e-02
9.021833539009094238e-02
-1.333519518375396729e-01
4.229244217276573181e-02
3.758481889963150024e-02
