4.475792497396469116e-02
-4.783037602901458740e-01
1.345666944980621338e-01
1.226028874516487122e-01
-1.702574454247951508e-02
-5.242337938398122787e-03
7.450044155120849609e-02
-2.256314009428024292e-01
2.375968396663665771e-01
1.602428406476974487e-02
-2.982151806354522705e-01
-2.045465111732482910e-01
-6.298105418682098389e-02
-3.774021267890930176e-01
-1.541001647710800171e-01
1.153093427419662476e-01
3.950963318347930908e-01
-7.822447270154953003e-02
-5.013839900493621826e-02
-2.841237932443618774e-02
1.697823405265808105e-01
6.656184326857328415e-03
1.172473058104515076e-01
-6.825367361307144165e-02
5.392161011695861816e-01
-2.971262335777282715e-01
-6.230441853404045105e-02
-5.537265539169311523e-01
-6.794327497482299805e-02
1.628890633583068848e-01
-6.989207118749618530e-02
-1.472822427749633789e-01
1.576864272356033325e-01
-1.854965686798095703e-01
-1.944602578878402710e-01
4.351772740483283997e-02
3.579620271921157837e-02
-4.715616628527641296e-02
1.199102625250816345e-01
3.910959511995315552e-02
1.905629932880401611e-01
-4.526471197605133057e-01
4.297259822487831116e-02
1.533061712980270386e-01
-6.386012770235538483e-03
7.140095811337232590e-03
8.387593179941177368e-02
-2.264150530099868774e-01
2.158867716789245605e-01
-9.234721958637237549e-02
7.996382191777229309e-03
-2.555358111858367920e-01
1.455655544996261597e-01
-4.632289335131645203e-02
1.423911154270172119e-01
2.117113769054412842e-01
-2.674707770347595215e-02
-1.368187274783849716e-02
-2.050475403666496277e-02
-6.390688568353652954e-02
-1.862978935241699219e-01
-5.863077193498611450e-02
4.842382073402404785e-01
1.057067438960075378e-01
-2.293404564261436462e-02
2.400851845741271973e-01
-2.682918906211853027e-01
-7.621845602989196777e-02
-2.151118516921997070e-01
3.409258127212524414e-01
3.049668073654174805e-01
-1.104295253753662109e-01
2.443377673625946045e-01
-1.240604817867279053e-01
8.890673518180847168e-02
-6.122416257858276367e-01
2.262304872274398804e-01
-1.551903367042541504e+00
-3.463225811719894409e-02
-1.161646768450737000e-01
-9.444345533847808838e-02
3.536743298172950745e-02
-9.151124209165573120e-02
-6.576827764511108398e-01
-3.787927702069282532e-02
-1.660527735948562622e-01
-1.300196051597595215e-01
6.145540997385978699e-02
-5.064800754189491272e-02
-3.021164834499359131e-01
-2.155814915895462036e-01
-1.027623414993286133e+00
1.262382268905639648e-01
1.802283525466918945e-01
-1.959077715873718262e-01
-1.400860100984573364e-01
-4.013311266899108887e-01
-9.331095963716506958e-02
3.174176812171936035e-01
8.172256499528884888e-02
-8.676265366375446320e-03
7.749731838703155518e-02
2.621133811771869659e-02
-1.714929938316345215e-01
-3.284090161323547363e-01
4.304672032594680786e-02
8.225956559181213379e-02
-1.942673027515411377e-01
-3.001066483557224274e-02
8.854768425226211548e-02
1.029190942645072937e-01
8.226553350687026978e-02
-2.670887112617492676e-01
-6.178549528121948242e-01
-1.767374575138092041e-01
1.880426704883575439e-01
-2.461617439985275269e-02
6.100117415189743042e-02
-1.745807379484176636e-01
5.086136981844902039e-02
3.134135156869888306e-02
-8.888206630945205688e-02
8.802737109363079071e-03
2.071313112974166870e-01
-4.440395534038543701e-01
-2.766418755054473877e-01
9.378457441926002502e-03
-1.431866437196731567e-01
-2.996196150779724121e-01
7.313228398561477661e-02
2.383495569229125977e-01
-1.311637163162231445e-01
-2.909222841262817383e-01
-1.962179243564605713e-01
-4.444999992847442627e-01
5.027486383914947510e-02
-1.218443289399147034e-01
1.661037057638168335e-01
-3.623521327972412109e-01
3.166893124580383301e-02
-8.181335031986236572e-02
-1.840651333332061768e-01
1.917871981859207153e-01
-9.299500286579132080e-02
-2.406957447528839111e-01
-4.008935019373893738e-02
-1.564756967127323151e-02
1.450439989566802979e-01
1.585950255393981934e-01
1.626258194446563721e-01
8.367535471916198730e-02
-3.152659535408020020e-02
-3.740045800805091858e-02
2.845194935798645020e-01
2.790275402367115021e-02
2.544783614575862885e-02
8.641719818115234375e-02
2.946229651570320129e-02
1.516910344362258911e-01
7.725866883993148804e-02
-5.055795907974243164e-01
1.799149625003337860e-02
7.272751629352569580e-02
-9.093318879604339600e-02
1.046131476759910583e-01
-6.566062569618225098e-02
2.486888170242309570e-01
7.951121032238006592e-02
-1.557903289794921875e-01
1.129221078008413315e-02
1.011070311069488525e-01
-4.064297676086425781e-01
-1.852265209890902042e-03
-1.761686354875564575e-01
-2.004007250070571899e-01
2.691684067249298096e-01
1.000486910343170166e-01
-2.487004995346069336e-01
-9.637665003538131714e-02
1.854086108505725861e-02
9.432369470596313477e-02
2.254364788532257080e-01
-1.859080791473388672e-01
-8.759472519159317017e-02
-2.610229253768920898e-01
-1.661430113017559052e-02
5.161044374108314514e-02
3.468683362007141113e-01
-2.342467308044433594e-01
-1.093926548957824707e+00
-6.469334010034799576e-03
1.520417779684066772e-01
9.864780306816101074e-02
1.371441483497619629e-01
-1.837624758481979370e-01
-2.245682477951049805e-01
-3.333978354930877686e-01
2.626621127128601074e-01
2.068683803081512451e-01
3.699395656585693359e-01
7.001890987157821655e-02
-1.652942299842834473e-01
2.014687806367874146e-01
-2.529166042804718018e-01
2.435004562139511108e-01
1.241804435849189758e-01
-1.521552652120590210e-01
1.675383150577545166e-01
2.516225576400756836e-01
9.937369823455810547e-02
4.694416746497154236e-02
-4.019322246313095093e-02
9.006839990615844727e-02
-1.496120989322662354e-01
1.445152424275875092e-02
-2.416490465402603149e-01
6.690121442079544067e-02
-1.423323303461074829e-01
-2.656787820160388947e-02
2.459382265806198120e-01
5.144744738936424255e-02
1.308853775262832642e-01
1.346418075263500214e-02
1.167147234082221985e-01
4.426416754722595215e-01
8.706586062908172607e-02
-3.128343224525451660e-01
-4.100381731986999512e-01
3.334993124008178711e-01
2.600717172026634216e-02
-4.293928444385528564e-01
-1.881211809813976288e-02
1.438584644347429276e-02
1.644328385591506958e-01
2.283075451850891113e-01
6.337037682533264160e-02
2.154356986284255981e-02
-3.794121146202087402e-01
4.984501749277114868e-02
8.873602747917175293e-02
2.660694718360900879e-01
1.669148951768875122e-01
-7.162664085626602173e-02
3.646361529827117920e-01
-6.616449356079101562e-01
-3.222336471080780029e-01
2.359921336174011230e-01
1.366325020790100098e-01
-1.603538542985916138e-01
-9.369084239006042480e-01
5.352079868316650391e-01
1.303050071001052856e-01
-2.053204625844955444e-01
-6.740893423557281494e-02
-5.902757644653320312e-01
5.245945794740691781e-05
1.543738692998886108e-01
-3.159068822860717773e-01
-2.793650627136230469e-01
1.520661264657974243e-01
5.939192697405815125e-02
-2.020383030176162720e-01
-2.258625179529190063e-01
-7.180903553962707520e-01
-3.577849268913269043e-02
-1.052033156156539917e-01
2.520889043807983398e-01
9.155198931694030762e-02
5.297510698437690735e-02
2.326384186744689941e-02
-1.218008548021316528e-01
2.431589215993881226e-01
-7.760164141654968262e-02
1.694464832544326782e-01
-6.696103811264038086e-01
-5.464813113212585449e-01
-4.496508091688156128e-02
-3.052802681922912598e-01
-3.239630758762359619e-01
-3.488389253616333008e-01
1.194746345281600952e-01
-5.280811712145805359e-02
-2.580021917819976807e-01
3.265629708766937256e-02
-5.585761368274688721e-02
2.161261439323425293e-01
3.598408028483390808e-02
-2.118947450071573257e-03
-4.661168158054351807e-01
-2.647095918655395508e-01
1.250152289867401123e-01
4.298552870750427246e-02
-7.260882854461669922e-02
1.432949751615524292e-01
6.727863103151321411e-02
6.846513599157333374e-02
-4.075871706008911133e-01
9.393122792243957520e-02
8.016513288021087646e-02
-1.950671225786209106e-01
-1.672798395156860352e-01
2.545625716447830200e-02
-2.368023693561553955e-01
2.432391420006752014e-02
-1.717405766248703003e-01
2.379394471645355225e-01
-2.336070388555526733e-01
-4.985431209206581116e-02
-2.330383509397506714e-01
-2.922998070716857910e-01
2.630223892629146576e-02
-8.105673640966415405e-02
3.086657226085662842e-01
1.053836569190025330e-01
5.867753550410270691e-02
1.552643477916717529e-01
2.394386678934097290e-01
3.017378747463226318e-01
1.280864980071783066e-02
-6.122393161058425903e-02
-7.947616279125213623e-02
-2.559698820114135742e-01
-4.268751293420791626e-02
-1.612962037324905396e-01
-2.621981203556060791e-01
4.886089265346527100e-02
2.980757132172584534e-02
-2.351417094469070435e-01
7.451921701431274414e-02
-6.787125952541828156e-03
-1.559979915618896484e-01
3.086839318275451660e-01
2.425685822963714600e-01
-1.979811340570449829e-01
1.416992396116256714e-01
-1.314404904842376709e-01
-2.552579939365386963e-01
1.213018782436847687e-02
2.196245342493057251e-01
-2.257947176694869995e-01
2.743447124958038330e-01
-3.194242483004927635e-03
-2.153915017843246460e-01
5.876343697309494019e-02
5.343264434486627579e-03
5.019221920520067215e-03
6.758160889148712158e-02
2.271979302167892456e-01
-6.829768419265747070e-02
-2.448073774576187134e-02
-1.742527075111865997e-02
1.828737407922744751e-01
-2.214098870754241943e-01
1.870661228895187378e-02
1.652397662401199341e-01
-1.449357420206069946e-01
1.075085997581481934e-01
-3.810766711831092834e-02
1.215391606092453003e-01
3.325316682457923889e-02
-1.154640540480613708e-01
-8.662142604589462280e-02
3.596594631671905518e-01
-1.804777383804321289e-01
1.338638179004192352e-02
-1.904881894588470459e-01
-3.064877092838287354e-01
-5.357697233557701111e-02
1.528488546609878540e-01
9.427919238805770874e-02
2.372337132692337036e-02
3.451206907629966736e-02
-2.551869750022888184e-01
1.393026858568191528e-01
-1.753407865762710571e-01
-3.397741019725799561e-01
-1.240055635571479797e-01
-3.682830631732940674e-01
-5.966071411967277527e-02
-1.009962633252143860e-01
-3.481892049312591553e-01
2.254213094711303711e-01
-2.172724902629852295e-01
7.102517993189394474e-04
7.003022730350494385e-02
-1.790615022182464600e-01
1.371408253908157349e-01
-2.328056842088699341e-01
4.891019314527511597e-02
-2.234583906829357147e-02
9.847303479909896851e-02
-5.914041027426719666e-02
-7.077105343341827393e-02
-9.680450707674026489e-02
-6.888204216957092285e-01
1.543767005205154419e-01
1.078229304403066635e-02
-8.896642364561557770e-03
-2.011836171150207520e-01
2.430071532726287842e-01
5.420403182506561279e-02
-1.531462669372558594e-01
-1.421027332544326782e-01
1.158008575439453125e-01
1.391754597425460815e-01
-1.482926658354699612e-03
1.100201830267906189e-01
-3.089405968785285950e-02
-6.095622479915618896e-02
1.762283034622669220e-02
7.101226598024368286e-02
-1.777520030736923218e-02
-2.123345248401165009e-02
-2.988444268703460693e-02
-1.444991976022720337e-01
1.065875589847564697e-01
-2.152514830231666565e-02
-1.315298527479171753e-01
2.573299109935760498e-01
-9.100846946239471436e-02
9.964363416656851768e-04
-4.451192021369934082e-01
3.571816384792327881e-01
-7.560601085424423218e-02
-2.302887439727783203e-01
2.506057322025299072e-01
6.275731325149536133e-02
-1.110956147313117981e-01
-1.518733650445938110e-01
-2.151277214288711548e-01
1.937798708677291870e-01
1.106207668781280518e-01
2.080941498279571533e-01
1.638319939374923706e-01
8.281961083412170410e-02
-5.433493480086326599e-02
1.579670608043670654e-01
3.364432156085968018e-01
-1.239932850003242493e-01
-1.385948956012725830e-01
2.139514237642288208e-01
2.458282709121704102e-01
-1.325820237398147583e-01
1.158186420798301697e-01
-1.445353478193283081e-01
2.044779062271118164e-01
-1.401119530200958252e-01
-4.733058065176010132e-02
-1.734238117933273315e-01
1.399323046207427979e-01
-2.407399117946624756e-01
-2.592745982110500336e-02
2.035506367683410645e-01
-1.044843792915344238e-01
1.609966903924942017e-01
-9.066035598516464233e-02
-1.650227755308151245e-01
2.560578286647796631e-02
-2.931918501853942871e-01
-2.966083586215972900e-01
2.747362256050109863e-01
-1.955040544271469116e-02
-2.909598499536514282e-02
-2.477233856916427612e-01
-7.662806659936904907e-02
-1.568313390016555786e-01
-1.450717449188232422e-01
-8.569293469190597534e-02
2.356478422880172729e-01
-4.839346110820770264e-01
2.738237082958221436e-01
-1.057213023304939270e-01
1.550113558769226074e-01
2.219142913818359375e-01
-4.824765324592590332e-01
6.876322627067565918e-02
-7.363014817237854004e-01
-9.191446006298065186e-02
5.160713568329811096e-02
2.452101409435272217e-01
-8.323293924331665039e-01
-2.816289067268371582e-01
1.032157167792320251e-01
-3.235467970371246338e-01
-1.462984979152679443e-01
-9.974951297044754028e-02
-1.722021102905273438e-01
-1.064117178320884705e-01
1.546180546283721924e-01
-3.472093492746353149e-02
1.172598749399185181e-01
-1.288619935512542725e-01
-1.241562515497207642e-01
-4.871279001235961914e-01
-2.826036810874938965e-01
2.675065994262695312e-01
-9.077128767967224121e-02
4.258677661418914795e-01
-6.947003602981567383e-01
-6.354501247406005859e-01
-2.866828143596649170e-01
6.870721280574798584e-02
-2.843486368656158447e-01
5.632696300745010376e-02
-1.328331679105758667e-01
1.895781978964805603e-02
8.921279013156890869e-02
1.486334055662155151e-01
-2.519296407699584961e-01
1.156242564320564270e-01
3.101744316518306732e-02
1.355759520083665848e-02
-1.713450700044631958e-01
2.462316602468490601e-01
3.053182736039161682e-02
-5.543763190507888794e-02
-2.332322597503662109e-01
5.653191357851028442e-02
1.008246913552284241e-01
1.069472357630729675e-02
-4.364153370261192322e-02
1.053827852010726929e-01
4.568249359726905823e-02
8.641916513442993164e-02
-3.208838701248168945e-01
6.517874449491500854e-02
1.109425872564315796e-01
4.397258460521697998e-01
7.996822893619537354e-02
-3.581376671791076660e-01
2.108725346624851227e-02
-9.841196238994598389e-02
3.556051850318908691e-02
-1.940765827894210815e-01
5.896797403693199158e-02
2.593021988868713379e-01
-2.991614043712615967e-01
4.018672928214073181e-02
-2.158545851707458496e-01
-1.801236271858215332e-01
1.761676669120788574e-01
1.189363673329353333e-01
1.100290045142173767e-01
-8.133105933666229248e-03
7.555665448307991028e-03
-1.846400946378707886e-01
7.758875191211700439e-02
4.526147618889808655e-03
3.566024452447891235e-02
1.138582229614257812e-01
-4.047830402851104736e-02
1.768556386232376099e-01
-1.114274859428405762e-01
1.083911135792732239e-01
-2.654188685119152069e-02
7.137072086334228516e-02
-3.404544293880462646e-02
-1.534103602170944214e-01
2.330872267484664917e-01
-1.432033330202102661e-01
-2.045708000659942627e-01
-8.401525020599365234e-02
2.404367551207542419e-02
-2.442800402641296387e-01
5.719202011823654175e-02
4.898322746157646179e-02
3.121137917041778564e-01
-2.262684255838394165e-01
-3.397253453731536865e-01
3.463188409805297852e-01
2.071007154881954193e-02
-3.482102751731872559e-01
-6.770195066928863525e-02
5.067530274391174316e-02
-1.222225278615951538e-01
-8.984159678220748901e-02
1.135561019182205200e-01
1.126345060765743256e-02
1.662516966462135315e-03
2.549545466899871826e-01
1.214159801602363586e-01
2.586871385574340820e-01
-2.320950105786323547e-02
3.360538184642791748e-02
1.572914421558380127e-01
-1.404044181108474731e-01
-2.807126939296722412e-01
-1.049341857433319092e-01
-3.090289533138275146e-01
4.227600991725921631e-02
6.304941326379776001e-02
4.587332904338836670e-02
1.601364910602569580e-01
7.153874635696411133e-02
-1.256352849304676056e-02
1.276064962148666382e-01
-6.333944946527481079e-02
-3.763382434844970703e-01
-2.416841452941298485e-03
1.069530621170997620e-01
4.243712723255157471e-01
7.366006076335906982e-02
4.978415369987487793e-01
-4.048324823379516602e-01
-4.100202918052673340e-01
1.317990664392709732e-02
9.558189660310745239e-02
-2.172953039407730103e-01
-3.158261775970458984e-01
3.313360735774040222e-02
8.287897706031799316e-02
-4.110975190997123718e-02
-2.326926961541175842e-02
-9.227687120437622070e-02
-1.409635134041309357e-02
3.908712416887283325e-03
-2.863859236240386963e-01
1.734660007059574127e-03
2.441219612956047058e-02
3.580337017774581909e-02
-8.473827689886093140e-02
-1.468864530324935913e-01
-5.819168873131275177e-04
1.834821552038192749e-01
-4.992709457874298096e-01
-3.363586664199829102e-01
-5.711656529456377029e-03
1.156138479709625244e-01
4.586512967944145203e-02
-2.162230312824249268e-01
1.143601839430630207e-03
4.231563210487365723e-02
-8.545886725187301636e-02
-4.403375089168548584e-01
7.289118319749832153e-02
1.656660623848438263e-02
-1.419701576232910156e-01
-3.765184059739112854e-02
-2.314226627349853516e-01
-9.196472167968750000e-02
-6.602782011032104492e-02
-1.179977208375930786e-01
2.815202623605728149e-02
2.935470454394817352e-02
-1.283062249422073364e-02
-1.931699365377426147e-02
-1.436031311750411987e-01
-3.204973042011260986e-02
5.594564229249954224e-02
1.081468760967254639e-01
-2.547309994697570801e-01
3.867153078317642212e-02
-2.656894549727439880e-02
3.980289027094841003e-02
-1.030594259500503540e-01
-1.773065626621246338e-01
2.864020764827728271e-01
-2.506171762943267822e-01
-7.735234219580888748e-03
1.993117779493331909e-01
2.515532672405242920e-01
-2.070582062005996704e-01
-8.278907090425491333e-02
-2.366614490747451782e-01
2.117553502321243286e-01
-8.585018664598464966e-02
5.310686770826578140e-03
7.926000654697418213e-02
2.519179582595825195e-01
6.823763251304626465e-02
-2.425651103258132935e-01
2.125455588102340698e-01
-1.737546324729919434e-01
-2.112771123647689819e-01
-2.854518294334411621e-01
-6.028245091438293457e-01
5.420573800802230835e-02
-3.916150927543640137e-01
-6.717587262392044067e-02
-3.811066150665283203e-01
-7.132306694984436035e-03
1.253772675991058350e-01
-1.622346341609954834e-01
-3.219256103038787842e-01
1.295115649700164795e-01
1.362986583262681961e-02
1.287766546010971069e-01
8.992806822061538696e-02
-3.310520052909851074e-01
-8.420123159885406494e-02
-7.094278186559677124e-02
-2.065360248088836670e-01
2.019808627665042877e-02
6.588777899742126465e-02
-1.150256767868995667e-01
7.368185371160507202e-02
1.205423027276992798e-01
-1.840768158435821533e-01
1.103529110550880432e-01
-4.014641344547271729e-01
-2.145425081253051758e-01
3.655369207262992859e-02
-5.763882398605346680e-02
-7.955358922481536865e-02
-8.855751901865005493e-02
1.974573284387588501e-01
6.982845813035964966e-02
-2.216239869594573975e-01
-1.885866820812225342e-01
4.550651833415031433e-02
-4.081330597400665283e-01
-3.340514376759529114e-02
-3.400261402130126953e-01
-1.645170003175735474e-01
-2.990610897541046143e-01
4.117486625909805298e-02
-2.234029769897460938e-01
-3.164488822221755981e-02
-2.039820402860641479e-01
-3.576273843646049500e-02
-1.475680917501449585e-01
7.211011648178100586e-02
3.754478693008422852e-02
-4.343274049460887909e-03
-5.335161462426185608e-03
-9.620077908039093018e-02
8.914922922849655151e-02
-5.380040779709815979e-02
2.677666842937469482e-01
-1.031866073608398438e-01
-1.369297970086336136e-02
5.489944946020841599e-03
7.084631174802780151e-02
-4.757902622222900391e-01
-2.143086194992065430e-01
1.350265443325042725e-01
2.536675892770290375e-02
-2.568137645721435547e-01
-2.749653533101081848e-02
7.014599442481994629e-02
-2.904877066612243652e-02
-5.857136845588684082e-01
1.705070585012435913e-02
1.724585145711898804e-01
8.414918929338455200e-02
9.477181732654571533e-02
-3.432538807392120361e-01
-1.125176474452018738e-01
1.884995698928833008e-01
1.790843158960342407e-01
2.253252267837524414e-01
1.139027625322341919e-01
1.410005334764719009e-02
7.716575264930725098e-02
-3.561405241489410400e-01
3.818969428539276123e-01
2.101552188396453857e-01
-1.050580386072397232e-02
-3.418643176555633545e-01
-3.661273121833801270e-01
1.794767938554286957e-02
-1.148930117487907410e-01
-9.896916896104812622e-02
-1.478030383586883545e-01
1.409836113452911377e-01
-5.064076930284500122e-02
-2.922572493553161621e-01
3.734545111656188965e-01
2.173905372619628906e-01
-4.295602440834045410e-02
-2.265440076589584351e-01
-1.024961546063423157e-01
1.102639809250831604e-01
1.048067063093185425e-01
-2.721738517284393311e-01
9.423810243606567383e-02
-1.050716638565063477e-01
-1.357185542583465576e-01
5.999559164047241211e-02
2.443115785717964172e-02
5.924304574728012085e-02
2.806856930255889893e-01
-5.779079720377922058e-02
1.162631735205650330e-01
3.519142046570777893e-02
-1.459820121526718140e-01
6.579998880624771118e-02
-1.085774898529052734e-01
-1.446334272623062134e-01
5.481714755296707153e-02
-7.091853767633438110e-02
4.666692018508911133e-01
-2.210701853036880493e-01
1.297474950551986694e-01
1.214430853724479675e-01
1.611845940351486206e-02
-8.462193422019481659e-03
1.190326884388923645e-01
-2.601913511753082275e-01
2.479267120361328125e-01
-1.444108933210372925e-01
-4.972939491271972656e-01
-3.556965887546539307e-01
-2.988577075302600861e-02
-9.541475772857666016e-02
-1.122486367821693420e-01
-2.282577455043792725e-01
-2.294632792472839355e-01
-2.998860478401184082e-01
1.576988995075225830e-01
1.839569807052612305e-01
3.603844717144966125e-02
4.709384217858314514e-02
-3.393796384334564209e-01
-3.682489693164825439e-01
5.983977764844894409e-02
4.068485274910926819e-02
2.012830376625061035e-01
-3.075933083891868591e-03
-8.713448792695999146e-02
-1.172983050346374512e-01
2.200177125632762909e-02
-3.062176108360290527e-01
4.369599521160125732e-01
1.063042879104614258e-01
-4.589734077453613281e-01
1.423475891351699829e-01
-8.148711919784545898e-02
-4.297288879752159119e-02
-6.573211401700973511e-02
7.975280284881591797e-02
-7.315704226493835449e-02
8.640737086534500122e-02
1.595419645309448242e-01
-1.181393787264823914e-01
-8.384673297405242920e-02
1.760130375623703003e-01
3.002459648996591568e-03
1.531027704477310181e-01
-2.611744403839111328e-01
-3.978798538446426392e-02
-9.207142144441604614e-02
-3.595650568604469299e-02
-1.184977442026138306e-01
1.799523830413818359e-01
-2.556520700454711914e-01
2.535837143659591675e-02
-1.889780461788177490e-01
-6.676074117422103882e-02
-2.579536437988281250e-01
-2.566609680652618408e-01
-1.226452365517616272e-01
-2.810030579566955566e-01
1.568201929330825806e-02
-6.996609568595886230e-01
-9.486974216997623444e-03
-1.909186244010925293e-01
-2.055895924568176270e-01
-3.738095462322235107e-01
-6.847960874438285828e-03
3.568424656987190247e-02
7.797041535377502441e-02
1.084377020597457886e-01
-3.517737984657287598e-01
-2.234527915716171265e-01
-1.283438205718994141e-01
7.695860415697097778e-02
-1.096006184816360474e-01
1.748737990856170654e-01
-2.989889979362487793e-01
1.020779553800821304e-02
-1.364740636199712753e-02
-1.189592778682708740e-01
3.122146241366863251e-02
5.053248628973960876e-02
-1.170121580362319946e-01
1.879842020571231842e-02
-3.129144608974456787e-01
-1.731789261102676392e-01
6.924907863140106201e-02
-8.473215252161026001e-02
-7.233652472496032715e-01
-2.501789033412933350e-01
-1.887509226799011230e-01
-2.549929320812225342e-01
-1.831631660461425781e-01
4.403867572546005249e-02
-3.500958904623985291e-02
2.324402481317520142e-01
1.880264282226562500e-01
-1.120324507355690002e-01
7.392010092735290527e-02
-8.622945100069046021e-02
-2.483397126197814941e-01
-4.705752059817314148e-02
5.416174530982971191e-01
-1.291663199663162231e-01
2.039296329021453857e-01
-7.125792652368545532e-02
6.619782000780105591e-02
-1.274326741695404053e-01
3.165419995784759521e-01
8.440098911523818970e-02
-3.893167376518249512e-01
-1.110435724258422852e-01
-1.419523451477289200e-02
-1.697411239147186279e-01
-1.994306743144989014e-01
-1.214492321014404297e-01
2.534995079040527344e-01
2.724187374114990234e-01
-5.053075030446052551e-03
-4.648178443312644958e-02
-2.846398353576660156e-01
6.962984800338745117e-02
2.300531715154647827e-01
-9.513700753450393677e-02
6.048483774065971375e-02
-3.775703907012939453e-02
-2.373304404318332672e-02
-5.028305649757385254e-01
1.579029858112335205e-01
-4.324497878551483154e-01
1.423390358686447144e-01
2.522639036178588867e-01
-1.034145951271057129e-01
1.261805295944213867e-01
-2.219395190477371216e-01
3.153410255908966064e-01
-4.781659319996833801e-02
2.138490322977304459e-03
-1.999096944928169250e-02
-1.205802112817764282e-01
-1.068795770406723022e-01
-5.127341747283935547e-01
2.717474997043609619e-01
-8.009044080972671509e-02
-3.760268986225128174e-01
-9.867767989635467529e-02
-5.540025234222412109e-01
-2.233846038579940796e-01
-1.289322376251220703e-01
1.229183226823806763e-01
2.183665633201599121e-01
-3.616635873913764954e-02
-2.657675445079803467e-01
1.122122555971145630e-01
1.935678720474243164e-02
2.228434756398200989e-02
-7.525081187486648560e-02
1.083320006728172302e-02
-9.461465477943420410e-02
-2.678969800472259521e-01
-1.803327500820159912e-01
5.166650190949440002e-02
-9.055514633655548096e-02
-1.463749706745147705e-01
-1.734240353107452393e-01
1.678917258977890015e-01
2.260315790772438049e-02
5.814459174871444702e-02
1.257366966456174850e-02
7.551842927932739258e-02
5.192236602306365967e-02
9.985165297985076904e-02
-4.825085867196321487e-03
-9.468144178390502930e-01
-7.275305222719907761e-03
-1.885303407907485962e-01
-1.413360685110092163e-01
1.758985817432403564e-01
-2.014821171760559082e-01
2.003492414951324463e-01
-1.259409636259078979e-01
-1.145230084657669067e-01
-5.550897121429443359e-01
-2.247492820024490356e-01
1.596581488847732544e-01
-5.547309517860412598e-01
-3.680415078997612000e-02
-5.088821798563003540e-02
-1.255788654088973999e-01
3.685457259416580200e-02
-5.458917617797851562e-01
2.021041363477706909e-01
3.200857043266296387e-01
1.979038119316101074e-01
4.275287687778472900e-02
-1.971436291933059692e-01
-3.394210040569305420e-01
-2.108020931482315063e-01
-8.447531461715698242e-01
2.363574318587779999e-02
-1.687224060297012329e-01
-3.543241024017333984e-01
3.982518315315246582e-01
-1.400632709264755249e-01
1.403303295373916626e-01
5.393016934394836426e-01
4.070968031883239746e-01
-4.079276695847511292e-02
1.902047917246818542e-02
-9.064774960279464722e-02
1.823979765176773071e-01
2.305742204189300537e-01
-1.041111797094345093e-01
1.120410859584808350e-01
-1.129680946469306946e-01
-6.645588874816894531e-01
1.725085526704788208e-01
3.016687929630279541e-01
2.598704397678375244e-01
-4.300984367728233337e-02
-1.569171249866485596e-01
-2.098098024725914001e-02
-8.292750269174575806e-02
-2.832562029361724854e-01
-6.136965751647949219e-02
3.914597928524017334e-01
-2.528002858161926270e-01
-3.424761891365051270e-01
1.984223425388336182e-01
-1.655809022486209869e-02
1.383602321147918701e-01
-1.072756499052047729e-01
5.081525444984436035e-01
6.183374673128128052e-02
2.443981021642684937e-01
-1.704642474651336670e-01
-2.431817799806594849e-01
1.377774588763713837e-02
-1.182722225785255432e-01
1.207165792584419250e-01
-2.357144057750701904e-01
8.486195467412471771e-03
1.146134063601493835e-01
2.418066263198852539e-01
-1.612424701452255249e-01
-2.401183592155575752e-03
1.062628477811813354e-01
-3.601867854595184326e-01
1.219954527914524078e-02
3.103313967585563660e-02
-5.738744139671325684e-02
9.950337558984756470e-02
-7.266453001648187637e-03
-1.915552169084548950e-01
-2.451613694429397583e-01
1.164860725402832031e-01
-7.052474617958068848e-01
2.039486020803451538e-01
-1.845819056034088135e-01
8.007568120956420898e-02
-4.021973907947540283e-01
2.109736055135726929e-01
1.431402713060379028e-01
1.048002392053604126e-01
-7.662509381771087646e-02
-2.956236004829406738e-01
1.989307999610900879e-01
6.737388670444488525e-02
-2.587891519069671631e-01
3.677313774824142456e-02
1.593136489391326904e-01
-4.344537481665611267e-02
1.957939565181732178e-01
3.437514975666999817e-02
1.256116330623626709e-01
3.070166334509849548e-02
2.211852967739105225e-01
3.306375443935394287e-01
-2.106773853302001953e-01
1.576908677816390991e-01
-1.441142410039901733e-01
1.847026795148849487e-01
-7.002343982458114624e-02
2.080625295639038086e-01
-3.110131919384002686e-01
-3.342279419302940369e-02
-7.050634175539016724e-02
1.149344369769096375e-01
1.480446308851242065e-01
-4.137247428297996521e-02
-3.733498975634574890e-02
1.102672293782234192e-01
1.344065219163894653e-01
2.885439097881317139e-01
4.164634644985198975e-02
-1.168272271752357483e-01
-3.723971173167228699e-02
-6.368440389633178711e-02
-3.007147610187530518e-01
1.019258648157119751e-01
8.060139603912830353e-03
-1.086045354604721069e-01
-2.060630321502685547e-01
1.606908142566680908e-01
-4.535200297832489014e-01
8.519545197486877441e-02
1.849827319383621216e-01
1.071228086948394775e-01
-4.089620709419250488e-02
6.463225930929183960e-02
-1.602703481912612915e-01
-1.636919528245925903e-01
1.338570863008499146e-01
-2.409673035144805908e-01
1.238792389631271362e-01
1.220942363142967224e-01
5.339157581329345703e-02
1.478740870952606201e-01
-1.354206949472427368e-01
1.674066483974456787e-01
1.652893871068954468e-01
-8.720196783542633057e-02
2.364853769540786743e-01
9.244812279939651489e-02
1.803570687770843506e-01
4.193497449159622192e-02
6.620508432388305664e-02
-5.888269469141960144e-02
-1.266021877527236938e-01
-3.988042175769805908e-01
-3.394730389118194580e-02
1.392923742532730103e-01
-1.596466451883316040e-01
-2.539406418800354004e-01
2.951741814613342285e-01
-1.926783025264739990e-01
2.678967416286468506e-01
3.394769039005041122e-03
8.953228592872619629e-02
-2.951261959969997406e-02
2.189994603395462036e-01
-2.323915995657444000e-02
-1.400177031755447388e-01
1.781908720731735229e-01
-1.540176942944526672e-02
-3.457040339708328247e-02
2.268657833337783813e-02
2.655892074108123779e-02
4.433792531490325928e-01
-3.330811113119125366e-02
-4.368065390735864639e-03
-2.560558617115020752e-01
9.820973873138427734e-02
2.512691356241703033e-02
5.029437690973281860e-02
-1.290443837642669678e-01
2.649341225624084473e-01
2.346907556056976318e-02
-2.634293399751186371e-02
-2.338609695434570312e-01
1.005532220005989075e-01
-2.651105523109436035e-01
-1.213350072503089905e-01
2.477031201124191284e-01
-4.275334179401397705e-01
1.290246993303298950e-01
-7.859286852180957794e-03
2.510499358177185059e-01
1.183121502399444580e-01
1.306120902299880981e-01
-1.079297438263893127e-02
7.519751042127609253e-02
1.167082041501998901e-01
-2.921670973300933838e-01
-4.814821761101484299e-03
-1.090447530150413513e-01
1.644472628831863403e-01
-1.066879034042358398e-01
-1.284465342760086060e-01
1.988094300031661987e-01
1.245743110775947571e-01
-8.669970929622650146e-02
4.923125505447387695e-01
6.627729535102844238e-02
-4.284858703613281250e-01
1.290099509060382843e-02
-3.568679392337799072e-01
-1.302791666239500046e-02
9.780905675143003464e-04
-1.615789532661437988e-01
-2.588801085948944092e-01
9.174530953168869019e-02
-1.005486701615154743e-03
2.085321545600891113e-01
2.146135782822966576e-03
4.061562195420265198e-02
2.691160887479782104e-02
6.427050381898880005e-02
-7.038359344005584717e-02
5.544539541006088257e-02
4.711917787790298462e-02
-6.710072606801986694e-02
-8.249818347394466400e-03
3.031948804855346680e-01
-1.819735914468765259e-01
9.500905871391296387e-02
-2.155058979988098145e-01
1.411849912256002426e-02
-1.288736164569854736e-01
-3.148056566715240479e-02
1.035540178418159485e-01
-5.183853507041931152e-01
-8.291438966989517212e-02
4.402631148695945740e-02
-5.872925743460655212e-02
2.760641276836395264e-01
-3.098249733448028564e-01
-4.140467047691345215e-01
-4.029340669512748718e-02
2.929139137268066406e-01
6.974481046199798584e-02
6.988580524921417236e-02
-2.035253793001174927e-01
5.893723964691162109e-01
2.176838461309671402e-04
-1.820914074778556824e-02
-8.554185181856155396e-02
6.558608263731002808e-02
-5.574799329042434692e-02
1.595157980918884277e-01
-4.886679053306579590e-01
-7.950928062200546265e-03
5.481269676238298416e-03
-1.153343468904495239e-01
-2.422111928462982178e-01
1.913433820009231567e-01
-3.821605443954467773e-01
-2.242861241102218628e-01
-2.431244775652885437e-02
-1.487050056457519531e-01
1.302502751350402832e-01
-1.354997754096984863e-01
-5.412354692816734314e-02
3.288855776190757751e-02
-1.273859739303588867e-01
-7.150665670633316040e-02
5.242000147700309753e-02
-1.736180186271667480e-01
-1.186145246028900146e-01
-9.899600595235824585e-02
-1.631235182285308838e-01
-3.905115425586700439e-01
7.521454244852066040e-02
-5.230654478073120117e-01
1.777680814266204834e-01
-2.346477806568145752e-01
-1.732708364725112915e-01
