3.735680282115936279e-01
4.412686824798583984e-02
1.030877083539962769e-01
-3.011266328394412994e-02
1.464569866657257080e-01
-2.476122602820396423e-02
2.003522366285324097e-01
3.713613450527191162e-01
1.993422210216522217e-01
-4.162765443325042725e-01
-1.551706045866012573e-01
3.170460462570190430e-01
-3.396283090114593506e-01
1.569771766662597656e-01
1.281810551881790161e-01
2.365376949310302734e-01
3.409500420093536377e-01
-1.036665439605712891e-01
-1.476515680551528931e-01
-1.054909974336624146e-01
-3.308666869997978210e-02
3.533973097801208496e-01
-7.365394383668899536e-02
-2.666907906532287598e-01
-3.777186870574951172e-01
3.547539114952087402e-01
1.812226139008998871e-02
3.196587860584259033e-01
-2.304148115217685699e-02
-3.262979686260223389e-01
2.632656693458557129e-01
2.287721782922744751e-01
-4.030044078826904297e-01
-2.083229124546051025e-01
-5.202938988804817200e-02
3.919956684112548828e-01
2.004047334194183350e-01
-1.817522794008255005e-01
7.758346199989318848e-02
-4.209420084953308105e-01
2.706381380558013916e-01
1.156025677919387817e-01
2.645771950483322144e-02
3.761461675167083740e-01
1.914267838001251221e-01
1.032969728112220764e-01
-6.513869762420654297e-02
-3.565917909145355225e-02
2.744320034980773926e-01
-3.957691192626953125e-01
8.700007945299148560e-02
-2.827322185039520264e-01
-2.007936239242553711e-01
-3.368650078773498535e-01
3.889321386814117432e-01
3.654052913188934326e-01
1.665639877319335938e-01
-3.518352210521697998e-01
-6.581779569387435913e-02
-3.825444281101226807e-01
4.556960985064506531e-02
2.156684547662734985e-01
-3.211717903614044189e-01
5.379341170191764832e-02
-9.990289062261581421e-02
1.334976553916931152e-01
-3.373205661773681641e-01
-2.905697748064994812e-02
-2.142004109919071198e-02
-7.510280609130859375e-02
3.273207247257232666e-01
-2.628783285617828369e-01
1.438160985708236694e-01
3.139728605747222900e-01
-1.167143583297729492e-01
3.447041213512420654e-01
-1.157581359148025513e-01
-1.288849711418151855e-01
-2.995963096618652344e-01
2.634741067886352539e-01
-2.311479747295379639e-01
3.135773241519927979e-01
2.921714484691619873e-01
2.306953072547912598e-02
2.922898530960083008e-01
1.448370069265365601e-01
2.128259241580963135e-01
1.848375201225280762e-01
9.690559655427932739e-02
-2.145308703184127808e-01
2.236249744892120361e-01
3.577186167240142822e-01
-2.069168090820312500e-01
-2.106801234185695648e-02
1.989958584308624268e-01
3.678251504898071289e-01
-2.428680211305618286e-01
-1.650740355253219604e-01
-3.419271111488342285e-01
-5.609479546546936035e-02
-3.784658908843994141e-01
-1.851440668106079102e-01
3.509766757488250732e-01
-9.866921603679656982e-02
1.912406235933303833e-01
-3.553384542465209961e-01
2.427417188882827759e-01
3.529983460903167725e-01
-1.543527841567993164e-01
3.752027451992034912e-01
-1.889829784631729126e-01
-2.176608443260192871e-01
-4.105159938335418701e-01
3.342103064060211182e-01
1.027896478772163391e-01
-6.456776987761259079e-03
-1.384107619524002075e-01
-2.539002597332000732e-01
3.502383232116699219e-01
-9.135585278272628784e-02
-3.721549808979034424e-01
-3.999977409839630127e-01
-4.405597224831581116e-02
-1.645255461335182190e-02
1.843446344137191772e-01
-1.043386682868003845e-01
1.220373287796974182e-01
1.499621942639350891e-02
3.683240711688995361e-01
5.119824782013893127e-02
1.011678948998451233e-02
3.316654562950134277e-01
-4.599817097187042236e-02
-3.455742299556732178e-01
-2.973471283912658691e-01
-2.557190358638763428e-01
-2.938277646899223328e-02
-1.145893409848213196e-01
2.727290689945220947e-01
-2.144874632358551025e-01
-2.892237901687622070e-01
-3.411524295806884766e-01
-4.651445150375366211e-02
-9.246613830327987671e-02
-3.258970975875854492e-01
-9.461029618978500366e-02
-1.236509904265403748e-01
-1.603043228387832642e-01
-3.453930616378784180e-01
-9.317509084939956665e-02
2.710821628570556641e-01
1.528569906949996948e-01
-1.743254959583282471e-01
-7.012733072042465210e-02
-4.839930683374404907e-02
-2.071273475885391235e-01
2.620995640754699707e-01
-7.752425968647003174e-02
9.726069867610931396e-02
1.043448969721794128e-01
-1.584558784961700439e-01
3.771785646677017212e-02
3.499399721622467041e-01
-3.136719763278961182e-01
-3.485678732395172119e-01
-2.495431154966354370e-01
-3.922132253646850586e-01
7.300290279090404510e-03
2.301846891641616821e-01
-2.731900215148925781e-01
1.528471708297729492e-01
-8.830051124095916748e-02
-1.977235972881317139e-01
-2.052272558212280273e-01
-1.580464281141757965e-02
3.331313431262969971e-01
7.133312523365020752e-02
1.286771893501281738e-01
3.275077939033508301e-01
-1.698594242334365845e-01
2.118557877838611603e-02
3.298541307449340820e-01
4.081305563449859619e-01
-9.931515157222747803e-02
-1.749959029257297516e-02
-1.662426292896270752e-01
-3.398713171482086182e-01
-3.202591091394424438e-03
1.091985180974006653e-01
-7.184722274541854858e-02
8.361717313528060913e-02
1.972510293126106262e-02
3.434956967830657959e-01
5.301949009299278259e-02
-1.137183457612991333e-01
-3.771458566188812256e-01
-1.577729731798171997e-01
1.988147348165512085e-01
-4.310450255870819092e-01
-2.643965184688568115e-01
-4.816706478595733643e-02
1.491733640432357788e-02
1.162813976407051086e-01
-9.880571067333221436e-02
4.511002823710441589e-02
2.444848567247390747e-01
1.739585995674133301e-01
-3.001620173454284668e-01
2.521419152617454529e-02
-9.562677145004272461e-02
4.946297779679298401e-02
4.268507957458496094e-01
4.065610766410827637e-01
5.234526395797729492e-01
-2.111837565898895264e-01
-4.907914251089096069e-02
-3.810563087463378906e-01
8.105190098285675049e-02
-1.765331476926803589e-01
3.150394856929779053e-01
2.767977118492126465e-01
-9.448106586933135986e-02
1.406590491533279419e-01
2.057410478591918945e-01
7.145234942436218262e-02
-3.626940399408340454e-02
3.301653563976287842e-01
1.114366650581359863e-01
8.943075686693191528e-02
4.329803586006164551e-02
2.513824403285980225e-01
-1.410831212997436523e-01
-1.666705906391143799e-01
2.848876714706420898e-01
2.624878287315368652e-01
4.486758634448051453e-02
-2.647765278816223145e-01
-3.769882321357727051e-01
8.618816733360290527e-02
1.553853601217269897e-01
-3.004719018936157227e-01
-3.384947180747985840e-01
1.236022710800170898e-01
3.610522449016571045e-01
-3.745889067649841309e-01
-1.141817048192024231e-01
-2.029961496591567993e-01
5.959342420101165771e-02
-3.779466450214385986e-01
-1.253327280282974243e-01
