8.528488874435424805e-02
-4.918484091758728027e-01
5.266394019126892090e-01
3.874885737895965576e-01
5.185688138008117676e-01
4.903243109583854675e-02
-1.572305411100387573e-01
-1.028815954923629761e-01
3.374020457267761230e-01
4.424748942255973816e-02
-4.467062950134277344e-01
-2.422432415187358856e-02
3.408063054084777832e-01
5.329172611236572266e-01
-7.163759320974349976e-02
4.829465597867965698e-02
-9.430921077728271484e-02
-4.411011040210723877e-01
3.802959918975830078e-01
9.644620120525360107e-02
2.900550365447998047e-01
-3.323034644126892090e-01
5.295283719897270203e-02
-3.086051158607006073e-02
5.628622770309448242e-01
-2.822519540786743164e-01
-6.630892306566238403e-02
-5.136371254920959473e-01
-1.776619553565979004e-01
1.871716529130935669e-01
-7.597353309392929077e-02
-2.109141796827316284e-01
1.682888120412826538e-01
-2.564951777458190918e-01
-1.717261672019958496e-01
1.568176895380020142e-01
-1.820311993360519409e-01
1.318410038948059082e-01
1.108079254627227783e-01
1.161551219411194324e-03
4.851961135864257812e-02
-5.083013176918029785e-01
3.964647650718688965e-02
1.169638410210609436e-01
2.320811618119478226e-03
-5.075890943408012390e-02
1.401285380125045776e-01
-1.628723740577697754e-01
3.303869366645812988e-01
-4.721553251147270203e-02
3.472417891025543213e-01
-8.673281967639923096e-02
-2.145691514015197754e-01
5.312088876962661743e-02
-3.534130454063415527e-01
-8.480452001094818115e-02
-5.103641152381896973e-01
-1.602072268724441528e-01
-2.579723596572875977e-01
-1.009216532111167908e-02
-3.673824965953826904e-01
-1.012020409107208252e-01
1.797385960817337036e-01
-9.175001084804534912e-02
2.565886676311492920e-01
-5.850152969360351562e-01
1.004139855504035950e-01
-1.048498004674911499e-01
-3.378625512123107910e-01
1.311489790678024292e-01
-3.609321713447570801e-01
1.910348236560821533e-01
4.416324198246002197e-02
-1.939537078142166138e-01
9.874546527862548828e-02
-1.177242398262023926e+00
2.231635600328445435e-01
-1.445051193237304688e+00
-2.502566814422607422e+00
-1.158762216567993164e+00
-1.421114951372146606e-01
-2.671873383224010468e-02
-1.327818036079406738e-01
-1.131267547607421875e+00
-2.401020973920822144e-01
-6.881714463233947754e-01
-7.670731067657470703e+00
-1.487471342086791992e+00
-3.536169230937957764e-02
-5.686978101730346680e-01
-1.450439333915710449e+00
-1.471782088279724121e+00
1.948387771844863892e-01
-6.293324828147888184e-01
-2.006869316101074219e-01
-6.061975955963134766e-01
-5.619452595710754395e-01
-8.444125205278396606e-02
3.028751313686370850e-01
-2.252370864152908325e-01
2.816308662295341492e-02
1.950189322233200073e-01
-8.557356894016265869e-02
-2.504608333110809326e-01
-1.708433270454406738e+00
1.749870553612709045e-02
2.843120135366916656e-02
-1.185132190585136414e-01
-1.339935421943664551e+00
-5.948433279991149902e-02
3.526676893234252930e-01
4.405381530523300171e-02
5.473605543375015259e-02
-5.683892965316772461e-01
-1.807403415441513062e-01
1.307685114443302155e-02
1.295300424098968506e-01
-6.097956001758575439e-02
-1.821423470973968506e-01
-6.013970971107482910e-01
2.475845217704772949e-01
-3.031724691390991211e-01
-6.210586428642272949e-01
2.451353073120117188e-01
-9.792178273200988770e-01
-8.936303853988647461e-01
-6.110448017716407776e-02
-1.584218382835388184e+00
-1.986082792282104492e-01
-1.756268553435802460e-02
1.518768221139907837e-01
-2.724034525454044342e-02
4.342986345291137695e-01
-3.427114784717559814e-01
-3.396470844745635986e-01
-4.657257080078125000e+00
1.973886638879776001e-01
2.911075949668884277e-02
7.577063441276550293e-01
1.126975640654563904e-01
-2.880482673645019531e-01
3.732230663299560547e-01
1.675074994564056396e-01
-1.740226626396179199e+00
1.795403659343719482e-01
2.952445149421691895e-01
-8.841487020254135132e-02
-1.508057713508605957e-01
1.049716025590896606e-01
-7.756803631782531738e-01
5.974169075489044189e-02
-9.719850122928619385e-02
-1.218716621398925781e+00
5.468564629554748535e-01
-1.100210905075073242e+00
2.558915317058563232e-02
-6.447651982307434082e-02
4.348292350769042969e-01
1.437266170978546143e-01
-7.519452273845672607e-02
-2.462213486433029175e-01
-1.657058447599411011e-01
2.581941783428192139e-01
-2.009949922561645508e+00
1.642500609159469604e-01
6.429210305213928223e-01
5.139729976654052734e-01
-1.206947304308414459e-02
-2.664959728717803955e-01
2.168538570404052734e-01
2.378049120306968689e-02
-4.823112487792968750e+00
5.872928351163864136e-02
-3.369564190506935120e-02
2.034093439579010010e-01
-2.026312202215194702e-01
1.357637494802474976e-01
-1.647201776504516602e-01
-1.260835170745849609e+00
-1.334472298622131348e-01
-4.927491545677185059e-01
-4.682876467704772949e-01
-2.085884660482406616e-01
-1.110483407974243164e-01
-1.128538966178894043e+00
2.297790050506591797e-01
-1.490743756294250488e-01
-1.595551818609237671e-01
-1.478798389434814453e+00
-2.864799797534942627e-01
-3.529047071933746338e-01
-1.035244241356849670e-01
4.969663619995117188e-01
-2.043390750885009766e+00
-2.509941756725311279e-01
-2.976451396942138672e+00
-6.880256533622741699e-02
-9.749960303306579590e-01
2.149489074945449829e-01
1.412611007690429688e-01
8.099133968353271484e-01
-5.698448419570922852e-01
4.428724944591522217e-02
6.040014624595642090e-01
-5.575304627418518066e-01
7.844901829957962036e-02
-1.430889815092086792e-01
2.044086605310440063e-01
-1.620702981948852539e+00
-2.455664575099945068e-01
-5.516777038574218750e-01
-2.464764714241027832e-01
1.923601627349853516e-01
-6.463088393211364746e-01
1.642775535583496094e-02
4.724613130092620850e-01
-3.205868303775787354e-01
-2.941610515117645264e-01
-4.757945835590362549e-01
-1.014661565423011780e-01
-5.345914959907531738e-01
-6.174080967903137207e-01
1.343693584203720093e-01
-3.080079853534698486e-01
-1.946783423423767090e+00
2.718430459499359131e-01
-1.413103044033050537e-01
-2.157167904078960419e-02
2.075662016868591309e-01
2.056587934494018555e-01
-4.833213686943054199e-01
2.106656581163406372e-01
-4.654568433761596680e-01
3.583355545997619629e-01
-1.810824424028396606e-01
4.182936251163482666e-01
6.965588927268981934e-01
1.335141956806182861e-01
-1.386897731572389603e-02
2.871350646018981934e-01
-1.978695020079612732e-02
3.272514939308166504e-01
-2.691191807389259338e-02
3.277935683727264404e-01
-4.151582717895507812e+00
-1.627698838710784912e-01
1.310644000768661499e-01
7.944132387638092041e-02
1.464646607637405396e-01
-1.857849121093750000e+00
7.261497378349304199e-01
9.211381524801254272e-02
4.736199080944061279e-01
-8.865272402763366699e-01
-6.344507336616516113e-01
-3.759061917662620544e-02
2.403494529426097870e-02
-2.215633243322372437e-01
1.340294778347015381e-01
3.029383718967437744e-01
1.057423576712608337e-01
-4.782703816890716553e-01
-3.440383970737457275e-01
-1.445623487234115601e-01
-3.856673091650009155e-02
-6.531350016593933105e-01
1.188498884439468384e-01
1.103104129433631897e-01
-2.251056581735610962e-02
-3.784760534763336182e-01
2.847395837306976318e-02
5.348420739173889160e-01
-3.458382189273834229e-02
8.111821860074996948e-02
-7.834766060113906860e-02
-1.683807224035263062e-01
7.816348224878311157e-02
-3.891479671001434326e-01
-1.354112029075622559e-01
-1.062119007110595703e+00
-6.432521343231201172e-02
3.123162314295768738e-02
-1.749698072671890259e-02
-3.106478452682495117e-01
-4.360008537769317627e-01
2.172822058200836182e-01
2.367548346519470215e-01
-4.136374890804290771e-01
-3.434102237224578857e-01
-2.191829383373260498e-01
-2.087696045637130737e-01
-2.070159763097763062e-01
4.686456546187400818e-02
1.884506433270871639e-03
-2.527354657649993896e-01
-2.528708577156066895e-01
-2.666903138160705566e-01
-5.750901531428098679e-03
5.511533841490745544e-02
-8.974414318799972534e-02
4.340307042002677917e-02
9.309540390968322754e-01
5.821201205253601074e-02
3.064017891883850098e-01
1.145558208227157593e-01
9.396051615476608276e-02
-5.869971960783004761e-02
-2.085094600915908813e-01
-1.730791777372360229e-01
-4.194128811359405518e-01
3.823934495449066162e-01
7.366267442703247070e-01
-2.330815494060516357e-01
-4.656936526298522949e-01
-1.672389954328536987e-01
4.468749165534973145e-01
1.827391982078552246e-01
1.212675049901008606e-01
5.634983181953430176e-01
1.358191072940826416e-01
-1.193124890327453613e+00
5.510142445564270020e-01
2.148771584033966064e-01
-4.541026055812835693e-01
-2.350831985473632812e+00
5.307511612772941589e-02
-2.797849848866462708e-02
-6.476850830949842930e-04
1.479342132806777954e-01
-5.233926326036453247e-02
-3.826334699988365173e-02
-8.231527172029018402e-03
4.493320011533796787e-04
9.435624629259109497e-02
-1.665779738686978817e-03
-6.048180907964706421e-02
-1.156102586537599564e-02
-7.352031022310256958e-02
-8.420690894126892090e-02
4.956191778182983398e-02
1.994017660617828369e-01
1.306644827127456665e-01
-5.531209334731101990e-02
6.634528934955596924e-02
-5.983633920550346375e-02
1.011021807789802551e-02
-3.315899074077606201e-01
4.198297858238220215e-02
-2.352086640894412994e-02
1.632319949567317963e-02
1.330194994807243347e-02
1.014156565070152283e-01
1.824496239423751831e-01
7.289563119411468506e-02
-8.544304370880126953e-01
1.042729094624519348e-01
6.559702754020690918e-02
-2.942552268505096436e-01
9.776043891906738281e-02
-1.148642003536224365e-01
4.462170600891113281e-02
-2.922883987426757812e+00
2.751970887184143066e-01
-1.333619713783264160e+00
-1.038256585597991943e-01
-1.659626960754394531e+00
-7.721552848815917969e-01
1.363020241260528564e-01
-1.632058143615722656e+00
-8.820683956146240234e-01
-2.540592104196548462e-02
-5.059054493904113770e-01
-1.182783246040344238e-01
3.574091941118240356e-02
-2.780448496341705322e-01
-1.039715290069580078e+00
1.968186050653457642e-01
-2.984575629234313965e-01
1.090948432683944702e-01
-1.355507224798202515e-01
-1.404734611511230469e+00
5.565579533576965332e-01
-2.263724431395530701e-02
4.420904219150543213e-01
1.736309677362442017e-01
-1.747707605361938477e+00
-2.113906592130661011e-01
-9.963948279619216919e-02
-1.630868673324584961e+00
2.941677570343017578e-01
-4.095698595046997070e-01
-8.711342513561248779e-02
1.061523780226707458e-01
-5.376008152961730957e-02
-8.723239898681640625e+00
1.221209112554788589e-02
-4.015602767467498779e-01
-2.062765061855316162e-01
-7.800651788711547852e-01
-3.236489772796630859e+00
-1.035358428955078125e+00
2.938042581081390381e-01
-9.670111536979675293e-02
-3.605473339557647705e-01
2.776427865028381348e-01
4.806429520249366760e-02
-6.597725301980972290e-02
-9.566599726676940918e-01
8.549885451793670654e-02
-1.433774352073669434e+00
-3.360593318939208984e-01
-9.703355282545089722e-02
-7.066650390625000000e-01
3.246442973613739014e-02
2.408284097909927368e-01
-6.534627079963684082e-01
-7.690247893333435059e-01
5.693186521530151367e-01
2.627878785133361816e-01
-1.077030897140502930e-01
-1.330505013465881348e+00
-9.576327800750732422e-01
2.487703263759613037e-01
-3.974415957927703857e-01
-3.010666668415069580e-01
2.869918048381805420e-01
1.779595166444778442e-01
-5.103422328829765320e-02
-1.936972290277481079e-01
-1.056754291057586670e-01
-8.489358425140380859e-01
-4.422983527183532715e-02
2.363704741001129150e-01
1.474345475435256958e-01
3.166638612747192383e-01
-3.170609235763549805e+00
-1.295951902866363525e-01
5.875198245048522949e-01
-6.594663262367248535e-01
4.679310694336891174e-02
-5.340972542762756348e-02
9.002340435981750488e-01
1.559111922979354858e-01
2.107286006212234497e-01
-2.497521638870239258e-01
-4.153311997652053833e-02
-5.521754026412963867e-01
6.532910466194152832e-02
-2.681356966495513916e-01
1.395834833383560181e-01
-2.747715711593627930e-01
8.589913249015808105e-01
-3.314754366874694824e-01
2.795858085155487061e-01
-5.494086146354675293e-01
-4.665200412273406982e-01
-2.425548434257507324e-02
6.658970713615417480e-01
-1.084057211875915527e+00
-1.661550998687744141e-01
1.020241856575012207e+00
3.256330490112304688e-01
1.322517275810241699e+00
-3.053100109100341797e-01
-3.680726289749145508e-01
3.880498409271240234e-01
-8.924120664596557617e-01
6.041157245635986328e-01
3.420280516147613525e-01
-4.219812452793121338e-01
2.101626805961132050e-02
5.406209230422973633e-01
-2.033587694168090820e-01
-4.516481980681419373e-02
-4.642232954502105713e-01
5.391888022422790527e-01
-9.841716289520263672e-01
-7.140469551086425781e-02
1.919470429420471191e-01
7.001988291740417480e-01
-1.693709135055541992e+00
-3.845249712467193604e-01
2.531000971794128418e-01
-1.241896271705627441e+00
-1.208413839340209961e-01
1.273800283670425415e-01
-5.759443044662475586e-01
4.312745630741119385e-01
-7.171530276536941528e-02
-5.850549340248107910e-01
-9.531029462814331055e-01
-9.512544274330139160e-01
-9.911746382713317871e-01
-1.764754056930541992e-01
-2.390348613262176514e-01
-1.461969166994094849e-01
1.253508925437927246e-01
7.498548179864883423e-02
-1.726431846618652344e-01
-8.584259152412414551e-01
5.130696892738342285e-01
8.675502240657806396e-02
-7.163883745670318604e-02
-1.787269234657287598e+00
-3.310015499591827393e-01
-5.081187188625335693e-02
7.266886997967958450e-03
1.280925981700420380e-02
-1.326830536127090454e-01
4.183091968297958374e-02
9.625712037086486816e-02
-5.790585279464721680e-02
-1.444898098707199097e-01
-6.315600275993347168e-01
-1.441067308187484741e-01
-1.526350617408752441e+00
-4.168772101402282715e-01
8.946416527032852173e-02
-1.956682950258255005e-01
-1.671696454286575317e-02
2.794208377599716187e-02
2.255424857139587402e-01
-5.173771828413009644e-02
8.494281768798828125e-02
-1.745187193155288696e-01
9.951938875019550323e-03
1.987262442708015442e-02
-1.556325912475585938e+00
-2.996107637882232666e-01
-8.386111259460449219e-01
3.642487525939941406e-02
8.645678870379924774e-03
-4.454687535762786865e-01
-3.360847830772399902e-01
-4.783428832888603210e-02
3.132812678813934326e-02
-2.699840664863586426e-01
-9.461246132850646973e-01
-2.415829747915267944e-01
-6.515187770128250122e-02
3.160619363188743591e-02
-1.276977658271789551e-01
-1.195260696113109589e-02
-9.281294792890548706e-02
6.357223540544509888e-02
-2.127637714147567749e-02
-6.673787832260131836e-01
-1.467220392078161240e-02
4.141384735703468323e-02
-5.351718068122863770e-01
1.362809240818023682e-01
-1.448109559714794159e-02
1.487850248813629150e-01
3.221185505390167236e-01
1.294472366571426392e-01
-2.541955411434173584e-01
2.519824802875518799e-01
-5.419400334358215332e-01
-9.281135797500610352e-01
9.175234287977218628e-02
7.505053281784057617e-01
3.315881192684173584e-01
2.291742525994777679e-02
-5.823268890380859375e-01
2.003105729818344116e-01
7.735152840614318848e-01
3.589350283145904541e-01
-2.137911319732666016e-02
2.257432043552398682e-01
-6.075666472315788269e-02
-1.190744107589125633e-03
4.180245697498321533e-01
-5.272830724716186523e-01
1.547159403562545776e-01
-1.687252998352050781e+00
-3.562046587467193604e-01
6.030498743057250977e-01
-3.441672921180725098e-01
-4.343665540218353271e-01
-7.314739823341369629e-01
-1.140330825001001358e-02
3.767643496394157410e-02
-1.347613036632537842e-01
6.770242750644683838e-02
-9.003409147262573242e-01
2.610419392585754395e-01
-1.080617383122444153e-01
-9.107360988855361938e-02
-6.436613798141479492e-01
1.318154484033584595e-01
-9.760014712810516357e-02
-1.147024109959602356e-01
9.494128823280334473e-02
-7.731701731681823730e-01
-1.830571740865707397e-01
-7.274257484823465347e-03
3.003159761428833008e-01
-1.151733696460723877e-01
-3.176878690719604492e-01
3.755314052104949951e-01
-9.464333951473236084e-02
5.857962369918823242e-02
5.350008606910705566e-01
-2.973364591598510742e-01
-7.920334488153457642e-02
5.578440800309181213e-02
1.687254756689071655e-02
-4.851572513580322266e-01
-1.402622610330581665e-01
-9.810849092900753021e-03
1.890192925930023193e-01
-1.562809199094772339e-02
-2.190747112035751343e-01
-2.846444249153137207e-01
-2.408208996057510376e-01
-3.770131468772888184e-01
-3.398347198963165283e-01
-7.882029749453067780e-04
-1.471956521272659302e-01
-1.662325114011764526e-01
4.196839407086372375e-02
-4.091314971446990967e-01
-6.484935432672500610e-02
9.465481340885162354e-02
-5.914611816406250000e-01
-3.656907081604003906e-01
3.134093061089515686e-02
-3.768031485378742218e-03
1.052743103355169296e-02
-4.002533257007598877e-01
-1.354612689465284348e-02
-8.168460801243782043e-03
7.059147208929061890e-02
-1.855802237987518311e-01
-1.868622004985809326e-02
6.900928914546966553e-02
-3.532170504331588745e-02
2.616150677204132080e-02
-6.849718838930130005e-02
-9.932644665241241455e-02
1.193017214536666870e-01
-6.930007785558700562e-02
2.068156376481056213e-02
-1.522279232740402222e-01
1.482301801443099976e-01
2.318944036960601807e-02
-3.371340930461883545e-01
-2.077192254364490509e-02
5.512590333819389343e-02
-9.919095039367675781e-02
-2.547309994697570801e-01
2.897746860980987549e-02
-2.656894549727439880e-02
5.113832652568817139e-02
-1.030594259500503540e-01
-1.545472145080566406e-01
2.887369990348815918e-01
-2.506171762943267822e-01
-3.561078105121850967e-03
2.211254835128784180e-01
2.566334605216979980e-01
-2.403533756732940674e-01
-8.257554471492767334e-02
-2.366614490747451782e-01
2.089763879776000977e-01
-7.514303177595138550e-02
5.310686770826578140e-03
7.926000654697418213e-02
2.456766963005065918e-01
8.867405354976654053e-02
-2.482317686080932617e-01
2.125455588102340698e-01
-1.635282337665557861e-01
-2.224940061569213867e-01
-2.854518294334411621e-01
-1.805351227521896362e-01
4.117140918970108032e-02
-1.123139411211013794e-01
7.542533278465270996e-01
-1.207762062549591064e-01
-6.892175879329442978e-03
-1.616715453565120697e-02
2.518544346094131470e-02
-2.025943696498870850e-01
1.828945577144622803e-01
1.341292709112167358e-01
-5.058472976088523865e-02
2.539470419287681580e-02
-1.720825433731079102e-01
-1.143685951828956604e-01
-3.396922647953033447e-01
-2.108043134212493896e-01
3.312928229570388794e-02
-1.907142996788024902e-01
-1.862169429659843445e-02
2.326611243188381195e-02
6.415746361017227173e-02
-1.433860603719949722e-02
5.872854962944984436e-02
-4.963556528091430664e-01
-1.750789731740951538e-01
3.884508088231086731e-02
-5.763882398605346680e-02
-4.114698618650436401e-02
-5.808543041348457336e-02
1.894292533397674561e-01
7.348893582820892334e-02
-2.216239869594573975e-01
-1.886738538742065430e-01
4.836177825927734375e-02
-4.081330597400665283e-01
-3.338732197880744934e-02
-3.507272601127624512e-01
-1.645170003175735474e-01
-2.978900372982025146e-01
4.117486625909805298e-02
-2.234029769897460938e-01
-2.988923341035842896e-02
-2.039820402860641479e-01
-3.984214738011360168e-02
-1.260252296924591064e-01
7.211011648178100586e-02
8.066974580287933350e-02
-2.225973643362522125e-03
-5.335161462426185608e-03
-5.138392746448516846e-02
6.565763801336288452e-02
-3.600078523159027100e-01
-4.177916049957275391e-01
1.324982494115829468e-01
4.516287893056869507e-02
2.512726187705993652e-02
-4.864721894264221191e-01
-2.517580986022949219e-01
8.230423182249069214e-02
2.375258803367614746e-01
7.155819982290267944e-02
-2.956561148166656494e-01
-2.353225708007812500e+00
-2.504747509956359863e-01
-1.572961449623107910e+00
-3.500788211822509766e-01
8.767084218561649323e-03
-1.656237721443176270e+00
-7.254634052515029907e-02
5.676151253283023834e-03
5.651856586337089539e-02
-6.637714058160781860e-02
8.268436789512634277e-02
-1.793983876705169678e-01
-9.829198569059371948e-02
-2.315119266510009766e+00
-1.443473219871520996e+00
-2.189438492059707642e-01
-9.812428057193756104e-02
2.237774431705474854e-01
7.055460661649703979e-02
-9.888669103384017944e-02
-6.009688377380371094e-01
-8.417344689369201660e-01
-5.160669684410095215e-01
-2.333925068378448486e-01
1.801380813121795654e-01
-1.068318843841552734e+00
-1.301222324371337891e+00
-4.444950446486473083e-02
2.159802764654159546e-01
9.181490540504455566e-01
4.589964747428894043e-01
-5.436775088310241699e-01
-6.729130148887634277e-01
-1.017578959465026855e+00
-5.626621842384338379e-02
-1.293126493692398071e-02
2.175775468349456787e-01
-2.777656167745590210e-02
9.926190972328186035e-02
-1.727715879678726196e-01
-6.603624820709228516e-01
1.118382960557937622e-01
1.342535018920898438e-01
-1.154932901263237000e-01
-3.830310404300689697e-01
5.322998389601707458e-02
-1.278032213449478149e-01
-2.174970060586929321e-01
1.638289354741573334e-02
1.703966706991195679e-01
7.659737020730972290e-03
-2.329607903957366943e-01
-1.095425486564636230e+00
-1.509777903556823730e-01
-1.006895303726196289e+00
-2.226385325193405151e-01
9.868480265140533447e-02
7.638285309076309204e-02
-9.081562757492065430e-01
-2.306339293718338013e-01
-8.827915042638778687e-02
-7.749052643775939941e-01
7.576165720820426941e-03
-8.587641716003417969e-01
4.387946426868438721e-02
1.296271085739135742e-01
3.959035500884056091e-02
-1.374558061361312866e-01
-4.913217067718505859e+00
-1.222010850906372070e+00
-1.970883756875991821e-01
2.313227206468582153e-02
1.688727294094860554e-03
4.466070234775543213e-02
-4.407401084899902344e-01
1.425330340862274170e-01
1.238836050033569336e-01
1.957149952650070190e-01
-1.895514488220214844e+00
5.532572045922279358e-02
-1.283829808235168457e-01
-2.714687108993530273e+00
1.231225281953811646e-01
1.426306217908859253e-01
1.390134990215301514e-01
-2.834001481533050537e-01
-3.144123077392578125e+00
-9.269225001335144043e-01
3.729921579360961914e-02
-4.974007606506347656e-02
-3.879741951823234558e-02
-6.573211401700973511e-02
1.409112960100173950e-01
-8.309141546487808228e-02
8.626279979944229126e-02
1.598305553197860718e-01
-7.434301972389221191e-01
-4.736471772193908691e-01
1.652030944824218750e-01
-2.388306520879268646e-02
1.531027704477310181e-01
-2.611744403839111328e-01
-3.445641696453094482e-02
-6.959216296672821045e-02
-1.376506388187408447e-01
-2.482329607009887695e-01
-2.718664705753326416e-01
-2.510462403297424316e-01
-1.459311228245496750e-02
-1.584552228450775146e-01
-1.315589398145675659e-01
-3.650369346141815186e-01
1.098209023475646973e-01
-1.760269552469253540e-01
-2.934443354606628418e-01
-2.198216617107391357e-01
-6.808707714080810547e-01
-6.680384278297424316e-03
-2.795135378837585449e-01
-8.325885236263275146e-02
3.180645778775215149e-02
4.057130813598632812e-01
-5.237717628479003906e-01
-2.406885381788015366e-03
1.402256637811660767e-01
-6.677392125129699707e-01
2.784136235713958740e-01
-2.660954892635345459e-01
5.677462220191955566e-01
3.726029396057128906e-01
-2.827962338924407959e-01
2.662838995456695557e-01
-4.191118478775024414e-01
3.080336563289165497e-02
-3.692164123058319092e-01
-2.656046450138092041e-01
-6.344991177320480347e-02
-2.362491041421890259e-01
3.605947792530059814e-01
-7.841753363609313965e-01
-7.625820040702819824e-01
-5.576549768447875977e-01
6.733669042587280273e-01
-2.856738865375518799e-01
-4.862982928752899170e-01
-6.631103754043579102e-01
-6.104483008384704590e-01
-3.507887840270996094e+00
-2.851134777069091797e+00
-3.331716656684875488e-01
-3.706504106521606445e-01
2.546703815460205078e-01
-2.329346656799316406e+00
-2.713630199432373047e+00
1.096697449684143066e+00
-1.503222703933715820e+00
6.771279573440551758e-01
-1.515135318040847778e-01
-3.780718147754669189e-01
9.931211173534393311e-02
-8.285979628562927246e-01
7.967913150787353516e-01
-1.002257108688354492e+00
-1.301393985748291016e+00
1.212444826960563660e-01
5.735234618186950684e-01
-2.374766170978546143e-01
5.103598162531852722e-02
-4.000060260295867920e-01
7.023266553878784180e-01
4.966287016868591309e-01
-2.174305677413940430e+00
9.284519404172897339e-02
6.581009924411773682e-02
-2.790915012359619141e+00
7.954186946153640747e-02
-3.631120920181274414e-01
1.028660833835601807e-01
-1.055136799812316895e+00
-6.750053763389587402e-01
-6.307541131973266602e-01
-3.065707445144653320e+00
3.370837867259979248e-01
-5.519178509712219238e-02
-5.409591197967529297e-01
6.696163862943649292e-02
-5.199344635009765625e+00
1.366572920233011246e-02
2.472394853830337524e-01
6.672844886779785156e-01
-1.566985547542572021e-01
1.238192990422248840e-01
9.016618877649307251e-02
5.708504933863878250e-03
8.544627577066421509e-02
-2.454263269901275635e-01
-8.736737817525863647e-02
-2.362912297248840332e-01
-1.711374670267105103e-01
-3.270600438117980957e-01
6.663506478071212769e-02
-7.353240847587585449e-01
-1.188008114695549011e-01
-4.903790727257728577e-02
-7.609115242958068848e-01
-1.897615790367126465e-01
1.010233089327812195e-01
1.215408965945243835e-01
-1.085962802171707153e-01
-2.861864864826202393e-01
-3.685877844691276550e-02
-7.982235401868820190e-02
-4.959356784820556641e-02
-7.923567295074462891e-02
-3.868972361087799072e-01
-2.930952003225684166e-03
-3.744919002056121826e-01
1.267721038311719894e-02
-1.078047081828117371e-01
4.729024171829223633e-01
1.547229737043380737e-01
-8.745767921209335327e-02
-2.077400982379913330e-01
-3.306462615728378296e-02
-3.723146393895149231e-02
8.402106165885925293e-02
2.021685540676116943e-01
-2.469080239534378052e-01
3.036073781549930573e-02
1.090644579380750656e-02
4.561073705554008484e-02
-8.095154911279678345e-02
-3.907441720366477966e-02
7.086452096700668335e-02
1.077703014016151428e-01
-6.290866434574127197e-02
1.117464825510978699e-01
-8.632164001464843750e-01
1.431418862193822861e-02
-3.491625785827636719e-01
-3.387365341186523438e-01
-6.073573231697082520e-01
-1.475581973791122437e-01
-4.884097725152969360e-02
5.929701328277587891e-01
-8.495541661977767944e-02
-1.571060344576835632e-02
-1.238416284322738647e-01
-4.083516001701354980e-01
4.830465838313102722e-02
-1.066809177398681641e+00
3.082246482372283936e-01
-1.113743305206298828e+00
-4.627897143363952637e-01
7.739786058664321899e-03
-1.268499493598937988e+00
1.521374564617872238e-03
-1.300944248214364052e-03
-7.117267251014709473e-01
4.780135117471218109e-03
-9.093676507472991943e-02
-4.326052963733673096e-01
-1.929035067558288574e+00
-3.227093815803527832e-02
1.682516038417816162e-01
-1.691983640193939209e-01
2.540283501148223877e-01
1.548787504434585571e-01
6.517435610294342041e-02
-1.526211649179458618e-01
-3.857251703739166260e-01
-2.391935586929321289e+00
-1.323692053556442261e-01
4.295190572738647461e-01
-1.184908226132392883e-01
5.418663024902343750e-01
-4.632313847541809082e-01
8.234710991382598877e-02
-1.595094949007034302e-01
-6.315211057662963867e-01
7.020747065544128418e-01
2.411473244428634644e-01
2.924914360046386719e-01
-4.520365893840789795e-01
-2.321305871009826660e-01
1.678526848554611206e-01
-2.966393530368804932e-01
-1.132607609033584595e-01
4.580352455377578735e-02
5.168318152427673340e-01
-3.403575420379638672e-01
1.465058475732803345e-01
-7.753165811300277710e-02
-6.854760646820068359e-02
-1.189595982432365417e-01
-2.488539069890975952e-01
2.828819863498210907e-02
4.093069434165954590e-01
-6.922464966773986816e-01
5.698065459728240967e-02
3.718347847461700439e-02
-1.703778505325317383e-01
-3.523169457912445068e-01
-3.016402721405029297e-01
9.016739577054977417e-02
-7.067526876926422119e-02
-2.012377828359603882e-01
-2.481332719326019287e-01
-3.886372566223144531e+00
-9.724208712577819824e-02
1.802944988012313843e-01
4.030359685420989990e-01
1.656340956687927246e-01
1.026816144585609436e-01
2.198732346296310425e-01
-2.023120410740375519e-02
4.201006889343261719e-01
-2.766505777835845947e-01
5.792161077260971069e-02
2.793404757976531982e-01
6.925317645072937012e-02
-6.101743578910827637e-01
5.428239703178405762e-01
6.236078590154647827e-02
-3.852918446063995361e-01
-3.392794728279113770e-02
-2.268602102994918823e-01
2.656799554824829102e-01
-2.256529480218887329e-01
4.180321469902992249e-02
-1.782657653093338013e-01
8.211252093315124512e-02
2.882727682590484619e-01
-7.880251854658126831e-03
-4.216824173927307129e-01
1.784452348947525024e-01
1.855637580156326294e-01
-9.614925086498260498e-02
-3.904958814382553101e-02
1.235502734780311584e-01
-3.095672428607940674e-01
-4.560494124889373779e-01
-4.076670706272125244e-01
8.976008743047714233e-02
-1.249232217669487000e-01
-3.131612837314605713e-01
1.111038699746131897e-01
3.883905708789825439e-01
-6.335918605327606201e-02
-6.846299022436141968e-02
-1.305150270462036133e+00
-3.924818038940429688e-01
-2.831165492534637451e-01
-1.859241873025894165e-01
3.327786028385162354e-01
-3.283117532730102539e+00
-7.150194793939590454e-02
3.419973552227020264e-01
-2.404667735099792480e-01
-4.911435842514038086e-01
2.026318162679672241e-01
-2.152709364891052246e-01
5.686558410525321960e-02
-4.551919177174568176e-02
-5.931178852915763855e-02
-4.120281431823968887e-03
2.177517488598823547e-02
-6.795390695333480835e-02
-3.197899460792541504e-02
3.003913909196853638e-02
6.689667701721191406e-02
-2.622158266603946686e-02
-4.659207537770271301e-02
3.744374588131904602e-02
-1.816658116877079010e-02
5.793152004480361938e-02
5.546890944242477417e-02
-1.085612177848815918e-01
1.212559938430786133e-01
-2.338441461324691772e-02
9.028980880975723267e-02
1.382113201543688774e-03
-1.464592525735497475e-03
-5.762214306741952896e-03
5.255566164851188660e-02
-2.292955853044986725e-02
-6.483784317970275879e-02
1.341326087713241577e-01
5.168918967247009277e-01
-1.051851660013198853e-01
-3.153757750988006592e-01
-9.158036708831787109e-01
-3.364092707633972168e-01
1.324259638786315918e-01
1.528865396976470947e-01
1.171285286545753479e-01
7.296915864571928978e-04
-1.245285987854003906e+00
-5.519946292042732239e-02
3.874393701553344727e-01
-1.006721735000610352e+00
4.312737286090850830e-01
-5.626987814903259277e-01
4.040362834930419922e-01
-5.484171509742736816e-01
-1.130743265151977539e+00
6.360790133476257324e-01
9.612205438315868378e-03
1.197024583816528320e-01
-1.321190237998962402e+00
-4.334109723567962646e-01
3.835904896259307861e-01
5.644185468554496765e-02
-6.151143461465835571e-02
-2.049069255590438843e-01
1.248657628893852234e-01
-2.651105523109436035e-01
-8.613812178373336792e-02
2.940172851085662842e-01
-4.275334179401397705e-01
9.069038182497024536e-02
-5.348997190594673157e-03
2.086557745933532715e-01
8.541293442249298096e-02
1.361368298530578613e-01
-1.079297438263893127e-02
5.947553366422653198e-02
1.443571895360946655e-01
-3.196128606796264648e-01
-2.184012904763221741e-02
-9.755195677280426025e-02
1.925032287836074829e-01
-1.066879853606224060e-01
-1.284465342760086060e-01
2.173000276088714600e-01
1.056370213627815247e-01
-1.136565655469894409e-01
1.125262603163719177e-01
3.711863979697227478e-02
-2.692509591579437256e-01
-3.727165460586547852e-01
-2.490011751651763916e-01
-6.701759062707424164e-03
-3.333401679992675781e-02
1.229527145624160767e-01
-2.275110334157943726e-01
-4.973913356661796570e-02
1.969781219959259033e-01
-1.826424337923526764e-02
-6.608235836029052734e-01
-1.608954370021820068e-02
-1.554380059242248535e-01
-7.362043857574462891e-01
-8.185263872146606445e-01
3.120753541588783264e-02
-1.005276665091514587e-01
-8.048411458730697632e-02
1.131400559097528458e-02
-1.892732381820678711e-01
-1.700638094916939735e-03
6.584642827510833740e-02
-1.418179483152925968e-03
7.585101574659347534e-02
-1.571170240640640259e-01
-3.483182489871978760e-01
4.291348457336425781e-01
-9.162687659263610840e-01
-2.289810962975025177e-02
-1.187457367777824402e-01
3.990333974361419678e-01
1.678723245859146118e-01
-4.208828136324882507e-02
-2.372856885194778442e-01
-2.873319387435913086e-01
2.603250741958618164e-01
6.641471385955810547e-02
1.943525522947311401e-01
5.284729599952697754e-01
5.715609788894653320e-01
3.955996781587600708e-02
3.912621736526489258e-02
2.539224326610565186e-01
-1.065060682594776154e-02
1.592278182506561279e-01
1.357912272214889526e-01
-1.055644527077674866e-01
-2.768533825874328613e-01
-9.864557534456253052e-02
-1.300862729549407959e-01
-4.354968369007110596e-01
-3.003244400024414062e-01
-3.282958269119262695e-01
-4.403237700462341309e-01
-2.592805922031402588e-01
-1.072129458189010620e-01
-2.090857475996017456e-01
-4.904024302959442139e-02
1.003451868891716003e-01
-2.662378549575805664e-02
-6.973994374275207520e-01
-4.370731711387634277e-01
2.110353112220764160e-02
-3.018260300159454346e-01
-1.165526360273361206e-01
-1.838891953229904175e-01
-1.074803918600082397e-01
-3.905904293060302734e-01
2.058519124984741211e-01
-6.452690362930297852e-01
2.434932291507720947e-01
-6.379974633455276489e-02
-6.452428102493286133e-01
