5.229531526565551758e-01
-2.318084836006164551e-01
3.653697371482849121e-01
-8.322313427925109863e-01
-3.723252117633819580e-01
-1.359965950250625610e-01
-6.520557999610900879e-01
5.417523384094238281e-01
-5.018438771367073059e-02
-6.001985073089599609e-01
-1.929773688316345215e-01
-5.564959049224853516e-01
-3.379330933094024658e-01
1.504229307174682617e-01
1.782199591398239136e-01
-3.788981735706329346e-01
9.618992917239665985e-03
1.608879119157791138e-01
2.524181641638278961e-02
1.178992912173271179e-01
2.011981308460235596e-01
2.634674310684204102e-01
3.524197041988372803e-01
-7.559352517127990723e-01
-7.637933641672134399e-02
5.113198757171630859e-01
-2.007232308387756348e-01
4.271563887596130371e-01
-4.360184445977210999e-02
-1.512716561555862427e-01
2.386656403541564941e-01
-3.556211888790130615e-01
-1.055160760879516602e+00
2.788671851158142090e-01
-2.850096523761749268e-01
4.442597925662994385e-01
-1.720697283744812012e-01
-1.208914995193481445e+00
-3.020541183650493622e-02
2.751211822032928467e-01
-1.202205896377563477e+00
-6.696831583976745605e-01
-1.724663853645324707e+00
7.552136778831481934e-01
1.576063185930252075e-01
5.710374712944030762e-01
1.131958514451980591e-01
-3.596503734588623047e-01
-4.973311424255371094e-01
2.843776643276214600e-01
-5.657283067703247070e-01
-2.367998123168945312e+00
-4.319743216037750244e-01
6.076494455337524414e-01
3.322298452258110046e-02
-3.533592224121093750e-01
-2.560349702835083008e-01
-1.312812805175781250e+00
1.997918188571929932e-01
2.258857190608978271e-01
1.306689083576202393e-01
1.685854941606521606e-01
-6.624497175216674805e-01
8.359928429126739502e-02
-5.980627983808517456e-02
-4.165736213326454163e-02
4.263978078961372375e-02
-3.253589272499084473e-01
2.588057331740856171e-02
3.989484906196594238e-02
1.364971250295639038e-01
-2.421230226755142212e-01
1.233478039503097534e-01
-5.317577719688415527e-02
8.567559719085693359e-02
1.155835270881652832e+00
6.128512024879455566e-01
9.121837466955184937e-02
-4.676508307456970215e-01
3.813166618347167969e-01
-4.929102957248687744e-01
7.295017838478088379e-01
-5.290712118148803711e-01
2.331094145774841309e-01
1.649288833141326904e-01
-1.273551136255264282e-01
-2.477338761091232300e-01
-2.917409539222717285e-01
-1.092509984970092773e+00
1.722887754440307617e-01
-7.617160677909851074e-01
2.363621890544891357e-01
-4.537782967090606689e-01
-7.489582300186157227e-01
2.755126915872097015e-02
-2.658658027648925781e-01
-2.505637407302856445e-01
-2.009502947330474854e-01
-1.571161858737468719e-02
7.191662788391113281e-01
-2.378979623317718506e-01
-2.529430389404296875e-01
4.059688448905944824e-01
-2.209053486585617065e-01
3.137358725070953369e-01
-3.946061730384826660e-01
2.667548060417175293e-01
4.397629201412200928e-01
-2.061267048120498657e-01
5.410442128777503967e-02
4.839300215244293213e-01
-1.964327692985534668e-01
9.855063259601593018e-02
1.523858606815338135e-01
-5.138698220252990723e-02
-9.304977655410766602e-01
-1.339564099907875061e-03
-2.356492996215820312e+00
6.453867256641387939e-02
3.615521639585494995e-02
-2.236826717853546143e-01
-1.870474696159362793e+00
-5.248851776123046875e-01
-1.405786722898483276e-01
-1.158345490694046021e-01
-1.924937218427658081e-02
-4.023927450180053711e-01
1.592842191457748413e-01
-4.846158921718597412e-01
-2.468595840036869049e-02
2.571190595626831055e-01
5.912363901734352112e-02
-2.118403911590576172e-01
-1.562596410512924194e-01
-4.313139617443084717e-01
-4.925519526004791260e-01
1.697574853897094727e-01
1.898526400327682495e-01
5.099501013755798340e-01
-1.391553878784179688e-01
-2.228320598602294922e+00
2.666993066668510437e-02
-1.084308981895446777e+00
2.261820286512374878e-01
-4.174691438674926758e-02
-4.699974060058593750e-01
1.388486921787261963e-01
-6.395179033279418945e-01
-6.332396864891052246e-01
9.002079367637634277e-01
-5.917230248451232910e-01
4.384274408221244812e-02
-1.254101991653442383e+00
2.261617034673690796e-01
-1.939693987369537354e-01
1.335757523775100708e-01
-7.753145694732666016e-02
-5.764496922492980957e-01
-2.186221815645694733e-02
3.659057021141052246e-01
2.457063086330890656e-02
-2.056723684072494507e-01
-5.590464472770690918e-01
3.216367959976196289e-01
3.916398435831069946e-02
-5.084419846534729004e-01
-2.544875741004943848e-01
3.085090816020965576e-01
1.400745064020156860e-01
-9.890371561050415039e-02
-4.802583754062652588e-01
3.087581694126129150e-01
-4.848421812057495117e-01
3.768542110919952393e-01
3.378329053521156311e-02
-1.879800260066986084e-01
-2.466181665658950806e-01
-2.965062856674194336e-01
2.949520200490951538e-02
5.738507583737373352e-02
-1.823464632034301758e+00
-1.324507355690002441e+00
-1.477831363677978516e+00
2.965077161788940430e-01
-2.298525907099246979e-02
7.509060204029083252e-02
-1.548706740140914917e-01
6.760506033897399902e-01
-5.804404020309448242e-01
1.136672571301460266e-01
-2.100422233343124390e-02
-2.230609767138957977e-02
-2.232774347066879272e-01
4.682907164096832275e-01
6.749963760375976562e-02
-7.318101078271865845e-02
-3.117011785507202148e-01
-4.960439503192901611e-01
4.286041110754013062e-02
8.814537525177001953e-02
-8.261882513761520386e-02
4.942632019519805908e-01
-5.800310969352722168e-01
1.696864813566207886e-01
-3.570825159549713135e-01
2.361290529370307922e-02
-4.880389571189880371e-01
-5.229884982109069824e-01
4.649610817432403564e-02
6.092013046145439148e-02
-1.232548713684082031e+00
-3.421902954578399658e-01
-1.490283459424972534e-01
3.158734440803527832e-01
-1.048116832971572876e-01
1.001237928867340088e-01
-2.865033149719238281e-01
-1.935383826494216919e-01
-7.352040708065032959e-02
3.660769760608673096e-01
-4.212501347064971924e-01
-4.078208804130554199e-01
5.355947017669677734e-01
-7.957229018211364746e-01
1.999196112155914307e-01
4.519239366054534912e-01
3.815771639347076416e-02
4.454640448093414307e-01
-5.915426015853881836e-01
-1.356025575660169125e-03
5.761874318122863770e-01
-1.236444354057312012e+00
1.156170591711997986e-01
4.215932786464691162e-01
4.490133002400398254e-02
-2.754729092121124268e-01
-3.761691153049468994e-01
-1.382719635963439941e+00
2.002949714660644531e-01
4.093531072139739990e-01
-5.905688405036926270e-01
-8.756905198097229004e-01
3.004692494869232178e-01
4.898789227008819580e-01
-4.500835239887237549e-01
-1.433658748865127563e-01
-4.462821185588836670e-01
-1.193762123584747314e-01
-6.006300449371337891e-01
-3.423237800598144531e-02
