6.615149229764938354e-02
-3.043313920497894287e-01
-3.756037652492523193e-01
-7.582344859838485718e-02
-1.896555572748184204e-01
9.685067832469940186e-02
1.218370944261550903e-01
4.453675448894500732e-01
3.576206043362617493e-02
-2.766826748847961426e-01
-7.331284284591674805e-01
1.121664140373468399e-02
-5.760738998651504517e-02
-1.083476692438125610e-01
8.210727572441101074e-02
-5.803705453872680664e-01
3.306326270103454590e-01
-1.718216091394424438e-01
6.323150545358657837e-02
-2.366009950637817383e-01
-4.581953883171081543e-01
4.146113693714141846e-01
-9.075284749269485474e-02
-4.868574067950248718e-02
-2.684211432933807373e-01
3.050763309001922607e-01
-1.279791444540023804e-01
-1.421087384223937988e-01
-2.666760385036468506e-01
3.630474442616105080e-03
1.425074636936187744e-01
-2.233839593827724457e-02
3.031069338321685791e-01
2.978968322277069092e-01
-2.603277266025543213e-01
6.975103914737701416e-02
-4.359255731105804443e-01
-8.752156794071197510e-02
1.282718777656555176e-01
4.382728636264801025e-01
-8.509212732315063477e-01
-7.185406684875488281e-01
-1.078180193901062012e+00
-5.820649266242980957e-01
4.266951680183410645e-01
1.381217837333679199e-01
1.530619263648986816e-01
5.096607208251953125e-01
-2.191558778285980225e-01
-1.537387967109680176e-01
-2.360033839941024780e-01
-6.491693258285522461e-01
8.057441562414169312e-02
-7.671776413917541504e-01
8.424939215183258057e-02
-1.221340298652648926e-01
4.333715885877609253e-02
4.960007071495056152e-01
-1.577579379081726074e-01
1.990129351615905762e-01
3.564016222953796387e-01
7.613516598939895630e-02
7.879396528005599976e-02
-8.245853707194328308e-03
-3.783917427062988281e-01
1.809110492467880249e-01
-2.928973138332366943e-01
-1.904565840959548950e-01
3.300729393959045410e-01
-3.574657021090388298e-04
-3.228117823600769043e-01
-2.201822549104690552e-01
-1.880636513233184814e-01
-1.158738434314727783e-01
-1.807658076286315918e-01
-1.168837621808052063e-01
-4.231270551681518555e-01
-1.528020501136779785e-01
-3.724251389503479004e-01
-1.234720870852470398e-01
1.539359241724014282e-01
2.940619587898254395e-01
1.692772060632705688e-01
1.436708718538284302e-01
2.547703385353088379e-01
-2.962991893291473389e-01
1.789817027747631073e-02
-2.062055021524429321e-01
2.235781960189342499e-02
1.896501779556274414e-01
-1.259529590606689453e-01
-3.816850483417510986e-01
-5.359041690826416016e-01
-1.783416420221328735e-01
3.074037134647369385e-01
-3.313966691493988037e-01
-3.784164786338806152e-01
3.748177587985992432e-01
3.472834229469299316e-01
-1.024303883314132690e-01
-3.692820966243743896e-01
-1.457586288452148438e-01
-7.598735392093658447e-03
-5.062004923820495605e-01
-1.729320362210273743e-02
-2.542469203472137451e-01
-1.230742409825325012e-01
9.454946219921112061e-02
-2.172165662050247192e-01
2.413103543221950531e-02
-7.801114022731781006e-02
-1.727880388498306274e-01
1.169130653142929077e-01
1.046725958585739136e-01
2.350742369890213013e-01
-5.236287713050842285e-01
-2.078775763511657715e-01
2.628952860832214355e-01
1.677681654691696167e-01
-1.055172011256217957e-01
-3.639237582683563232e-02
3.021607398986816406e-01
2.983801364898681641e-01
-4.786088168621063232e-01
-2.138199061155319214e-01
1.160203758627176285e-02
-4.495990872383117676e-01
1.648434847593307495e-01
2.096287161111831665e-01
1.288816034793853760e-01
1.225614324212074280e-01
-1.958176940679550171e-01
-3.227468207478523254e-02
-1.244360134005546570e-01
1.969018727540969849e-01
3.018322885036468506e-01
-3.452902138233184814e-01
-2.538954913616180420e-01
-6.663393974304199219e-02
-8.428191393613815308e-02
-6.228185817599296570e-02
1.204331591725349426e-01
4.431904256343841553e-01
1.949276179075241089e-01
-6.457759439945220947e-02
-4.782434999942779541e-01
-3.253657221794128418e-01
-5.631645917892456055e-01
-1.141056939959526062e-01
-2.037414908409118652e-01
-2.434639781713485718e-01
-3.623965382575988770e-01
-2.681386768817901611e-01
-2.481988631188869476e-03
-4.296570420265197754e-01
-3.148949146270751953e-01
6.225527450442314148e-02
2.567928433418273926e-01
3.120806217193603516e-01
7.173994928598403931e-02
-6.651715934276580811e-02
1.538196653127670288e-01
-4.281817376613616943e-02
-3.534684479236602783e-01
-2.830882370471954346e-01
1.452351808547973633e-01
-5.082292854785919189e-02
-3.775641322135925293e-02
2.018306553363800049e-01
-5.469018220901489258e-01
-1.652214080095291138e-01
-7.643173635005950928e-02
-3.490231931209564209e-02
-7.241181135177612305e-01
1.645705401897430420e-01
1.922495216131210327e-01
-2.438288480043411255e-01
3.528422713279724121e-01
-2.328618764877319336e-01
-1.332804858684539795e-01
-2.835180163383483887e-01
-1.842858642339706421e-01
1.070019528269767761e-01
1.443664580583572388e-01
9.313897043466567993e-02
-1.386014223098754883e-01
2.910898327827453613e-01
3.557786345481872559e-01
-2.284110039472579956e-01
2.827174961566925049e-01
-5.385655164718627930e-01
8.233734965324401855e-02
-2.438706159591674805e-01
-1.957915872335433960e-01
7.472284138202667236e-02
3.745250105857849121e-01
2.201502770185470581e-01
3.749891221523284912e-01
3.273590207099914551e-01
3.435974419116973877e-01
7.375098019838333130e-02
5.988426208496093750e-01
1.940614879131317139e-01
1.501537263393402100e-01
1.774781942367553711e-01
-7.548739314079284668e-01
-2.239143848419189453e-01
-4.099394753575325012e-02
1.645900905132293701e-01
2.976240813732147217e-01
3.876116499304771423e-02
-2.741993367671966553e-01
-7.099948823451995850e-02
-1.443340629339218140e-01
1.931030452251434326e-01
-5.096056461334228516e-01
4.184565842151641846e-01
-1.536869406700134277e-01
-3.453308045864105225e-01
-3.364221155643463135e-01
4.632416963577270508e-01
-2.465511262416839600e-01
-5.741649866104125977e-02
2.203884869813919067e-01
-9.534478187561035156e-02
-7.463809847831726074e-01
1.481573581695556641e-01
-3.632932528853416443e-02
-3.019305467605590820e-01
-3.007602691650390625e-01
-4.437800943851470947e-01
1.653904467821121216e-01
-2.261956036090850830e-01
-3.782094269990921021e-02
-6.362599134445190430e-02
-5.740446448326110840e-01
-4.835263490676879883e-01
-8.107181638479232788e-02
-1.992020942270755768e-02
1.023307293653488159e-01
-2.609248161315917969e-01
1.897904649376869202e-02
-6.257165074348449707e-01
-7.906473241746425629e-03
-2.663730382919311523e-01
1.967899501323699951e-01
-1.690242737531661987e-01
-1.430223584175109863e-01
3.893956243991851807e-01
1.392772537656128407e-03
