3.480788469314575195e-01
-8.232127293013036251e-04
-7.011004537343978882e-02
-5.340423807501792908e-02
-1.324537545442581177e-01
2.809233963489532471e-01
-4.341607168316841125e-02
2.807162404060363770e-01
1.832821369171142578e-01
-4.200931489467620850e-01
-4.299889206886291504e-01
-1.916496455669403076e-02
-1.593188643455505371e-01
9.956111758947372437e-02
1.054254546761512756e-01
-1.181895136833190918e-01
3.485098481178283691e-01
-1.899280995130538940e-01
-1.011193469166755676e-01
2.540286481380462646e-01
2.544394135475158691e-01
-4.584681591950356960e-04
3.066541813313961029e-02
-2.802342474460601807e-01
-1.816654354333877563e-01
3.930678665637969971e-01
-2.637850642204284668e-01
3.145692944526672363e-01
-3.379825875163078308e-02
-1.739839464426040649e-02
2.963415682315826416e-01
5.613001063466072083e-03
-6.195917725563049316e-01
1.091275364160537720e-01
-1.556781679391860962e-01
4.243052601814270020e-01
-1.103607472032308578e-02
-3.313498795032501221e-01
6.738338619470596313e-02
1.191716194152832031e-01
-4.820179939270019531e-01
-2.980772852897644043e-01
4.852383732795715332e-01
3.717834949493408203e-01
1.861247122287750244e-01
-6.318873912096023560e-02
-1.091679707169532776e-01
-4.261277616024017334e-01
3.477346897125244141e-01
-1.672508269548416138e-01
2.180749624967575073e-01
-2.287968695163726807e-01
-3.045129477977752686e-01
2.607754170894622803e-01
3.739206492900848389e-01
-3.322722017765045166e-01
2.676862478256225586e-01
-5.167368650436401367e-01
5.322768166661262512e-02
-4.513992369174957275e-02
-2.824859321117401123e-01
5.651817098259925842e-02
-4.435726106166839600e-01
1.909022182226181030e-01
-8.785054087638854980e-03
1.025335192680358887e-01
-2.191464006900787354e-01
-3.800825774669647217e-01
-6.744734942913055420e-02
1.609969697892665863e-02
-1.376118957996368408e-01
-2.985100746154785156e-01
-2.139035984873771667e-02
1.792344748973846436e-01
-1.538171991705894470e-02
6.250405907630920410e-01
-6.965459324419498444e-03
-1.575825512409210205e-01
-8.181641101837158203e-01
4.880158901214599609e-01
-2.039831131696701050e-01
4.816818535327911377e-01
-5.092686414718627930e-01
6.227014660835266113e-01
2.395159304141998291e-01
4.134709015488624573e-02
-3.357861936092376709e-02
-3.481693863868713379e-01
5.375847965478897095e-02
1.249510888010263443e-02
7.969903200864791870e-02
9.594032913446426392e-02
-3.917323648929595947e-01
1.143063381314277649e-01
8.311130106449127197e-02
-7.487992942333221436e-02
-5.620343610644340515e-02
-1.990613490343093872e-01
-3.499490022659301758e-01
1.385204046964645386e-01
-2.323354035615921021e-01
-1.320921331644058228e-01
2.247372418642044067e-01
-2.048077285289764404e-01
2.410131692886352539e-01
-3.149740099906921387e-01
2.949477434158325195e-01
3.781279921531677246e-01
-9.768587350845336914e-02
3.049672544002532959e-01
2.118109315633773804e-01
-3.743176460266113281e-01
-2.897724509239196777e-01
2.335078269243240356e-01
6.361361593008041382e-02
-9.018106460571289062e-01
-1.458171457052230835e-01
-7.939807772636413574e-01
7.747798413038253784e-02
1.536233536899089813e-02
-1.024275660514831543e+00
-1.700899243354797363e+00
-1.530993133783340454e-01
-5.866674333810806274e-02
1.173452660441398621e-01
-5.569635629653930664e-01
-1.133221313357353210e-01
-6.857921369373798370e-03
-3.913752734661102295e-02
-3.175753355026245117e-02
3.044745922088623047e-01
3.153252601623535156e-01
-7.994893938302993774e-02
-1.919075995683670044e-01
-1.940972506999969482e-01
-4.696086347103118896e-01
1.020033881068229675e-01
-5.868050828576087952e-02
3.460261225700378418e-01
-1.991002261638641357e-01
-3.408175706863403320e-01
-2.327928841114044189e-01
9.214334422722458839e-04
-4.646700620651245117e-01
-2.713504433631896973e-01
-7.697324752807617188e-01
-5.990769714117050171e-02
-1.160639300942420959e-01
-1.439085900783538818e-01
2.435561120510101318e-01
-5.673009157180786133e-02
-1.501444727182388306e-01
-7.441393285989761353e-02
1.090062037110328674e-02
-7.415492832660675049e-02
-2.369716912508010864e-01
6.095014885067939758e-02
-7.447855472564697266e-01
4.228341951966285706e-02
2.220068871974945068e-01
-1.470098793506622314e-01
-1.621308326721191406e-01
-2.684481143951416016e-01
3.085018098354339600e-01
-8.622593432664871216e-02
-7.459347248077392578e-01
-1.166826114058494568e-01
-2.382657490670681000e-03
4.246388562023639679e-03
9.343817830085754395e-02
-5.074739083647727966e-02
-1.127042844891548157e-01
-3.412830233573913574e-01
1.795336306095123291e-01
1.058459654450416565e-01
-2.203130424022674561e-01
-1.534012146294116974e-02
-1.368122100830078125e-01
3.071198761463165283e-01
1.131166741251945496e-01
-1.159639120101928711e+00
-4.956000149250030518e-01
-4.943390488624572754e-01
3.677171766757965088e-01
-2.291121520102024078e-02
4.525611549615859985e-02
-1.799318939447402954e-01
1.889533996582031250e-01
-6.964341402053833008e-01
3.066370189189910889e-01
-3.260283172130584717e-01
-5.478662997484207153e-02
9.017633646726608276e-02
2.278106063604354858e-01
2.310676574707031250e-01
-1.126061081886291504e-01
-2.224835008382797241e-01
1.909071803092956543e-01
-4.038112759590148926e-01
3.263156712055206299e-01
4.506176337599754333e-02
3.948612809181213379e-01
-6.011955738067626953e-01
2.380913682281970978e-02
1.015207148157060146e-03
-4.300966113805770874e-02
4.168194252997636795e-03
-3.197865188121795654e-01
-9.269427508115768433e-02
1.919277608394622803e-01
-1.176229342818260193e-01
3.277736902236938477e-01
5.751131847500801086e-02
4.390291273593902588e-01
-1.219008415937423706e-01
-4.072256386280059814e-02
-2.664766907691955566e-01
-8.841728419065475464e-02
-3.155060410499572754e-01
3.579252362251281738e-01
-1.061854004859924316e+00
-4.803833365440368652e-01
2.635632157325744629e-01
-2.562446892261505127e-01
1.449228674173355103e-01
4.321597516536712646e-01
1.599629223346710205e-01
3.155175447463989258e-01
-5.111268758773803711e-01
2.347819209098815918e-01
1.743940263986587524e-01
-3.037514910101890564e-02
-1.137166321277618408e-01
3.412830531597137451e-01
1.986730843782424927e-01
-6.623980998992919922e-01
-3.097322583198547363e-01
4.865054786205291748e-02
-2.312244027853012085e-01
3.425326049327850342e-01
-2.402234375476837158e-01
-6.264547109603881836e-01
2.333187013864517212e-01
4.015987217426300049e-01
-3.637732565402984619e-01
-5.939331278204917908e-02
-3.723194003105163574e-01
1.006496474146842957e-01
-4.839881658554077148e-01
5.468367785215377808e-02
