-2.518887221813201904e-01
1.246967911720275879e-01
-3.703333809971809387e-02
9.308604896068572998e-02
1.316504478454589844e-01
4.505291208624839783e-02
5.538540333509445190e-02
-8.023282140493392944e-02
-2.110292613506317139e-01
-1.564613133668899536e-01
-3.645944118499755859e+00
1.500081866979598999e-01
-1.468109637498855591e-01
1.233774330466985703e-02
-6.718880683183670044e-02
-2.205062955617904663e-01
-1.841697990894317627e-01
2.250346243381500244e-01
-6.989222019910812378e-02
-3.807902336120605469e-01
1.064679175615310669e-01
-5.852301716804504395e-01
3.142150044441223145e-01
-2.586056850850582123e-02
-3.831902444362640381e-01
-8.420073986053466797e-01
2.555987238883972168e-01
4.098847806453704834e-01
3.087932169437408447e-01
-6.113868355751037598e-01
-6.701069474220275879e-01
1.355483978986740112e-01
-7.407008111476898193e-02
-7.308626174926757812e-01
-1.925216615200042725e-01
5.655980110168457031e-01
-1.163652464747428894e-01
-2.200570106506347656e+00
-2.671828567981719971e-01
-6.391891956329345703e+00
-1.066105365753173828e-01
8.172683417797088623e-03
-4.590198397636413574e-02
-2.197255194187164307e-02
2.287257909774780273e-01
-3.248891234397888184e-01
5.006167665123939514e-02
1.043482348322868347e-01
-5.662417784333229065e-02
-6.407636404037475586e-01
-3.064683079719543457e-02
5.022335797548294067e-02
-1.740044802427291870e-01
-3.956381604075431824e-02
-2.232338905334472656e+00
2.772436141967773438e-01
-1.753640174865722656e-01
-3.211732387542724609e+00
-6.476471573114395142e-02
-8.364562988281250000e-01
-4.849745333194732666e-01
1.144927591085433960e-01
3.240059614181518555e-01
-2.925968542695045471e-02
-2.296854183077812195e-02
3.211881965398788452e-02
-1.388494491577148438e+00
-1.070464134216308594e+00
1.281998027116060257e-02
-4.762417972087860107e-01
-2.938058972358703613e-02
3.955059871077537537e-02
-2.649377882480621338e-01
4.181555658578872681e-02
-6.859485507011413574e-01
-1.382630825042724609e+00
5.601652264595031738e-01
2.781588435173034668e-01
8.372429013252258301e-02
-2.259610891342163086e+00
-6.262132167816162109e+00
6.071684882044792175e-02
-5.005950331687927246e-01
-1.311675548553466797e+00
-6.146149039268493652e-01
1.462266501039266586e-02
1.367426384240388870e-02
-1.959579885005950928e-01
-1.361599862575531006e-01
6.669832020998001099e-02
-3.214172422885894775e-01
-9.670076966285705566e-01
-3.796172440052032471e-01
-9.016313552856445312e-01
-7.710871845483779907e-02
1.137938573956489563e-01
-5.401474833488464355e-01
1.939690262079238892e-01
-1.493288129568099976e-01
-4.042346477508544922e-01
-5.597363710403442383e-01
4.640217497944831848e-02
-1.154774650931358337e-01
-5.336806178092956543e-02
2.949793338775634766e-01
-1.780934631824493408e-02
-5.446907132863998413e-03
-8.020675182342529297e-02
-9.296030402183532715e-01
3.978922963142395020e-01
-4.763426303863525391e+00
5.753858014941215515e-02
8.875483274459838867e-02
-1.800310052931308746e-02
5.990001931786537170e-02
-4.861947149038314819e-02
5.353867541998624802e-03
-2.267778366804122925e-01
-7.242111116647720337e-02
2.221710979938507080e-02
-7.357109338045120239e-02
4.748016595840454102e-02
-1.948427259922027588e-01
-1.156909763813018799e-02
-2.615960836410522461e-01
1.908327192068099976e-01
4.570558369159698486e-01
1.097244992852210999e-01
1.332687772810459137e-02
-1.344425827264785767e-01
-6.891977041959762573e-02
5.960541591048240662e-02
-4.868879914283752441e-01
-2.170912176370620728e-01
4.656160995364189148e-02
-1.453117281198501587e-01
-5.918605327606201172e-01
1.895669400691986084e-01
-1.155499592423439026e-01
-5.061420798301696777e-02
1.438528448343276978e-01
7.291886210441589355e-02
5.520091652870178223e-01
-2.076792158186435699e-02
8.576297014951705933e-02
-5.741034075617790222e-02
7.383959889411926270e-01
-1.343676894903182983e-01
1.327675431966781616e-01
-1.607574671506881714e-01
-5.115026831626892090e-01
7.710126638412475586e-01
2.599275708198547363e-01
-3.853124380111694336e-01
-2.424532413482666016e+00
5.108668804168701172e-01
2.490653097629547119e-01
1.077631711959838867e-01
4.071155488491058350e-01
-4.629528895020484924e-02
9.111170470714569092e-02
-2.646357715129852295e-01
3.764298930764198303e-02
2.841999530792236328e-01
1.178423464298248291e-01
-6.714532852172851562e+00
4.483885169029235840e-01
1.989376842975616455e-01
-1.084148883819580078e+00
2.197895497083663940e-01
2.192331850528717041e-01
-8.009674549102783203e-01
6.707345247268676758e-01
-4.532366275787353516e+00
-2.595021009445190430e+00
-1.137725338339805603e-01
6.381012797355651855e-01
-2.842024527490139008e-02
2.839582562446594238e-01
-2.083035707473754883e+00
-8.287122845649719238e-02
-7.208323478698730469e-02
6.299912929534912109e-02
-3.282104432582855225e-01
-6.009123325347900391e-01
1.033866763114929199e+00
2.535681724548339844e-01
-7.964577078819274902e-01
1.556790024042129517e-01
-1.500545255839824677e-02
-2.871955335140228271e-01
4.109643399715423584e-01
8.398534059524536133e-01
-2.507231831550598145e-01
-4.544552862644195557e-01
-4.221660792827606201e-01
5.379337072372436523e-02
-2.741685509681701660e-01
-2.943679690361022949e-01
-7.334467768669128418e-01
-1.054771021008491516e-01
2.654537558555603027e-01
-1.277431845664978027e-01
1.218559592962265015e-02
2.522532045841217041e-01
-1.091180667281150818e-01
-5.181407928466796875e-01
-1.838331818580627441e-01
-2.413801103830337524e-01
-4.696120619773864746e-01
-5.556290149688720703e-01
2.515873312950134277e-01
4.761410877108573914e-02
5.766930524259805679e-03
-2.787483692169189453e+00
-9.018155932426452637e-02
-1.322877556085586548e-01
1.176308840513229370e-01
-5.198485851287841797e-01
2.532346546649932861e-01
-1.413349211215972900e-01
5.879382789134979248e-02
3.141636773943901062e-02
-1.850724369287490845e-01
-1.871393173933029175e-01
2.440506964921951294e-01
5.899355411529541016e-01
9.062912315130233765e-02
4.498786106705665588e-02
6.032511591911315918e-01
1.483627706766128540e-01
3.176079317927360535e-02
2.018841952085494995e-01
1.202469170093536377e-01
2.549293637275695801e-01
5.747899413108825684e-02
-5.038984119892120361e-03
7.550023496150970459e-02
-6.158626638352870941e-03
1.426271628588438034e-02
9.355063736438751221e-02
1.008098386228084564e-02
1.605920493602752686e-01
-1.656878590583801270e-01
4.585815072059631348e-01
-2.376123145222663879e-02
-1.332854181528091431e-01
1.647466868162155151e-01
-2.446622401475906372e-01
-2.734281420707702637e-01
-1.343256235122680664e+00
5.944732204079627991e-02
-1.750812083482742310e-01
-4.051297437399625778e-03
-8.184624910354614258e-01
-5.952447056770324707e-01
1.276280879974365234e-01
-1.066622495651245117e+00
-4.405837655067443848e-01
-1.942122280597686768e-01
-1.746888995170593262e+00
4.119047895073890686e-02
3.982223868370056152e-01
-1.334704738110303879e-02
-3.879492403939366341e-03
-1.796741336584091187e-01
-4.951097667217254639e-01
7.423091679811477661e-02
-2.951548993587493896e-01
-3.320322334766387939e-01
-7.128620892763137817e-02
2.449885569512844086e-02
-2.938760519027709961e-01
6.237577646970748901e-03
-6.495833992958068848e-01
-4.173529893159866333e-02
1.017211079597473145e-01
-9.175329655408859253e-02
-5.707459524273872375e-03
-1.643174290657043457e-01
5.253418087959289551e-01
-9.550111889839172363e-01
-1.144158095121383667e-02
-2.647379934787750244e-01
-6.076332926750183105e-01
-6.065477371215820312e+00
1.279872804880142212e-01
2.345285564661026001e-01
-4.478518292307853699e-02
-1.712102055549621582e+00
-3.780628740787506104e-02
6.443502306938171387e-01
-2.504236221313476562e+00
2.537998557090759277e-01
6.719766557216644287e-02
-5.884714797139167786e-02
9.103572368621826172e-02
-9.245879054069519043e-01
2.659463137388229370e-02
-6.570764183998107910e-01
5.165780782699584961e-01
-7.411633729934692383e-01
-2.332126200199127197e-01
-3.072912693023681641e-01
-2.732878625392913818e-01
-5.849715471267700195e-01
5.106417536735534668e-01
7.841488122940063477e-01
4.235075116157531738e-01
-3.201529849320650101e-03
-1.066374421119689941e+00
8.340390920639038086e-01
-7.666219025850296021e-02
-8.504460453987121582e-01
1.020251661539077759e-01
-5.453211665153503418e-01
-1.721333712339401245e-01
-1.098534703254699707e+00
6.245135664939880371e-01
6.197867915034294128e-02
6.338992118835449219e-01
-9.224990010261535645e-01
-8.119172602891921997e-02
-6.259562373161315918e-01
1.753963232040405273e-01
-2.531614005565643311e-01
1.585703343152999878e-01
-7.500020265579223633e-01
-4.098969101905822754e-01
5.504889995791018009e-04
-5.386312007904052734e+00
-8.923943042755126953e-01
-7.866633534431457520e-01
-4.125771522521972656e-01
2.151414155960083008e-01
-6.301812529563903809e-01
-1.641352027654647827e-01
-1.513504028320312500e+00
-3.840423226356506348e-01
2.107663266360759735e-02
-1.475519388914108276e-01
-1.131651401519775391e+01
-6.768228530883789062e+00
-1.619185805320739746e-01
-6.514838337898254395e-01
-2.469986915588378906e+00
-3.111441135406494141e-01
-2.141280174255371094e+00
1.057950928807258606e-01
-3.138943195343017578e+00
-1.055925726890563965e+00
1.044546905905008316e-02
-2.328311204910278320e-01
-1.974807083606719971e-01
4.889457523822784424e-01
-1.738671183586120605e+00
2.770341038703918457e-01
-2.438212156295776367e+00
-1.790838539600372314e-01
1.811004430055618286e-01
-1.510367751121520996e+00
-6.665272712707519531e-01
-2.325741291046142578e+00
1.726967692375183105e-01
-2.720741927623748779e-01
1.881288886070251465e-01
1.155311986804008484e-01
-6.823847293853759766e-01
-1.249271392822265625e+00
-7.601602077484130859e-01
-1.151042580604553223e+00
-1.287887096405029297e+00
-1.049861609935760498e-01
-1.412769407033920288e-01
-4.833011925220489502e-01
-1.993598937988281250e-01
6.555218994617462158e-02
-1.475922018289566040e-01
-9.650944732129573822e-03
3.982863426208496094e-01
-5.185312591493129730e-03
-4.019654542207717896e-02
-1.291799992322921753e-01
-1.180640682578086853e-01
4.713131785392761230e-01
1.256153583526611328e-01
4.272657632827758789e-02
-3.689567744731903076e-02
-2.651407383382320404e-02
3.597223758697509766e-02
-6.518100947141647339e-02
-7.650652527809143066e-02
-3.008230924606323242e-01
-3.729014424607157707e-03
1.715812087059020996e-02
-4.374791309237480164e-02
2.263038791716098785e-02
1.098327338695526123e-01
1.538965851068496704e-02
-1.798997670412063599e-01
-1.432700514793395996e+00
-3.269280539825558662e-03
2.215964719653129578e-02
1.173834130167961121e-01
-3.335452973842620850e-01
-4.916037321090698242e-01
1.143135651946067810e-01
2.494787275791168213e-01
-6.960197091102600098e-01
-2.454729795455932617e+00
1.041257232427597046e-01
-1.229531317949295044e-01
7.067220211029052734e-01
2.424966394901275635e-01
3.216155469417572021e-01
-4.155632555484771729e-01
5.381872057914733887e-01
-2.006521821022033691e-01
-1.406346082687377930e+00
1.790551990270614624e-01
1.225277334451675415e-01
-1.042706742882728577e-01
6.432296037673950195e-01
7.364030927419662476e-02
-1.240559935569763184e+00
6.093038916587829590e-01
-2.233997821807861328e+00
-1.086025595664978027e+00
-1.124738529324531555e-01
6.219983100891113281e-01
-2.406347036361694336e+00
-7.599775314331054688e+00
-4.519320487976074219e+00
1.709361970424652100e-01
-7.837983965873718262e-01
-2.082738727331161499e-01
-4.812693595886230469e+00
4.769847989082336426e-01
1.585323214530944824e-01
-2.501058876514434814e-01
-7.909704446792602539e-01
1.452245265245437622e-01
1.541833281517028809e-01
-2.420553117990493774e-01
5.962842106819152832e-01
4.424641728401184082e-01
-7.111581508070230484e-03
-4.220230579376220703e-01
-5.858643725514411926e-02
-3.965509235858917236e-01
-3.385354280471801758e+00
6.150047779083251953e-01
2.392906248569488525e-01
-8.639309406280517578e-01
-6.319236010313034058e-02
2.199655026197433472e-01
-4.688088893890380859e-01
8.680622279644012451e-02
9.252716302871704102e-01
2.418324053287506104e-01
4.943726956844329834e-01
1.633605957031250000e-01
7.236027121543884277e-01
-6.193499565124511719e-01
-3.727352321147918701e-01
-1.955541074275970459e-01
-7.502548098564147949e-01
4.383402466773986816e-01
2.003763020038604736e-01
3.060443103313446045e-01
8.757290244102478027e-01
1.093935608863830566e+00
-3.016724884510040283e-01
-3.759411573410034180e+00
-4.467386170290410519e-04
-4.308964908123016357e-01
7.520043849945068359e-02
-1.535997688770294189e-01
-6.310283392667770386e-02
2.296929806470870972e-01
3.503198176622390747e-02
1.952230781316757202e-01
2.307640947401523590e-02
-4.619738832116127014e-02
-2.775344252586364746e-02
-1.642481386661529541e-01
9.664680063724517822e-02
-9.753131866455078125e-02
-3.330416604876518250e-02
2.306207828223705292e-02
2.745574153959751129e-02
-2.808336168527603149e-03
-3.872533515095710754e-02
-7.180567830801010132e-02
4.141054674983024597e-02
-1.099967285990715027e-01
7.576551288366317749e-02
-3.797401189804077148e-01
1.286512892693281174e-02
1.668062619864940643e-02
3.097281455993652344e-01
2.583935670554637909e-02
-6.442058831453323364e-02
1.656974107027053833e-01
-2.802287042140960693e-01
-1.694878935813903809e-01
-2.311731427907943726e-01
4.091466218233108521e-02
2.003778517246246338e-01
6.722884136252105236e-04
-6.544154137372970581e-02
-5.926346033811569214e-02
-1.136246696114540100e-01
-7.503924518823623657e-02
9.618067741394042969e-02
-1.447938978672027588e-01
-7.523916661739349365e-02
-1.457983702421188354e-01
-1.806102991104125977e-01
1.411124039441347122e-02
1.876194626092910767e-01
-9.189166128635406494e-02
-2.181451395153999329e-02
1.631013005971908569e-01
7.800582051277160645e-02
-2.015402913093566895e-01
5.853682383894920349e-02
-1.490459144115447998e-01
-1.946667954325675964e-02
-4.928718209266662598e-01
-3.044539391994476318e-01
1.637632250785827637e-01
-1.601480394601821899e-01
-1.051762551069259644e-01
3.577785938978195190e-02
-1.080228567123413086e+00
8.155133575201034546e-02
4.676128737628459930e-03
-2.621713653206825256e-02
2.171871252357959747e-02
-4.456825926899909973e-02
-3.213895112276077271e-02
3.906004130840301514e-02
-1.325681805610656738e-01
-6.834299862384796143e-02
-7.886862754821777344e-02
6.618794798851013184e-02
-2.909538745880126953e-01
8.656699210405349731e-03
-3.648278862237930298e-02
-8.175658583641052246e-01
1.443088412284851074e+00
-6.946006417274475098e-01
-9.196325391530990601e-02
-2.542643249034881592e-01
-3.970041573047637939e-01
6.195293739438056946e-03
-1.235045671463012695e+00
-3.753956556320190430e+00
4.106178879737854004e-01
1.949270665645599365e-01
-2.489344835281372070e+00
-9.023641347885131836e-01
3.469974100589752197e-01
-4.857696890830993652e-01
-3.346030712127685547e-01
-3.458925187587738037e-01
-1.053628683090209961e+00
2.787172421813011169e-02
-1.690286755561828613e+00
-6.932790279388427734e-01
1.404007617384195328e-02
1.508784443140029907e-01
7.119038701057434082e-02
-9.293043017387390137e-01
2.388059645891189575e-01
1.957626491785049438e-01
1.827939152717590332e-01
-3.170240297913551331e-02
-1.831309795379638672e-01
1.327351480722427368e-01
-1.203256472945213318e-01
-1.347970366477966309e-01
-1.562277078628540039e-01
-2.358241677284240723e-01
-6.262565255165100098e-01
-6.477686762809753418e-02
2.628667652606964111e-01
1.080637946724891663e-01
-1.110985130071640015e-01
-1.308209542185068130e-02
-5.220378935337066650e-02
-3.164992928504943848e-01
5.821109563112258911e-02
1.912322789430618286e-01
-7.261894177645444870e-03
7.421428454108536243e-04
1.483081728219985962e-01
6.810587644577026367e-02
-1.899466514587402344e+00
-1.464961916208267212e-01
2.639890015125274658e-01
1.024698317050933838e-01
2.909096181392669678e-01
2.255151420831680298e-01
-3.553421497344970703e+00
-1.442186534404754639e-01
3.470057994127273560e-02
7.214441895484924316e-03
-5.757883191108703613e-01
7.540055513381958008e-01
1.680639386177062988e-01
3.822933137416839600e-01
-3.100916445255279541e-01
6.289695948362350464e-02
-1.350968629121780396e-01
-5.537999421358108521e-02
4.244938120245933533e-02
-2.654403746128082275e-01
-3.299630582332611084e-01
-1.835399568080902100e-01
6.926760543137788773e-04
-6.378065943717956543e-01
-8.024612069129943848e-02
-4.287653267383575439e-01
-1.147371083498001099e-01
2.026226744055747986e-02
-1.322563737630844116e-01
-1.064802780747413635e-01
-6.005648374557495117e-01
-4.330829083919525146e-01
1.289215981960296631e-01
9.850382804870605469e-02
-1.431807782500982285e-02
-2.099166363477706909e-01
9.167008846998214722e-02
4.957989603281021118e-02
-1.598542183637619019e-01
-1.323088351637125015e-02
3.889865800738334656e-02
5.438010022044181824e-02
-1.007011979818344116e-01
-6.427638232707977295e-02
-4.551463946700096130e-02
-1.649534702301025391e-01
-3.777876123785972595e-02
3.796722367405891418e-02
-1.560925692319869995e-01
-1.494809426367282867e-02
6.897500250488519669e-03
4.731281399726867676e-01
9.497336149215698242e-01
9.584844112396240234e-02
-3.005246631801128387e-02
-1.465541124343872070e+00
3.477977812290191650e-01
2.595695555210113525e-01
-9.395433217287063599e-02
3.755922988057136536e-02
2.330668866634368896e-01
5.794259309768676758e-01
-1.036213263869285583e-01
-2.594975471496582031e+00
1.649304665625095367e-02
2.997916936874389648e-02
7.680886238813400269e-02
6.552394479513168335e-02
-1.077846437692642212e-01
-1.195542216300964355e+00
2.031370848417282104e-01
1.789381913840770721e-02
-5.317566543817520142e-02
5.663228407502174377e-02
-1.291857957839965820e-01
1.836392432451248169e-01
-9.874537587165832520e-03
1.858978569507598877e-01
1.468052715063095093e-01
9.636701643466949463e-02
-4.699562549591064453e+00
-2.024512439966201782e-01
1.504190415143966675e-01
-4.100992977619171143e-01
1.810849905014038086e-01
6.527554988861083984e-01
-6.770818680524826050e-02
-5.441810563206672668e-02
4.766015112400054932e-01
2.889824844896793365e-02
7.487905770540237427e-02
-8.920584917068481445e-01
-7.580141425132751465e-01
4.137921333312988281e-01
-5.178793668746948242e-01
9.291198253631591797e-01
4.940074682235717773e-02
-1.058562770485877991e-01
-8.633932471275329590e-02
-5.021461471915245056e-02
-1.681129455566406250e+00
3.629039824008941650e-01
2.582779824733734131e-01
2.372298389673233032e-01
3.306429386138916016e-01
9.171956181526184082e-01
1.359268575906753540e-01
9.126338362693786621e-01
-3.806060850620269775e-01
2.974404096603393555e-01
8.345302343368530273e-01
-1.443413496017456055e-01
-3.254051208496093750e-01
5.142089128494262695e-01
-7.048939168453216553e-02
2.358034998178482056e-01
2.335340380668640137e-01
-1.015208244323730469e+00
-2.089490145444869995e-01
-2.039659500122070312e+00
8.489508628845214844e-01
-6.332903504371643066e-01
1.143179982900619507e-01
4.425839483737945557e-01
-1.163932234048843384e-01
-4.955961834639310837e-03
-2.400701999664306641e+00
8.065796643495559692e-02
-3.932837843894958496e-01
-1.210004463791847229e-01
-2.117695093154907227e+00
-6.153365969657897949e-01
-5.335623025894165039e-02
-8.280887603759765625e-01
-1.205272793769836426e+00
-3.650316715240478516e+00
1.987872958183288574e+00
1.636703461408615112e-01
-2.405844032764434814e-01
-9.765700995922088623e-02
-6.337316036224365234e-01
-2.362831115722656250e+00
-6.667906045913696289e-01
-3.802743926644325256e-02
-1.950201988220214844e-01
-4.979466199874877930e-01
-3.528053462505340576e-01
1.041393876075744629e-01
-2.943816661834716797e+00
8.664765395224094391e-03
-1.129622831940650940e-01
-1.582326292991638184e-01
8.976092934608459473e-02
-9.925463050603866577e-02
-1.046190224587917328e-02
-9.533733129501342773e-02
4.657236859202384949e-02
-4.333401843905448914e-02
-4.424341768026351929e-02
9.405661374330520630e-02
4.261638820171356201e-01
-4.755093455314636230e-01
4.036651551723480225e-02
3.779768571257591248e-02
-1.429959759116172791e-02
-5.478208139538764954e-02
-8.030091226100921631e-02
5.382466688752174377e-02
-4.926021099090576172e-01
-7.128182053565979004e-02
3.345108404755592346e-02
1.216968800872564316e-02
3.483530506491661072e-02
1.961821764707565308e-01
-4.616082645952701569e-03
-4.669454991817474365e-01
-3.222213983535766602e-01
-1.359802186489105225e-01
2.147966474294662476e-01
3.366952762007713318e-02
-1.526851177215576172e+00
-1.495145857334136963e-01
3.410375118255615234e-01
2.670314162969589233e-02
-1.958416700363159180e-01
1.813948154449462891e-01
-4.589207172393798828e+00
-1.069406494498252869e-01
-1.201907515525817871e+00
4.804952070116996765e-03
1.986811868846416473e-02
6.658510304987430573e-03
-4.207529127597808838e-02
-5.601213574409484863e-01
-4.419963359832763672e-01
7.686833143234252930e-01
1.338854432106018066e-01
-1.333994567394256592e-01
2.046797871589660645e-01
-1.045315619558095932e-02
-1.624064683914184570e+00
1.374511606991291046e-02
2.750047482550144196e-02
-1.802200824022293091e-01
-2.777639590203762054e-02
-7.835620045661926270e-01
-4.146596193313598633e-01
-3.036511838436126709e-01
1.152571365237236023e-01
1.707173585891723633e-01
-3.715883493423461914e-01
9.817474484443664551e-01
9.209777414798736572e-02
-2.049913555383682251e-01
-7.855565100908279419e-02
-1.165002062916755676e-01
-4.570497870445251465e-01
-1.190579533576965332e-01
-1.216583251953125000e+00
1.429844945669174194e-01
6.864853948354721069e-02
-2.162709981203079224e-01
9.727899916470050812e-03
-1.986624449491500854e-01
8.528376370668411255e-02
-4.918446838855743408e-01
-1.302992850542068481e-01
1.896203681826591492e-02
-2.946448624134063721e-01
-1.163916140794754028e-01
-1.841947317123413086e+00
-2.518703043460845947e-01
-7.263785600662231445e-01
-2.077803611755371094e-01
-1.530618071556091309e-01
-1.731297820806503296e-01
-1.555339246988296509e-02
8.214246481657028198e-02
-7.065831869840621948e-02
-3.250488638877868652e-02
1.921625733375549316e-01
2.168585732579231262e-02
-5.683457255363464355e-01
1.978441625833511353e-01
-1.398121565580368042e-01
-2.843793332576751709e-01
-1.692939251661300659e-01
8.799409866333007812e-02
-3.222458362579345703e-01
1.703897677361965179e-02
5.172280967235565186e-02
-6.810359656810760498e-02
4.904861003160476685e-02
-1.276605427265167236e-01
3.138429820537567139e-01
4.455713331699371338e-01
8.312495946884155273e-01
-9.436337277293205261e-03
-8.858029730618000031e-03
6.868904232978820801e-01
1.179988086223602295e-01
-3.523748833686113358e-03
6.298691779375076294e-02
4.003701508045196533e-01
-7.591670728288590908e-04
8.680181205272674561e-02
-1.936630159616470337e-01
-6.836222112178802490e-02
-6.626709550619125366e-02
-3.221208751201629639e-01
3.177092969417572021e-01
-2.841106057167053223e-01
5.380645990371704102e-01
-2.291099429130554199e-01
-1.214699372649192810e-01
2.226466536521911621e-01
-3.990002870559692383e-01
9.555667638778686523e-01
-1.228102892637252808e-01
4.344334900379180908e-01
-8.514177799224853516e-02
-1.659293293952941895e+00
-1.851917430758476257e-02
4.223584830760955811e-01
4.749245941638946533e-01
7.425122857093811035e-01
-4.563175141811370850e-02
7.480718195438385010e-02
5.337725281715393066e-01
2.194871194660663605e-02
6.473095417022705078e-01
-7.327715754508972168e-01
-2.324871905148029327e-02
3.223329782485961914e-01
-2.935028374195098877e-01
-1.395786702632904053e-01
1.944730281829833984e-01
-4.875337481498718262e-01
1.069041192531585693e-01
-1.272050291299819946e-01
-6.255646347999572754e-01
-5.378777533769607544e-02
-3.323138505220413208e-02
-2.196610718965530396e-01
-9.910516440868377686e-03
2.976928055286407471e-01
2.749172225594520569e-02
-3.045535087585449219e-01
1.214180737733840942e-01
-2.110980004072189331e-01
-1.455669850111007690e-01
-1.328672051429748535e+00
9.268263727426528931e-02
-1.681236177682876587e-01
1.941253431141376495e-02
-9.693142771720886230e-02
-5.437582731246948242e-02
7.235493659973144531e-01
-1.233711615204811096e-01
-1.195391826331615448e-02
-3.213815763592720032e-02
-5.330440402030944824e-02
-1.048228051513433456e-02
-7.905454635620117188e-01
5.314869433641433716e-02
2.904403805732727051e-01
-4.068173170089721680e-01
-3.058442175388336182e-01
-4.382951557636260986e-02
-4.266181290149688721e-01
-3.771499395370483398e-01
-2.214035391807556152e-01
4.466753900051116943e-01
1.146419718861579895e-01
8.960618972778320312e-01
5.142881274223327637e-01
-1.825101375579833984e-01
7.939714193344116211e-01
-5.737903714179992676e-01
-5.027912091463804245e-03
-3.331257030367851257e-02
-8.090811729431152344e+00
5.710908174514770508e-01
-1.071715056896209717e-01
-1.218407440185546875e+01
1.854630373418331146e-02
9.136551022529602051e-01
-8.289153575897216797e-01
4.397916793823242188e-01
-1.016199350357055664e+00
-1.088111281394958496e+00
5.358120799064636230e-01
-1.281840562820434570e+00
-1.145703941583633423e-01
-1.191717684268951416e-01
4.753772616386413574e-01
4.425803422927856445e-01
-2.046803832054138184e-01
6.011674404144287109e-01
2.195882201194763184e-01
-1.283870488405227661e-01
-2.530076503753662109e-01
9.984415024518966675e-02
-2.313024997711181641e-01
1.922623217105865479e-01
-1.001354157924652100e-01
2.219013571739196777e-01
-1.964715272188186646e-01
1.705861091613769531e-01
4.380416870117187500e-01
1.017278507351875305e-01
-4.605656489729881287e-02
3.972210586071014404e-01
1.043794117867946625e-02
-5.476632341742515564e-02
1.433006972074508667e-01
-1.663419604301452637e-01
2.630841434001922607e-01
4.284089431166648865e-02
3.794160112738609314e-02
4.885658621788024902e-01
-2.239676192402839661e-02
-4.837403774261474609e+00
-7.805578708648681641e-01
-1.339025139808654785e+00
-4.511294960975646973e-01
-6.661183834075927734e-01
1.391589641571044922e-01
3.328066468238830566e-01
-4.936659038066864014e-01
-1.100430190563201904e-01
3.996874690055847168e-01
-2.928696572780609131e-01
-4.024276733398437500e-01
-5.633621215820312500e-01
5.219473838806152344e-01
-4.773767665028572083e-02
-4.521896541118621826e-01
2.637239396572113037e-01
2.040361911058425903e-01
5.712675452232360840e-01
3.531464934349060059e-02
9.654911607503890991e-02
-7.331943511962890625e-02
1.195513177663087845e-02
-7.348722219467163086e-01
6.560125350952148438e-01
-1.300763130187988281e+00
-4.083789512515068054e-02
-1.164412274956703186e-01
-1.082403957843780518e-01
-2.614977955818176270e-01
1.368912011384963989e-01
-7.259352207183837891e-01
-1.426840666681528091e-02
-1.971603482961654663e-01
-3.009812906384468079e-02
7.256172299385070801e-01
4.771497845649719238e-01
3.415332436561584473e-01
1.649778485298156738e-01
-1.555496361106634140e-02
9.549255669116973877e-02
-5.397728681564331055e-01
-9.391051717102527618e-03
-2.508670091629028320e-01
-2.216372191905975342e-01
1.067417338490486145e-01
-2.236666828393936157e-01
-8.402017503976821899e-02
-1.862839698791503906e+00
-3.190891146659851074e-01
2.805808782577514648e-01
4.361054673790931702e-02
1.676342040300369263e-01
-1.047089695930480957e+00
-9.831314682960510254e-01
1.420795470476150513e-01
-4.438333958387374878e-02
-5.269834026694297791e-02
9.787763655185699463e-02
-3.572163879871368408e-01
7.126380205154418945e-01
-3.976654112339019775e-01
-2.127362489700317383e-01
3.292267769575119019e-02
-1.164264157414436340e-01
1.072204783558845520e-01
-7.402425408363342285e-01
2.413572371006011963e-02
-4.663310050964355469e-01
-1.530627489089965820e+00
-8.138805031776428223e-01
-1.803470253944396973e-01
-1.852935850620269775e-01
-3.317880868911743164e+00
-1.529675483703613281e+00
-7.280431985855102539e-01
-6.012233719229698181e-02
6.488620489835739136e-02
-3.327755928039550781e-01
2.915394604206085205e-01
-2.751128077507019043e-01
-8.961032330989837646e-02
8.433949947357177734e-02
-3.404218005016446114e-03
3.243974149227142334e-01
3.188001811504364014e-01
2.214043587446212769e-01
-1.200362682342529297e+00
-2.921486496925354004e-01
-3.711057826876640320e-02
6.545195579528808594e-01
-1.934290528297424316e-01
-2.562890648841857910e-01
-3.634986281394958496e-01
-9.602785706520080566e-01
1.607540063560009003e-02
-6.401723027229309082e-01
3.646714240312576294e-02
-1.315626025199890137e+00
-7.126919627189636230e-01
-2.026531547307968140e-01
-1.125354617834091187e-01
-3.739504814147949219e-01
-8.779156804084777832e-01
-1.381051301956176758e+00
3.456031084060668945e-01
-1.997752040624618530e-01
1.089132763445377350e-02
-2.794990837574005127e-01
-1.072085648775100708e-01
-5.972394347190856934e-01
-4.152716696262359619e-01
-2.023938596248626709e-01
7.011857628822326660e-02
-2.012938559055328369e-01
2.379178255796432495e-01
-1.577715158462524414e+00
-1.697560250759124756e-01
-3.903774619102478027e-01
3.957912325859069824e-02
-3.640331327915191650e-01
1.679590195417404175e-01
5.272895097732543945e-02
-1.614531427621841431e-01
-2.066688835620880127e-01
2.909740619361400604e-02
-3.985355496406555176e-01
-6.623113155364990234e-01
-7.149540781974792480e-01
-8.379525542259216309e-01
-1.467041969299316406e-01
9.609791636466979980e-02
2.209705412387847900e-01
-3.584422767162322998e-01
-6.938807666301727295e-02
-8.232531696557998657e-02
3.570504486560821533e-02
-3.026774898171424866e-02
-2.448441227898001671e-03
3.211269974708557129e-01
-1.203682273626327515e-01
-2.870314121246337891e-01
-3.804178237915039062e-01
5.720753595232963562e-02
1.503737568855285645e-01
1.217278540134429932e-01
3.304075822234153748e-02
2.901481464505195618e-02
-3.167268335819244385e-01
-4.133078083395957947e-02
5.864583887159824371e-03
-1.848901808261871338e-01
-4.519177600741386414e-02
-3.852044939994812012e-01
-6.341102067381143570e-03
-3.887502476572990417e-02
-3.337720930576324463e-01
1.954526454210281372e-02
-4.184227436780929565e-02
-9.928866475820541382e-02
1.263867877423763275e-02
1.408270299434661865e-01
1.000382588244974613e-03
-5.849654600024223328e-02
4.159146174788475037e-02
-2.609847486019134521e-02
-1.483276039361953735e-01
-3.973799198865890503e-02
2.066205069422721863e-02
2.394596040248870850e-01
8.139267563819885254e-02
-2.184356749057769775e-01
-5.479666590690612793e-02
-2.640193462371826172e+00
-9.760260581970214844e-01
-5.263009071350097656e-01
-1.071562170982360840e+00
-5.066360235214233398e-01
3.228385746479034424e-01
-8.663905262947082520e-01
-1.438708424568176270e+00
8.506234735250473022e-03
2.189742401242256165e-02
-1.411925721913576126e-02
-2.545655667781829834e-01
9.815598279237747192e-02
-2.494086027145385742e-01
2.771367728710174561e-01
2.019417583942413330e-01
1.873650848865509033e-01
-6.600757688283920288e-02
1.639150828123092651e-01
-6.203834339976310730e-02
-3.355924487113952637e-01
-1.496946513652801514e-01
-5.248529911041259766e-01
-1.099896073341369629e+00
6.800980865955352783e-02
-2.933423757553100586e+00
-4.846038818359375000e+00
-1.695888042449951172e+00
-1.449553966522216797e+00
-3.709364175796508789e+00
-3.215032815933227539e+00
1.033217236399650574e-01
-4.460771679878234863e-01
-1.287754058837890625e+00
-2.729743421077728271e-01
-1.529593110084533691e+00
-5.784338116645812988e-01
-3.487504720687866211e+00
-3.770079612731933594e+00
-6.156196817755699158e-02
-2.340248823165893555e+00
-2.825481891632080078e-01
-3.563004136085510254e-01
1.457713544368743896e-02
-3.037694215774536133e+00
-1.562894880771636963e-01
-4.749226868152618408e-01
-1.775862462818622589e-02
1.487499475479125977e-01
2.677246555685997009e-02
-1.761745691299438477e+00
-9.415285110473632812e+00
-1.764810085296630859e-01
-1.281431466341018677e-01
-9.403879642486572266e-01
-2.601884603500366211e+00
4.605555236339569092e-01
-6.033544540405273438e-01
-1.112311482429504395e+00
7.298556715250015259e-02
-6.710636615753173828e-01
-5.535706877708435059e-01
-9.244533181190490723e-01
2.447952181100845337e-01
2.966891825199127197e-01
4.308652132749557495e-02
1.698271632194519043e-01
3.791253566741943359e-01
-1.189059734344482422e+00
-1.019136533141136169e-01
1.489411890506744385e-01
-8.097843825817108154e-02
2.466897219419479370e-01
-9.134934097528457642e-02
-2.492152526974678040e-02
-2.063755244016647339e-01
-3.993702828884124756e-01
8.398120850324630737e-02
4.706162214279174805e-02
4.320509135723114014e-01
5.313427373766899109e-02
-1.334344148635864258e+00
1.141306310892105103e-01
-1.079840734601020813e-01
5.519181862473487854e-02
-5.336899757385253906e-01
1.883612386882305145e-02
-1.084836870431900024e-01
5.562612414360046387e-01
-1.752344220876693726e-01
-3.074057102203369141e-01
7.756119221448898315e-02
2.793520987033843994e-01
-4.306119307875633240e-02
9.508558362722396851e-02
4.402413964271545410e-01
