6.522064208984375000e-01
-2.385340481996536255e-01
-5.805386304855346680e-01
2.950947284698486328e-01
2.732315063476562500e-01
8.602930307388305664e-01
4.067946076393127441e-01
4.924845993518829346e-01
-2.796253561973571777e-01
-2.385858297348022461e-01
-2.883738994598388672e+00
-9.392932057380676270e-01
-7.610315084457397461e-01
-7.781515717506408691e-01
7.820743322372436523e-02
2.013129889965057373e-01
5.167230367660522461e-01
-1.335332095623016357e-01
-4.466299340128898621e-02
-1.419118642807006836e-01
-3.013909816741943359e+00
2.320707291364669800e-01
4.391112551093101501e-02
1.313872039318084717e-01
1.462955623865127563e-01
2.578772976994514465e-02
-7.289788872003555298e-02
5.069019272923469543e-02
-6.283522248268127441e-01
1.226866617798805237e-01
-4.398377835750579834e-01
8.101363480091094971e-02
9.582630544900894165e-02
-1.889011263847351074e-01
-2.037611007690429688e-01
8.587303757667541504e-02
5.480272769927978516e-01
-1.446713566780090332e+00
-6.877923011779785156e-02
6.806911434978246689e-03
3.435167968273162842e-01
-4.330016076564788818e-01
1.388562470674514771e-01
1.251704152673482895e-02
2.656536400318145752e-01
5.701929926872253418e-01
-2.017734348773956299e-01
-5.029532685875892639e-02
4.629795551300048828e-01
3.645722866058349609e-01
3.399473801255226135e-02
5.575209110975265503e-02
3.440512716770172119e-01
6.606039404869079590e-01
9.097444266080856323e-02
2.539223618805408478e-02
-2.108008861541748047e+00
1.940868347883224487e-01
-7.079850435256958008e-01
-2.025923430919647217e-01
6.980303525924682617e-01
-6.190672516822814941e-01
-8.186485767364501953e-01
-1.496709465980529785e+00
-6.616545915603637695e-01
3.522859215736389160e-01
-1.438016653060913086e+00
4.031243622303009033e-01
1.830552220344543457e-01
-1.875760704278945923e-01
3.533185422420501709e-01
1.236817613244056702e-01
4.345916807651519775e-01
1.804410517215728760e-01
3.137561976909637451e-01
3.308733105659484863e-01
-3.010402441024780273e+00
-6.179817914962768555e-01
1.199569627642631531e-01
3.236109316349029541e-01
-1.614217162132263184e-01
3.959428966045379639e-01
-1.426009237766265869e-01
-2.022591382265090942e-01
7.525224238634109497e-02
-4.801411628723144531e-01
-3.638668358325958252e-01
6.545525789260864258e-01
-1.820934563875198364e-01
-3.509358465671539307e-01
-5.456802845001220703e-01
4.538409709930419922e-01
-1.122665777802467346e-01
1.161935031414031982e-01
4.070809483528137207e-01
1.445488482713699341e-01
-1.011134743690490723e+00
4.003844261169433594e-01
-2.205390930175781250e-01
6.100436449050903320e-01
-6.593422412872314453e+00
-3.733984470367431641e+00
-2.394887059926986694e-01
1.156615391373634338e-01
7.618439942598342896e-02
-3.363769054412841797e-01
-6.904678046703338623e-02
-3.941677808761596680e-01
5.501790046691894531e-01
-2.692094445228576660e-01
-2.281116008758544922e+00
-1.307017654180526733e-01
2.734116911888122559e-01
7.470278739929199219e-01
5.728405341506004333e-02
-2.430799603462219238e-01
3.709308207035064697e-01
2.079973369836807251e-01
-6.907327771186828613e-01
-5.054097175598144531e-01
-7.556472420692443848e-01
-1.396889805793762207e+00
5.566098541021347046e-02
-5.387845635414123535e-01
-1.678151786327362061e-01
-1.080032110214233398e+00
-1.349690556526184082e+00
-7.338817119598388672e-01
-3.152528107166290283e-01
-1.659915745258331299e-01
-2.718905806541442871e-01
-3.463824689388275146e-01
-1.162492632865905762e+00
3.636359870433807373e-01
1.109936982393264771e-01
-7.878656387329101562e-01
-3.420814275741577148e-01
-1.173966288566589355e+00
-7.300323247909545898e-01
2.114970684051513672e-01
2.351358681917190552e-01
4.879432022571563721e-01
2.977281510829925537e-01
1.332110017538070679e-01
-3.005894124507904053e-01
-9.631222486495971680e-02
1.707096099853515625e-01
-6.463790535926818848e-01
-1.494035869836807251e-01
-3.039025664329528809e-01
-2.697705626487731934e-01
-3.089345991611480713e-01
2.139400839805603027e-01
-1.686940640211105347e-01
-2.992150187492370605e-01
-1.291216254234313965e+00
3.760189935564994812e-02
1.334823489189147949e+00
1.910179853439331055e-01
2.280800342559814453e-01
3.174115419387817383e-01
-8.385369181632995605e-01
5.229472517967224121e-01
7.392796874046325684e-02
-1.675884574651718140e-01
-4.536740779876708984e-01
4.452713131904602051e-01
-2.090272903442382812e+00
1.964941769838333130e-01
-1.333898752927780151e-01
1.603902280330657959e-01
5.298850536346435547e-01
1.959050744771957397e-01
9.293456375598907471e-02
8.337156474590301514e-02
7.594365626573562622e-02
-4.047828912734985352e-01
3.026681542396545410e-01
-4.597577452659606934e-02
-7.700169831514358521e-02
4.079507589340209961e-01
-1.165179722011089325e-02
3.880774080753326416e-01
-7.066522538661956787e-02
-6.344724446535110474e-02
2.304147183895111084e-01
1.040802523493766785e-01
6.432555615901947021e-02
4.741108417510986328e-01
-2.063900232315063477e+00
-2.215498983860015869e-01
-1.489803791046142578e+00
2.679376304149627686e-01
-1.710726380348205566e+00
1.453371942043304443e-01
-3.469918668270111084e-01
-1.916412353515625000e+00
-1.603694200515747070e+00
-1.074636429548263550e-01
-2.281524986028671265e-01
3.402567207813262939e-01
6.806094646453857422e-01
6.028688549995422363e-01
5.184813588857650757e-02
1.944842934608459473e-01
-7.229697108268737793e-01
-3.401013612747192383e-01
-4.019963443279266357e-01
-7.657789587974548340e-01
1.568290293216705322e-01
8.138915151357650757e-02
-7.191464900970458984e-01
1.315490007400512695e-01
4.786640703678131104e-01
5.205110907554626465e-01
-1.006610170006752014e-01
4.407939314842224121e-01
1.053185686469078064e-01
-2.318089753389358521e-01
4.382880330085754395e-01
1.917878980748355389e-03
-5.901968479156494141e-01
-1.021650210022926331e-01
3.016346395015716553e-01
-2.638027369976043701e-01
-1.139522552490234375e+00
-2.535785436630249023e+00
-8.865600824356079102e-02
-2.330416440963745117e-01
-5.069176554679870605e-01
-2.436630487442016602e+00
-1.985570788383483887e-01
-2.735385596752166748e-01
-6.229708194732666016e+00
-1.404137015342712402e-01
-1.769664573669433594e+01
-1.298788070678710938e+00
1.045299693942070007e-01
-3.100998327136039734e-02
4.726150631904602051e-02
4.194102287292480469e-01
-2.609519004821777344e+00
-1.171152114868164062e+00
-1.159813702106475830e-01
-1.553335934877395630e-01
-1.776325941085815430e+00
-4.644304513931274414e-01
-3.958561658859252930e+00
1.406533867120742798e-01
1.344958543777465820e-01
