-1.180603429675102234e-01
-2.459733039140701294e-01
-4.104608297348022461e-01
-2.249742895364761353e-01
-2.990124225616455078e-01
5.734488833695650101e-03
1.396578103303909302e-01
4.550069272518157959e-01
2.917175367474555969e-02
-2.833593189716339111e-01
-7.202088832855224609e-01
8.694439381361007690e-02
1.590377837419509888e-02
-9.670917689800262451e-02
6.424831598997116089e-02
-4.940361976623535156e-01
3.101192712783813477e-01
-1.952836811542510986e-01
5.961320549249649048e-02
-2.432461082935333252e-01
-4.160981476306915283e-01
5.200143456459045410e-01
-1.600276492536067963e-02
-2.114268392324447632e-02
-3.126041889190673828e-01
2.547360658645629883e-01
-1.082258820533752441e-01
-8.741390891373157501e-03
-2.916491925716400146e-01
-1.083841547369956970e-02
1.434889137744903564e-01
-1.842617988586425781e-02
3.034217953681945801e-01
2.439048141241073608e-01
-2.673679590225219727e-01
-5.918039381504058838e-02
-4.316450655460357666e-01
-1.397660821676254272e-01
1.121309697628021240e-01
4.256949126720428467e-01
-8.540575504302978516e-01
-6.364400982856750488e-01
-9.445781111717224121e-01
-4.785529673099517822e-01
4.099922180175781250e-01
1.660817265510559082e-01
1.606193333864212036e-01
3.556684851646423340e-01
-2.391808629035949707e-01
-1.800466179847717285e-01
-1.387386471033096313e-01
-5.379724502563476562e-01
1.528373211622238159e-01
-7.471569776535034180e-01
8.231168240308761597e-02
-1.076887324452400208e-01
6.086332723498344421e-02
5.034773349761962891e-01
-1.537358760833740234e-01
2.098018527030944824e-01
3.619021177291870117e-01
8.229938894510269165e-02
6.147400662302970886e-02
-7.239928469061851501e-03
-3.791746199131011963e-01
2.135198861360549927e-01
-2.833077311515808105e-01
-2.056331634521484375e-01
3.368359208106994629e-01
8.715758100152015686e-03
-3.228117823600769043e-01
-2.201822549104690552e-01
-1.880636513233184814e-01
-1.158738434314727783e-01
-1.795407980680465698e-01
-1.168837621808052063e-01
-4.231270551681518555e-01
-1.528020501136779785e-01
-3.724251389503479004e-01
-1.234720870852470398e-01
1.654549837112426758e-01
2.903030514717102051e-01
2.038586288690567017e-01
2.161851525306701660e-01
2.697740197181701660e-01
-3.344658911228179932e-01
2.469024620950222015e-02
-1.675155311822891235e-01
2.841687574982643127e-02
1.999988555908203125e-01
-1.963918805122375488e-01
-3.270022273063659668e-01
-5.029851198196411133e-01
-2.255189120769500732e-01
3.088860809803009033e-01
-3.233322799205780029e-01
-3.760839998722076416e-01
3.570550680160522461e-01
3.567698597908020020e-01
-9.421112388372421265e-02
-3.127925693988800049e-01
-1.481511443853378296e-01
2.980781160295009613e-02
-4.280979037284851074e-01
-2.610131911933422089e-02
-2.679327726364135742e-01
-9.840206056833267212e-02
1.030986234545707703e-01
-2.312226891517639160e-01
2.133581601083278656e-02
-6.754059344530105591e-02
-2.172346860170364380e-01
1.007003709673881531e-01
6.741674989461898804e-02
2.243210375308990479e-01
-4.950678944587707520e-01
-1.982832849025726318e-01
2.794071733951568604e-01
1.562124490737915039e-01
-1.156823560595512390e-01
-4.073877353221178055e-03
3.505696654319763184e-01
3.018943071365356445e-01
-4.783158302307128906e-01
-2.044106125831604004e-01
-3.774492442607879639e-02
-4.463577568531036377e-01
1.929879784584045410e-01
2.114859074354171753e-01
1.373910307884216309e-01
1.225614324212074280e-01
-1.958176940679550171e-01
-3.227468207478523254e-02
-1.076703593134880066e-01
2.330481857061386108e-01
3.018322885036468506e-01
-3.451464772224426270e-01
-2.540799975395202637e-01
-3.332619741559028625e-02
-6.340446323156356812e-02
-2.430653013288974762e-02
1.947566866874694824e-01
3.996917009353637695e-01
1.937788426876068115e-01
-5.805796757340431213e-02
-4.331984519958496094e-01
-3.148984909057617188e-01
-4.772023558616638184e-01
-1.096745431423187256e-01
-2.015364170074462891e-01
-2.215957343578338623e-01
-3.184131383895874023e-01
-2.221781462430953979e-01
-1.576379872858524323e-02
-4.359490871429443359e-01
-2.762518525123596191e-01
6.263713538646697998e-02
2.447238713502883911e-01
3.202041387557983398e-01
8.143381774425506592e-02
-6.492678076028823853e-02
8.861657232046127319e-02
-1.046290472149848938e-01
-3.967185318470001221e-01
-2.262416630983352661e-01
2.155232578516006470e-01
-5.082292854785919189e-02
-1.025473233312368393e-02
2.053999006748199463e-01
-5.209560394287109375e-01
-1.652214080095291138e-01
-9.201610460877418518e-03
4.237475991249084473e-02
-6.893568038940429688e-01
1.681945472955703735e-01
2.479987144470214844e-01
-2.438288480043411255e-01
3.223092555999755859e-01
-2.126600444316864014e-01
-1.177451014518737793e-01
-2.836678326129913330e-01
-2.017991989850997925e-01
3.180476650595664978e-02
1.575423628091812134e-01
9.072904288768768311e-02
-2.083277106285095215e-01
3.011760115623474121e-01
3.459433913230895996e-01
-2.271209061145782471e-01
2.934576570987701416e-01
-5.385788083076477051e-01
9.032960236072540283e-02
-1.764362603425979614e-01
-8.711338788270950317e-02
6.876317411661148071e-02
3.571631908416748047e-01
2.239094525575637817e-01
3.977254927158355713e-01
3.362520039081573486e-01
3.577142655849456787e-01
6.997328996658325195e-02
6.094445586204528809e-01
1.760315895080566406e-01
1.429613530635833740e-01
1.737599968910217285e-01
-5.755791664123535156e-01
-1.840898096561431885e-01
-2.103024721145629883e-02
1.608995795249938965e-01
2.909364402294158936e-01
3.876116499304771423e-02
-2.741993367671966553e-01
-7.099948823451995850e-02
-1.442083269357681274e-01
2.218555361032485962e-01
-5.142459869384765625e-01
4.184565842151641846e-01
-1.928273886442184448e-01
-3.211959004402160645e-01
-3.135967254638671875e-01
4.751438498497009277e-01
-2.051156610250473022e-01
-5.582084879279136658e-02
2.058402001857757568e-01
-9.416486322879791260e-02
-6.606784462928771973e-01
1.475710868835449219e-01
-4.026550799608230591e-02
-3.044402003288269043e-01
-3.114217817783355713e-01
-4.198224842548370361e-01
1.347759664058685303e-01
-4.244945347309112549e-01
3.360805287957191467e-02
-7.553943246603012085e-02
-3.122047185897827148e-01
-4.588081240653991699e-01
-8.987833559513092041e-02
-2.111239358782768250e-02
1.005974337458610535e-01
-1.296211630105972290e-01
6.431465595960617065e-02
-5.660444498062133789e-01
3.139524534344673157e-02
-2.941175997257232666e-01
1.972363591194152832e-01
-1.699791699647903442e-01
-1.118715330958366394e-01
3.886435925960540771e-01
2.051201183348894119e-03
