7.793104648590087891e-02
-2.658262662589550018e-02
1.433157622814178467e-01
1.918249726295471191e-01
4.605091363191604614e-02
-1.420141905546188354e-01
2.229565083980560303e-01
-1.451769918203353882e-01
9.503162652254104614e-02
-2.858618795871734619e-01
-9.992261230945587158e-02
-2.146404087543487549e-01
-3.410149738192558289e-02
9.568221867084503174e-02
-1.365556195378303528e-02
-1.174477189779281616e-01
-1.039668768644332886e-01
1.647148281335830688e-01
-1.326158642768859863e-01
-1.966531276702880859e-01
-1.377871334552764893e-01
1.062950119376182556e-01
1.550280004739761353e-01
-1.312346309423446655e-01
-1.687219142913818359e-01
-1.594754606485366821e-01
-7.764396071434020996e-02
1.569031924009323120e-01
-1.599880009889602661e-01
1.309827864170074463e-01
-4.902283847332000732e-02
-1.840101480484008789e-01
-7.861366868019104004e-02
-8.356155827641487122e-03
-2.656024098396301270e-01
-1.008331850171089172e-01
-2.231340557336807251e-01
-2.015904709696769714e-02
-2.313199788331985474e-01
2.056019566953182220e-02
-1.316313594579696655e-01
-1.588852554559707642e-01
-2.320866882801055908e-01
-1.725315898656845093e-01
5.424011126160621643e-02
1.257985979318618774e-01
-1.154604330658912659e-01
1.885362416505813599e-01
2.603871822357177734e-01
-1.564911901950836182e-01
-2.992289662361145020e-01
-1.245431751012802124e-01
-1.499457806348800659e-01
-2.339986115694046021e-01
1.027596369385719299e-01
-1.254563331604003906e-01
-1.390015184879302979e-01
1.260366570204496384e-02
-2.861350178718566895e-01
-1.658025979995727539e-01
8.715810626745223999e-02
-1.390833556652069092e-01
4.055936336517333984e-01
-2.319711446762084961e-02
-3.486467152833938599e-02
-1.929736882448196411e-01
3.872773051261901855e-02
9.537663310766220093e-02
-1.424197256565093994e-01
-7.056339830160140991e-02
1.398894190788269043e-01
1.747331023216247559e-01
-8.850759267807006836e-02
-5.433240439742803574e-03
6.124431639909744263e-02
1.287529766559600830e-01
-1.308587342500686646e-01
-3.057483136653900146e-01
1.329842954874038696e-01
3.008450195193290710e-02
1.657800376415252686e-01
3.224797546863555908e-02
1.159349083900451660e-01
2.912366390228271484e-02
2.197352237999439240e-02
2.160790115594863892e-01
3.325002640485763550e-02
-3.893917426466941833e-02
1.107442304491996765e-01
-2.597006559371948242e-01
1.903078109025955200e-01
2.409884929656982422e-01
-2.064745277166366577e-01
-9.528678655624389648e-02
1.207767650485038757e-01
2.242595255374908447e-01
-5.034452676773071289e-02
-2.666986919939517975e-02
-1.501571089029312134e-01
4.608170688152313232e-02
1.837386488914489746e-01
1.108831465244293213e-01
-1.144301071763038635e-01
-1.602020114660263062e-01
-3.258785232901573181e-02
-2.442212104797363281e-01
-1.161454021930694580e-01
-2.621382176876068115e-01
2.179469913244247437e-01
-2.822162210941314697e-01
-1.995590627193450928e-01
2.721707150340080261e-02
-1.218978166580200195e-01
-6.645487993955612183e-02
-1.055274009704589844e-01
-1.604327410459518433e-01
-1.604595035314559937e-01
-1.888677775859832764e-01
6.644397974014282227e-02
4.971263557672500610e-02
-2.612343430519104004e-01
1.774220913648605347e-01
-1.885048002004623413e-01
-2.492783516645431519e-01
4.558312147855758667e-02
-2.168337116017937660e-03
-1.965586841106414795e-01
1.819089651107788086e-01
2.180441170930862427e-01
1.687118597328662872e-02
-5.733130872249603271e-02
-1.576529294252395630e-01
2.137367241084575653e-02
-2.163753807544708252e-01
8.266854286193847656e-02
-1.444725841283798218e-01
2.592319995164871216e-02
-1.509701907634735107e-01
-1.039927601814270020e-01
-7.501387596130371094e-02
1.658653095364570618e-02
4.023461416363716125e-02
-1.829633712768554688e-01
1.272474080324172974e-01
-3.142041265964508057e-01
-1.182875856757164001e-01
-1.011701002717018127e-01
-1.617126762866973877e-01
5.440133810043334961e-02
1.642362400889396667e-02
2.201633751392364502e-01
2.154825627803802490e-02
1.724303513765335083e-01
-1.185034438967704773e-01
-2.413542419672012329e-01
2.667042240500450134e-02
3.941612085327506065e-04
1.170017383992671967e-02
-1.208647638559341431e-01
-9.156832098960876465e-02
2.626215219497680664e-01
-2.408829927444458008e-01
-1.655004769563674927e-01
-1.384783070534467697e-02
-2.541495263576507568e-01
-2.592123486101627350e-02
1.424643695354461670e-01
-1.699106097221374512e-01
1.714380085468292236e-01
1.159181818366050720e-02
1.790759563446044922e-01
1.832808256149291992e-01
-2.368287444114685059e-01
-2.560984790325164795e-01
-1.980404257774353027e-01
-1.399284577928483486e-03
-7.042224705219268799e-02
2.343946099281311035e-01
1.893678009510040283e-01
2.121991515159606934e-01
1.636652499437332153e-01
-1.008438020944595337e-01
-8.092335425317287445e-03
1.344059854745864868e-01
2.986735850572586060e-02
-5.003601685166358948e-02
1.713788658380508423e-01
2.929762899875640869e-01
-2.328172326087951660e-01
7.389187812805175781e-02
-1.210508495569229126e-01
-2.144131660461425781e-01
-1.517620831727981567e-01
-1.059715300798416138e-01
-7.374586164951324463e-02
1.982315629720687866e-01
1.360764354467391968e-01
1.550945788621902466e-01
4.324264079332351685e-02
2.463817447423934937e-01
-2.404309511184692383e-01
3.884176611900329590e-01
-3.333490490913391113e-01
4.453662782907485962e-02
6.384906172752380371e-01
3.250416740775108337e-02
-1.171334236860275269e-01
3.271064162254333496e-01
3.199686408042907715e-01
4.525270313024520874e-02
6.396050006151199341e-02
-2.771440148353576660e-02
1.400181651115417480e-02
-3.955935686826705933e-02
1.807935237884521484e-01
3.029361665248870850e-01
-2.849258184432983398e-01
-1.022179871797561646e-01
2.214635312557220459e-01
-5.399898290634155273e-01
2.349127084016799927e-01
3.908521309494972229e-02
3.216412067413330078e-01
-4.624700918793678284e-02
2.694313228130340576e-01
1.109557971358299255e-01
-1.974129676818847656e-01
-1.311662644147872925e-01
-2.993798442184925079e-02
3.425472229719161987e-02
-1.489730626344680786e-01
-2.963566035032272339e-02
8.439487963914871216e-02
2.021696120500564575e-01
-1.445627510547637939e-01
-2.699884958565235138e-02
6.328327953815460205e-02
7.103054225444793701e-02
2.283928245306015015e-01
2.571310698986053467e-01
-2.500855922698974609e-01
-2.786213755607604980e-01
-8.140786737203598022e-02
-7.940667122602462769e-02
1.881774812936782837e-01
-5.763621255755424500e-02
-1.014293432235717773e-01
-5.334195122122764587e-02
-2.370595186948776245e-01
5.149620398879051208e-02
-1.856959164142608643e-01
-2.415987104177474976e-01
2.911908924579620361e-01
1.323872655630111694e-01
-4.595530778169631958e-02
-3.395023345947265625e-01
-6.770657002925872803e-02
-8.311345428228378296e-02
5.889163911342620850e-02
-5.461295321583747864e-02
-1.704867631196975708e-01
4.716584458947181702e-02
-1.054169610142707825e-01
-1.988023817539215088e-01
-3.988112509250640869e-02
-1.269740611314773560e-01
-7.418908178806304932e-02
2.188478112220764160e-01
-1.870165765285491943e-01
1.295948177576065063e-01
2.564989328384399414e-01
-6.387419253587722778e-02
-1.645254492759704590e-01
1.048575490713119507e-01
-6.239228323101997375e-02
2.892095148563385010e-01
-1.908873915672302246e-01
3.199758008122444153e-02
-1.614293307065963745e-01
-2.166711986064910889e-01
2.217574119567871094e-01
-1.180971190333366394e-01
9.696897864341735840e-02
-6.495920568704605103e-02
-6.384404003620147705e-02
2.234294414520263672e-01
-1.611261367797851562e-01
-5.374743044376373291e-02
-1.865309774875640869e-01
1.401926726102828979e-01
1.030487567186355591e-02
2.137798219919204712e-01
2.021623104810714722e-01
1.807771623134613037e-01
-1.785685569047927856e-01
-4.359512403607368469e-02
-2.719700336456298828e-01
-1.121717318892478943e-01
-2.193270325660705566e-01
-5.836740508675575256e-02
1.138573512434959412e-01
1.679923236370086670e-01
3.313406184315681458e-02
4.245813935995101929e-03
1.154541820287704468e-01
-1.948532164096832275e-01
1.574249267578125000e-01
-6.631571799516677856e-02
-6.817054003477096558e-02
-2.935183942317962646e-01
1.866532564163208008e-01
3.012131750583648682e-01
-1.647769510746002197e-01
7.491929084062576294e-02
6.699783354997634888e-02
-3.647798672318458557e-02
-2.076705694198608398e-01
3.519463166594505310e-02
-4.921444132924079895e-02
1.434920728206634521e-01
-4.970572143793106079e-02
9.670832008123397827e-02
1.588183939456939697e-01
-2.512913346290588379e-01
-7.082395255565643311e-02
-1.173833981156349182e-01
-1.043733954429626465e-01
-5.306947827339172363e-01
1.166955977678298950e-01
6.932976841926574707e-02
-3.383563756942749023e-01
1.639409810304641724e-01
9.665487706661224365e-02
-1.288511902093887329e-01
-2.849261462688446045e-01
-1.342769861221313477e-01
2.040748298168182373e-01
-5.243472382426261902e-02
-1.012442633509635925e-01
1.828885078430175781e-02
1.753443926572799683e-01
-2.424692511558532715e-01
-2.721379399299621582e-01
1.650072447955608368e-02
-8.458577096462249756e-03
-1.084873676300048828e-01
1.508763432502746582e-01
-8.930306136608123779e-02
6.727781891822814941e-02
2.074492573738098145e-01
-1.539486460387706757e-03
-4.429187625646591187e-02
-2.456005513668060303e-01
-1.560396552085876465e-01
1.874004155397415161e-01
-3.027515299618244171e-02
-2.501209378242492676e-01
-1.724235117435455322e-01
1.028559431433677673e-01
-8.517400920391082764e-02
-8.019609749317169189e-02
-9.849052131175994873e-02
2.249529510736465454e-01
-3.572453977540135384e-03
2.137725241482257843e-02
2.442515045404434204e-01
-1.521828770637512207e-01
1.030970290303230286e-01
1.561360061168670654e-01
3.278906270861625671e-02
-1.946929693222045898e-01
-2.001769607886672020e-03
2.753179892897605896e-02
1.991107128560543060e-03
3.506361320614814758e-02
7.724951207637786865e-02
-1.616921126842498779e-01
-1.914003789424896240e-01
-1.554414182901382446e-01
-2.696231380105018616e-02
5.611064657568931580e-02
8.385728299617767334e-02
-1.345013082027435303e-01
-2.335491478443145752e-01
-3.012628555297851562e-01
-1.792185306549072266e-01
3.776772692799568176e-02
2.811154425144195557e-01
2.519043684005737305e-01
2.302672564983367920e-01
9.621296077966690063e-02
-1.658443957567214966e-01
2.232721894979476929e-01
-2.804512977600097656e-01
-1.582603007555007935e-01
5.308442190289497375e-02
2.300822436809539795e-01
9.680145233869552612e-02
-6.483771651983261108e-02
1.175344437360763550e-01
-1.771862618625164032e-02
9.707875549793243408e-02
-2.554009854793548584e-01
2.408904433250427246e-01
5.886050313711166382e-02
-2.156007103621959686e-02
-9.394286200404167175e-03
2.590057440102100372e-03
-1.837687343358993530e-01
2.107576876878738403e-01
2.237592637538909912e-01
2.946318872272968292e-02
1.719450503587722778e-01
2.779869139194488525e-01
2.134548723697662354e-01
7.830719649791717529e-02
1.390730887651443481e-01
3.556669503450393677e-02
-1.752422451972961426e-01
-2.701562941074371338e-01
-1.230984330177307129e-01
-6.619782745838165283e-02
-1.243436709046363831e-01
8.490690588951110840e-02
9.289003908634185791e-02
1.123394742608070374e-01
3.222945705056190491e-02
-2.455569356679916382e-01
-1.309366822242736816e-01
1.512884646654129028e-01
-4.546468332409858704e-02
-2.070380449295043945e-01
1.120164021849632263e-01
-1.197965666651725769e-01
1.318136230111122131e-02
1.608992181718349457e-02
7.913569360971450806e-02
2.078201808035373688e-02
1.808665990829467773e-01
-1.399468779563903809e-01
1.915778815746307373e-01
-1.697145700454711914e-01
1.302410215139389038e-01
-3.680292144417762756e-02
1.205002516508102417e-01
-1.742563247680664062e-01
4.113149642944335938e-02
-1.641788184642791748e-01
1.132630975916981697e-03
-2.825106084346771240e-01
-2.120769023895263672e-01
-4.008293896913528442e-02
-8.311931788921356201e-02
-2.315429002046585083e-01
2.541871070861816406e-01
-1.735443472862243652e-01
-2.824530191719532013e-02
8.440414071083068848e-02
9.964783489704132080e-02
1.067392006516456604e-01
3.067125380039215088e-01
-2.756020613014698029e-02
1.177196726202964783e-01
-7.462302595376968384e-02
9.289526939392089844e-02
-4.734364897012710571e-02
7.015489786863327026e-02
7.312554866075515747e-02
-3.226093947887420654e-03
1.200304850935935974e-01
9.127901494503021240e-02
2.490080296993255615e-01
-1.490014139562845230e-02
2.042100280523300171e-01
-1.604129225015640259e-01
-2.253777533769607544e-01
-1.808202713727951050e-01
6.151970941573381424e-03
8.071187138557434082e-02
3.806690499186515808e-02
2.491721808910369873e-01
2.376031577587127686e-01
-2.966990768909454346e-01
7.049895077943801880e-02
-2.176701277494430542e-01
1.287596970796585083e-01
-9.482891112565994263e-02
1.435491293668746948e-01
-1.979522258043289185e-01
1.050275634042918682e-03
5.967541411519050598e-02
-1.309446543455123901e-01
1.712865754961967468e-02
5.056898575276136398e-03
-1.481744349002838135e-01
1.490920335054397583e-01
-1.248527392745018005e-01
-2.385578155517578125e-01
-5.426484858617186546e-04
1.129246354103088379e-01
2.205078303813934326e-01
9.894643723964691162e-02
3.702882304787635803e-02
3.431059047579765320e-02
2.378029674291610718e-01
-1.716535836458206177e-01
-1.191978901624679565e-01
5.782903730869293213e-02
2.119725495576858521e-01
9.243803471326828003e-02
-6.547544896602630615e-02
5.956596694886684418e-03
3.528023138642311096e-02
5.702595412731170654e-02
1.433143317699432373e-01
-1.888891160488128662e-01
-7.412376254796981812e-02
-1.763427704572677612e-01
-2.138473689556121826e-01
-4.678883124142885208e-04
1.999831050634384155e-01
-3.826368227601051331e-02
-4.210952669382095337e-02
1.794631779193878174e-01
1.687447726726531982e-01
-2.104542851448059082e-01
1.911140680313110352e-01
-1.947789341211318970e-01
3.313498198986053467e-02
-1.082320231944322586e-02
-1.199882328510284424e-01
-7.653520256280899048e-02
1.175096333026885986e-01
1.019592583179473877e-01
-1.749795824289321899e-01
-2.868130207061767578e-01
1.681078225374221802e-01
3.598174452781677246e-01
2.659342885017395020e-01
8.590490370988845825e-02
1.509590893983840942e-01
-1.164733469486236572e-01
1.354177147150039673e-01
-6.953413784503936768e-02
-1.195639595389366150e-01
-1.838644146919250488e-01
2.871318459510803223e-01
-1.031154245138168335e-01
9.459787048399448395e-03
-2.292762845754623413e-01
2.306659817695617676e-01
-1.232748702168464661e-01
-1.508281528949737549e-01
1.940720230340957642e-01
-8.958959579467773438e-02
-1.722946614027023315e-01
-9.955573081970214844e-02
1.518928110599517822e-01
-8.411888778209686279e-02
-9.645666927099227905e-02
1.630917489528656006e-01
-1.496616750955581665e-02
-1.089605037122964859e-02
1.390565782785415649e-01
-2.902734577655792236e-01
-1.945894658565521240e-01
-1.404182016849517822e-01
-2.568563222885131836e-01
-1.576822698116302490e-01
-1.590503603219985962e-01
-1.121799498796463013e-01
-9.127900004386901855e-02
-3.016844391822814941e-02
2.207101732492446899e-01
2.141160368919372559e-01
-2.177444845438003540e-02
1.931354999542236328e-01
-1.156240478157997131e-01
1.369893848896026611e-01
6.198692321777343750e-02
-2.211242765188217163e-01
-5.046170949935913086e-02
-2.344209700822830200e-01
1.212195158004760742e-01
1.075598038733005524e-02
-1.851703971624374390e-02
-3.039750456809997559e-02
1.741526126861572266e-01
-5.622201785445213318e-02
8.963949978351593018e-03
1.974629163742065430e-01
-1.671651601791381836e-01
-1.737801581621170044e-01
1.377990096807479858e-01
-1.815728396177291870e-01
6.043822318315505981e-02
-1.713527888059616089e-01
-1.742551773786544800e-01
2.298746816813945770e-02
7.162876427173614502e-02
1.235184296965599060e-01
7.869332283735275269e-02
8.745941519737243652e-02
-7.651807367801666260e-02
1.594368815422058105e-01
-1.806751787662506104e-01
2.225022166967391968e-01
-2.476027905941009521e-01
2.093930691480636597e-01
-7.640200201421976089e-04
1.906781345605850220e-01
-1.169358864426612854e-01
9.415130317211151123e-02
2.356562763452529907e-02
-1.634542196989059448e-01
-1.590482741594314575e-01
-2.451172620058059692e-01
-2.715100646018981934e-01
-3.343477547168731689e-01
1.573940962553024292e-01
-2.538513243198394775e-01
-3.500716760754585266e-02
-1.966484040021896362e-01
2.693283855915069580e-01
-1.895190030336380005e-01
1.125516183674335480e-02
1.842298656702041626e-01
-5.332220196723937988e-01
-4.579806327819824219e-02
-5.075990781188011169e-02
-1.661116331815719604e-01
1.443717777729034424e-01
2.834114246070384979e-02
5.884137749671936035e-02
-1.617828197777271271e-02
2.065334916114807129e-01
-1.447982154786586761e-02
1.749931722879409790e-01
-8.182290196418762207e-02
2.284301370382308960e-01
1.892765760421752930e-01
-3.695213198661804199e-01
7.055222243070602417e-02
-2.630103193223476410e-02
-2.445978373289108276e-01
-1.687391847372055054e-01
1.765655130147933960e-01
1.870415955781936646e-01
8.930855430662631989e-03
2.196939736604690552e-01
-1.968409679830074310e-02
-2.313057631254196167e-01
1.032646670937538147e-01
1.244464144110679626e-01
-1.290240734815597534e-01
-3.605634719133377075e-02
1.030387133359909058e-01
-3.327146768569946289e-01
-1.528416872024536133e-01
-1.319367289543151855e-01
-1.640128493309020996e-01
1.035397872328758240e-01
1.127016544342041016e-01
-1.657399535179138184e-02
1.659539192914962769e-01
2.154392898082733154e-01
-7.788790762424468994e-02
-1.565506309270858765e-01
-3.154011443257331848e-02
1.026093140244483948e-01
-5.691820383071899414e-02
-2.824892103672027588e-01
1.725567877292633057e-01
1.260137856006622314e-01
1.293625980615615845e-01
2.566736936569213867e-01
1.911994628608226776e-02
1.116663962602615356e-01
1.265636235475540161e-01
-1.636501550674438477e-01
-7.826725393533706665e-02
1.303569376468658447e-01
-9.879779070615768433e-02
2.065250426530838013e-01
-2.562497556209564209e-01
-1.744938492774963379e-01
-1.453349143266677856e-01
-1.638437062501907349e-01
2.451533675193786621e-01
-2.037372589111328125e-01
1.124310344457626343e-01
-9.928666055202484131e-02
-1.547004282474517822e-01
-6.513946503400802612e-02
-2.149849832057952881e-01
1.915391534566879272e-01
8.735092729330062866e-02
7.769207656383514404e-02
-1.965687721967697144e-01
-2.447675615549087524e-01
-1.859721988439559937e-01
-2.215510010719299316e-01
2.450775168836116791e-02
2.572821676731109619e-01
-1.481949836015701294e-01
-5.661591514945030212e-02
1.565980762243270874e-01
-3.073509335517883301e-01
-9.839785285294055939e-03
5.177214369177818298e-02
1.882587671279907227e-01
1.325791478157043457e-01
-4.415246546268463135e-01
-7.051905244588851929e-02
1.065627783536911011e-01
6.264822930097579956e-02
-1.235629338771104813e-02
-2.031195610761642456e-01
-2.135403687134385109e-03
2.972627282142639160e-01
2.766742110252380371e-01
-7.105565071105957031e-02
-1.757424026727676392e-01
-1.164991632103919983e-01
2.467574626207351685e-01
9.728376567363739014e-02
-3.209166228771209717e-02
-2.997596859931945801e-01
2.191523164510726929e-01
2.477531321346759796e-02
-1.733856052160263062e-01
-7.333505898714065552e-02
-1.160928979516029358e-01
1.343354135751724243e-01
-1.465546935796737671e-01
1.828311830759048462e-01
-1.881090551614761353e-01
1.199724748730659485e-01
2.712405323982238770e-01
-1.438181698322296143e-01
6.080148369073867798e-02
2.114880681037902832e-01
-2.824960649013519287e-01
-2.639001011848449707e-01
1.467312276363372803e-01
-3.677700459957122803e-02
4.447652399539947510e-02
-1.408637464046478271e-01
-2.832095623016357422e-01
-1.970821321010589600e-01
-4.539047181606292725e-02
2.979367971420288086e-01
-5.304751917719841003e-02
2.676356583833694458e-02
2.570512294769287109e-01
9.481009840965270996e-02
7.858528941869735718e-02
-2.847326099872589111e-01
-2.510223686695098877e-01
-7.328552752733230591e-02
8.675156533718109131e-02
-2.628930807113647461e-01
1.239947602152824402e-01
1.529511157423257828e-02
-6.913139671087265015e-02
-1.938356757164001465e-01
1.881944574415683746e-02
-6.420660763978958130e-02
2.586076557636260986e-01
1.722343824803829193e-02
-2.524414360523223877e-01
-5.086339544504880905e-03
-3.735241293907165527e-02
-1.346094310283660889e-01
-4.286325722932815552e-02
-1.501771956682205200e-01
-1.233503296971321106e-01
2.394776940345764160e-01
2.082110494375228882e-01
-2.076069563627243042e-01
-2.753374353051185608e-02
-5.025916919112205505e-02
1.516845971345901489e-01
1.890852302312850952e-01
7.239387929439544678e-02
-2.209615111351013184e-01
7.897158502601087093e-04
7.229271531105041504e-02
1.603566706180572510e-01
2.190691828727722168e-01
-1.405656151473522186e-02
-1.956570446491241455e-01
-1.343115512281656265e-02
2.669731080532073975e-01
3.580125048756599426e-02
2.481881529092788696e-01
-1.487067788839340210e-01
2.300843149423599243e-01
-8.911392837762832642e-02
5.546508729457855225e-02
1.408211141824722290e-01
1.363952010869979858e-01
-2.672637999057769775e-01
-4.128896817564964294e-02
-1.700024306774139404e-01
4.292399436235427856e-02
2.911846898496150970e-02
-2.388045489788055420e-01
4.739002883434295654e-02
1.264605522155761719e-01
2.555440366268157959e-01
-1.183095648884773254e-01
-1.074016690254211426e-01
-2.132133692502975464e-01
-8.871711045503616333e-02
6.240221858024597168e-02
2.941804230213165283e-01
1.395042389631271362e-01
1.758806407451629639e-01
1.514821499586105347e-01
2.352529466152191162e-01
1.204943880438804626e-01
2.489909976720809937e-01
5.904535576701164246e-02
9.377548098564147949e-02
2.569432556629180908e-02
-6.768174469470977783e-02
2.041421830654144287e-01
1.245062425732612610e-01
1.915515810251235962e-01
-7.453338801860809326e-02
-2.795734405517578125e-01
1.337814480066299438e-01
1.960805505514144897e-01
7.397678494453430176e-02
-2.270623296499252319e-01
2.120443731546401978e-01
2.527812123298645020e-01
-7.185387611389160156e-02
-3.113010823726654053e-01
-1.108377426862716675e-01
8.983178995549678802e-03
-5.574722588062286377e-02
-1.094923391938209534e-01
-9.964825958013534546e-02
-8.564477413892745972e-02
2.902808133512735367e-03
1.218088939785957336e-01
2.510119080543518066e-01
1.273674238473176956e-02
2.429464906454086304e-01
2.540080249309539795e-01
-3.170757293701171875e-01
-1.274050772190093994e-01
-1.563226580619812012e-01
2.419209852814674377e-02
3.618159145116806030e-02
2.233772128820419312e-01
-2.369739413261413574e-01
1.249282583594322205e-01
-2.567932903766632080e-01
1.604935377836227417e-01
-1.724561005830764771e-01
-1.594129353761672974e-01
3.407461568713188171e-03
1.541399359703063965e-01
3.148506581783294678e-02
-2.798955738544464111e-01
2.262629568576812744e-01
1.432239562273025513e-01
-2.467741519212722778e-01
-2.253437489271163940e-01
-1.099150031805038452e-01
2.687910795211791992e-01
2.432259619235992432e-01
8.903989195823669434e-02
2.324975579977035522e-01
-6.560128182172775269e-02
1.402594596147537231e-01
2.488682977855205536e-03
-1.774793118238449097e-01
-8.478438109159469604e-02
-2.334899902343750000e-01
7.514431327581405640e-02
-1.907221525907516479e-01
-1.330960988998413086e-01
-1.101139187812805176e-01
-1.403980143368244171e-02
1.172394901514053345e-01
1.738307625055313110e-01
-9.315596520900726318e-02
1.496049761772155762e-01
2.536580860614776611e-01
-1.655697226524353027e-01
5.905744060873985291e-02
2.897254005074501038e-02
-1.069908887147903442e-01
-2.525432035326957703e-02
3.097510710358619690e-02
2.345282137393951416e-01
1.996608637273311615e-02
-7.191707938909530640e-02
-1.200605332851409912e-01
4.671902954578399658e-02
1.657278463244438171e-02
-6.655165553092956543e-02
2.876809835433959961e-01
-1.845531165599822998e-01
-8.025997877120971680e-02
6.458052247762680054e-02
3.758592158555984497e-02
6.820575147867202759e-02
1.569212824106216431e-01
-1.510210484266281128e-01
-1.576047390699386597e-01
2.271326631307601929e-01
1.943938732147216797e-01
-2.502610385417938232e-01
2.078457772731781006e-01
3.349676728248596191e-02
2.262776643037796021e-01
3.668601810932159424e-01
-1.223517060279846191e-01
1.043357420712709427e-03
1.772751212120056152e-01
1.574192047119140625e-01
6.772729009389877319e-02
9.548486769199371338e-02
-2.516154944896697998e-01
1.330030709505081177e-01
2.788709290325641632e-02
8.836123347282409668e-02
1.002174168825149536e-01
1.039972379803657532e-01
8.008741587400436401e-02
1.746130883693695068e-01
-2.643362879753112793e-01
-1.027169544249773026e-02
-1.530543416738510132e-01
7.072210311889648438e-02
5.913247168064117432e-02
2.437048256397247314e-01
1.012933924794197083e-01
-1.393387168645858765e-01
9.583185613155364990e-02
1.251647770404815674e-01
-3.433455228805541992e-01
1.344371587038040161e-01
3.291631489992141724e-02
2.244196236133575439e-01
-1.745737046003341675e-01
-9.253931045532226562e-02
2.615250647068023682e-01
-2.498366236686706543e-01
4.345403984189033508e-02
1.505382955074310303e-01
2.708553671836853027e-01
1.406134516000747681e-01
-2.768688201904296875e-01
-2.469346225261688232e-01
-2.599031329154968262e-01
-2.172632813453674316e-01
-3.264461830258369446e-02
-1.076523289084434509e-01
-1.595790386199951172e-01
1.038194745779037476e-01
1.751605719327926636e-01
1.891322135925292969e-01
-7.746755331754684448e-02
-1.334582865238189697e-01
-2.359045892953872681e-01
1.407176107168197632e-01
-1.570466011762619019e-01
2.031646966934204102e-01
1.821631789207458496e-01
2.890819013118743896e-01
6.845854967832565308e-02
-4.384446144104003906e-02
2.824010550975799561e-01
-1.370576620101928711e-01
5.023232102394104004e-02
1.294779242016375065e-03
7.594396919012069702e-02
-1.445211470127105713e-01
9.821135550737380981e-02
7.947741448879241943e-02
9.209852665662765503e-02
-1.718415319919586182e-02
1.486449241638183594e-01
-3.066441416740417480e-01
-1.794010549783706665e-01
1.701254397630691528e-01
-3.483197093009948730e-02
-1.293951570987701416e-01
2.464249432086944580e-01
-1.589509844779968262e-01
3.226373717188835144e-02
1.098604574799537659e-01
2.015962451696395874e-01
1.047450825572013855e-01
2.488145232200622559e-01
9.299720823764801025e-02
-1.989646404981613159e-01
-1.365033537149429321e-01
7.876559346914291382e-02
-8.209993690252304077e-02
1.291437000036239624e-01
-9.304814040660858154e-02
-2.534727454185485840e-01
-1.430194475688040257e-03
6.643202900886535645e-02
-4.669712483882904053e-02
8.184317499399185181e-02
4.024586826562881470e-02
-2.516497373580932617e-01
-1.123650297522544861e-01
2.337788045406341553e-01
1.586279571056365967e-01
1.630856245756149292e-01
-1.315244138240814209e-01
-8.743627369403839111e-02
-1.376328915357589722e-01
-1.713040322065353394e-01
1.009065508842468262e-01
-4.821253940463066101e-02
2.510738968849182129e-01
1.691962778568267822e-01
-1.511679589748382568e-01
-2.456888258457183838e-01
-1.079133599996566772e-01
2.056014835834503174e-01
-2.489046305418014526e-01
1.405816152691841125e-02
-1.931732445955276489e-01
2.087155580520629883e-01
5.032726749777793884e-02
-7.046417891979217529e-02
2.123510539531707764e-01
2.569215893745422363e-01
-1.532142609357833862e-01
-1.619179248809814453e-01
2.508446276187896729e-01
-4.561054706573486328e-02
1.795549392700195312e-01
-1.192009374499320984e-01
-2.122257649898529053e-01
-1.438480708748102188e-02
-2.751872241497039795e-01
1.838254481554031372e-01
1.792636364698410034e-01
-2.598628699779510498e-01
2.668735384941101074e-01
1.750166863203048706e-01
2.394221276044845581e-01
2.435730099678039551e-01
1.886246800422668457e-01
-1.516571342945098877e-01
1.745717674493789673e-01
-2.172893434762954712e-01
-7.708083093166351318e-02
-1.845235973596572876e-01
2.525615096092224121e-01
3.031005859375000000e-01
5.636133253574371338e-02
1.429539620876312256e-01
-1.444037854671478271e-01
-4.907023534178733826e-02
-4.195034503936767578e-02
1.055967211723327637e-01
-3.323337808251380920e-02
2.816168707795441151e-04
2.337019741535186768e-01
1.336441040039062500e-01
3.305296413600444794e-04
4.999580606818199158e-02
-1.057688496075570583e-05
1.625159010291099548e-02
-2.171436790376901627e-03
-2.263390123844146729e-01
-1.290271524339914322e-02
-1.195151731371879578e-01
1.130723133683204651e-01
-2.424867302179336548e-01
-2.478998154401779175e-01
-1.147142723202705383e-01
-2.251229584217071533e-01
2.878487408161163330e-01
-6.720292568206787109e-02
6.231685355305671692e-02
1.017231121659278870e-01
1.370755881071090698e-01
6.665270309895277023e-03
-1.996556222438812256e-01
-1.832154095172882080e-01
-8.547174930572509766e-02
-1.803440898656845093e-01
1.479541659355163574e-01
-2.311735898256301880e-01
1.195678189396858215e-01
-7.067718356847763062e-02
2.310435026884078979e-01
-1.455581635236740112e-01
1.014604698866605759e-03
1.718920171260833740e-01
2.564234435558319092e-01
-1.370437592267990112e-01
-7.657913118600845337e-02
5.068548768758773804e-02
-2.547883391380310059e-01
9.353179484605789185e-03
-2.453873157501220703e-01
-5.184780806303024292e-02
-3.817840293049812317e-02
2.422943115234375000e-01
-1.660145223140716553e-01
8.102057129144668579e-02
2.397823520004749298e-02
-1.272347420454025269e-01
-2.050785869359970093e-01
2.319631427526473999e-01
2.446675896644592285e-01
-1.395082026720046997e-01
-1.847607642412185669e-01
-2.802804410457611084e-01
2.689071595668792725e-01
1.295567154884338379e-01
-2.199390679597854614e-01
-8.393289893865585327e-02
-1.733803190290927887e-02
-9.632824361324310303e-02
-1.988755464553833008e-01
-1.832940727472305298e-01
-1.775560379028320312e-01
1.454005539417266846e-01
5.612372769974172115e-04
-6.011877954006195068e-02
-2.208685129880905151e-01
-2.549256682395935059e-01
7.917465269565582275e-02
7.120814919471740723e-02
2.293938547372817993e-01
-1.318256855010986328e-01
-1.636053025722503662e-01
7.838305830955505371e-02
-1.818419992923736572e-01
1.791644692420959473e-01
-1.654849573969841003e-02
1.613000929355621338e-01
-1.672355681657791138e-01
5.333634093403816223e-02
1.508652698248624802e-02
2.465728223323822021e-01
-1.083644852042198181e-01
-1.584579646587371826e-01
-2.836700379848480225e-01
-1.932039707899093628e-01
1.601466536521911621e-01
-2.902295999228954315e-02
2.431998252868652344e-01
1.051882877945899963e-01
8.202122896909713745e-02
1.931749284267425537e-01
-1.864302158355712891e-02
6.763899326324462891e-02
5.705263838171958923e-02
-1.982040936127305031e-03
-1.236143931746482849e-01
2.553850598633289337e-02
-1.813182681798934937e-01
1.392290145158767700e-01
-7.666552066802978516e-02
8.634729310870170593e-03
8.567824959754943848e-02
1.860503703355789185e-01
2.613739967346191406e-01
-6.814990192651748657e-02
4.657847434282302856e-02
3.666677698493003845e-02
-3.307560831308364868e-02
2.254334092140197754e-01
1.462678760290145874e-01
-3.873013891279697418e-03
-3.283043205738067627e-02
2.155230343341827393e-01
-1.085807010531425476e-01
6.403898447751998901e-02
-1.083388831466436386e-02
5.453887581825256348e-01
3.592807427048683167e-02
6.369627267122268677e-02
-1.208948716521263123e-01
-1.981803327798843384e-01
2.585090398788452148e-01
-2.227200120687484741e-01
2.291588634252548218e-01
-1.645656377077102661e-01
2.130500823259353638e-01
-1.516295820474624634e-01
1.683724075555801392e-01
3.751708194613456726e-02
-1.715983301401138306e-01
1.610467731952667236e-01
1.619424521923065186e-01
-8.549046516418457031e-02
-3.296702727675437927e-02
-2.911857962608337402e-01
2.239557951688766479e-01
-2.414156645536422729e-01
-1.327871829271316528e-01
7.504545897245407104e-02
2.549537420272827148e-01
-7.946419715881347656e-02
1.139772310853004456e-01
-2.153512388467788696e-01
-1.694864779710769653e-01
4.743709787726402283e-02
-2.086292952299118042e-01
-8.694535493850708008e-02
-7.801321893930435181e-02
-1.737455874681472778e-01
1.338795721530914307e-01
2.433593273162841797e-01
1.124152541160583496e-01
-4.902969673275947571e-02
-1.440372765064239502e-01
-9.901244193315505981e-02
6.829678267240524292e-02
-8.986612409353256226e-02
1.590838879346847534e-01
-8.185389637947082520e-02
-5.911786481738090515e-02
-8.821457624435424805e-02
-8.223772794008255005e-02
-4.079052433371543884e-02
9.592626243829727173e-02
-1.943317055702209473e-01
2.033252418041229248e-01
-2.108532041311264038e-01
1.443156003952026367e-01
-5.996568873524665833e-02
3.092574886977672577e-02
-1.450323164463043213e-01
7.243105769157409668e-02
1.021717414259910583e-01
-2.017768621444702148e-01
-2.511905133724212646e-01
2.123608887195587158e-01
-2.599687278270721436e-01
2.801503837108612061e-01
1.257831752300262451e-01
