-3.029851242899894714e-03
-4.851275682449340820e-02
5.424080300144851208e-04
-7.568520307540893555e-02
1.059772074222564697e-01
-1.293746381998062134e-01
5.037758033722639084e-03
-4.637010395526885986e-02
-4.796838329639285803e-04
5.933741480112075806e-02
1.218264177441596985e-01
4.894212260842323303e-02
-1.169949248433113098e-01
-1.028274223208427429e-01
1.934039406478404999e-02
5.982903018593788147e-02
5.701874848455190659e-03
-1.135399118065834045e-01
-1.316283047199249268e-01
4.121826216578483582e-02
1.700929924845695496e-02
1.616107299923896790e-02
9.242545813322067261e-02
-9.739574790000915527e-02
-3.116111084818840027e-02
-1.195154860615730286e-01
1.334850788116455078e-01
4.261711612343788147e-02
-4.304689913988113403e-02
-7.941897958517074585e-02
3.751653805375099182e-02
-9.024254977703094482e-02
7.940393686294555664e-02
-7.927832752466201782e-02
8.582887053489685059e-02
-3.251282963901758194e-03
1.246129348874092102e-01
-1.130586396902799606e-02
-1.626315526664257050e-02
-2.563206851482391357e-02
-5.949410051107406616e-02
-2.605514787137508392e-02
6.709682196378707886e-02
6.907223910093307495e-02
9.063573181629180908e-02
1.185047328472137451e-01
-3.566870233044028282e-03
-4.291943460702896118e-02
-2.815121226012706757e-02
-4.735754430294036865e-02
-4.510127380490303040e-02
4.384985938668251038e-02
-1.061885524541139603e-02
4.507052525877952576e-02
-1.408570259809494019e-01
-3.233422758057713509e-03
4.338587168604135513e-03
-8.668181300163269043e-02
-7.247038185596466064e-02
6.600823998451232910e-02
1.046565473079681396e-01
-1.273080408573150635e-01
2.530285902321338654e-02
-3.111246228218078613e-02
-6.668400764465332031e-02
4.726289585232734680e-02
1.287251710891723633e-01
-8.761162310838699341e-02
-1.267729550600051880e-01
9.114530682563781738e-02
1.259570419788360596e-01
-9.585765749216079712e-02
-8.699508756399154663e-02
4.492107033729553223e-02
-2.679644152522087097e-02
-1.398879587650299072e-01
-7.029782980680465698e-02
-9.194133430719375610e-02
2.611260488629341125e-02
7.432972639799118042e-02
-1.980663090944290161e-02
2.071682363748550415e-02
-4.131355881690979004e-02
-9.968469291925430298e-02
6.197471171617507935e-02
1.067461147904396057e-01
4.568210616707801819e-02
1.015151292085647583e-01
-4.524104297161102295e-02
-6.130208075046539307e-02
1.315718740224838257e-01
4.445956647396087646e-02
4.447013512253761292e-02
6.379395723342895508e-02
-1.628823950886726379e-02
1.205996870994567871e-01
7.429864257574081421e-02
-5.804841592907905579e-02
9.789635241031646729e-02
1.114638000726699829e-01
-8.197289705276489258e-02
-1.428443342447280884e-01
1.304468512535095215e-01
-1.263986378908157349e-01
1.457137316465377808e-01
-8.989327400922775269e-02
4.091931506991386414e-02
1.800159364938735962e-02
1.021245941519737244e-01
6.282506883144378662e-02
7.257913053035736084e-02
-1.098939590156078339e-02
9.879530221223831177e-02
-1.165219172835350037e-01
-2.225721441209316254e-02
1.404624432325363159e-01
-4.407432302832603455e-02
5.749915726482868195e-03
9.008906781673431396e-02
-2.109338156878948212e-02
-8.530856668949127197e-02
1.408464759588241577e-01
-6.226250156760215759e-02
-1.050497740507125854e-01
2.430594898760318756e-02
4.935510084033012390e-02
5.712839215993881226e-02
-1.326506882905960083e-01
-1.205008774995803833e-01
4.103082045912742615e-02
1.442192047834396362e-01
-6.908988952636718750e-02
9.513632394373416901e-03
9.985502809286117554e-02
-1.163620129227638245e-02
-1.133579462766647339e-01
1.241504997014999390e-01
-9.373080730438232422e-02
1.197608411312103271e-01
-9.749605506658554077e-02
4.027726128697395325e-02
8.689962327480316162e-02
1.208523064851760864e-01
3.312743455171585083e-02
-4.815809801220893860e-02
8.854819089174270630e-02
1.441979259252548218e-01
4.080396890640258789e-02
7.085323333740234375e-02
9.310591220855712891e-02
6.471316516399383545e-02
-3.379329293966293335e-02
-1.150954142212867737e-01
1.853103190660476685e-01
1.365034375339746475e-02
-8.397041261196136475e-02
-4.708742722868919373e-02
-1.088929735124111176e-02
1.346127241849899292e-01
-7.050437852740287781e-03
-1.014001742005348206e-01
-1.788967102766036987e-01
-7.761633396148681641e-02
-1.237660720944404602e-01
-1.835719496011734009e-02
7.211369276046752930e-02
1.062285378575325012e-01
2.834200672805309296e-02
1.283947676420211792e-01
1.364443004131317139e-01
1.231018900871276855e-01
-1.369415223598480225e-01
1.052259802818298340e-01
1.258269995450973511e-01
1.098996549844741821e-01
7.361327856779098511e-02
-4.903163388371467590e-02
-1.481148302555084229e-01
-1.691207140684127808e-01
7.161810249090194702e-02
3.115524072200059891e-03
4.673189483582973480e-03
1.511169523000717163e-01
3.077947720885276794e-02
-3.457998158410191536e-03
