-3.087704442441463470e-02
-4.422881901264190674e-01
-3.717937320470809937e-02
8.578377962112426758e-02
-1.461501121520996094e-01
-2.278693392872810364e-02
6.389296799898147583e-02
-2.256314009428024292e-01
2.734758257865905762e-01
-2.010817825794219971e-02
-2.418519407510757446e-01
-2.096600383520126343e-01
-6.791245937347412109e-02
-3.063383400440216064e-01
-1.633379161357879639e-01
-2.044333145022392273e-02
3.497047424316406250e-01
-1.238212175667285919e-02
-1.069303527474403381e-01
-8.263289928436279297e-03
2.495286464691162109e-01
5.789856240153312683e-02
6.543957442045211792e-02
-3.614451736211776733e-02
4.322414100170135498e-01
-2.187232375144958496e-01
1.574737019836902618e-02
-4.884008169174194336e-01
6.241344963200390339e-04
2.076045274734497070e-01
-1.014071479439735413e-01
-1.553462296724319458e-01
1.702316254377365112e-01
-1.285622119903564453e-01
-1.561929434537887573e-01
4.317204281687736511e-02
1.515365485101938248e-02
-4.935405403375625610e-02
1.199102625250816345e-01
-3.425301238894462585e-02
1.604799330234527588e-01
-4.224151968955993652e-01
4.261989519000053406e-02
7.684477418661117554e-02
-4.938716813921928406e-02
2.317050658166408539e-02
1.420946270227432251e-01
-1.510426998138427734e-01
1.568439602851867676e-01
-4.364074394106864929e-02
7.232376188039779663e-02
-2.113587856292724609e-01
7.958087325096130371e-02
-4.237763211131095886e-02
2.080777585506439209e-01
1.917419433593750000e-01
4.243665374815464020e-03
-1.368187274783849716e-02
1.114284023642539978e-01
3.590011596679687500e-02
-3.450905978679656982e-01
-4.910745844244956970e-02
3.674330711364746094e-01
1.828121840953826904e-01
-1.272793412208557129e-01
3.198933303356170654e-01
-1.836313158273696899e-01
-1.875688731670379639e-01
-4.624931886792182922e-02
3.848353028297424316e-01
3.090301156044006348e-01
-2.065660664811730385e-03
2.588022649288177490e-01
-1.478618383407592773e-01
1.467366963624954224e-01
-4.475186467170715332e-01
2.406543940305709839e-01
-8.808921575546264648e-01
1.613891571760177612e-01
-1.450200080871582031e-01
-1.036289036273956299e-01
4.671895503997802734e-02
-7.332283258438110352e-02
-7.673389911651611328e-01
-1.236688345670700073e-02
-1.386463642120361328e-01
-1.277898345142602921e-02
1.841759383678436279e-01
-5.064800754189491272e-02
-1.008272692561149597e-01
-1.718457937240600586e-01
-1.561436802148818970e-01
1.414496749639511108e-01
2.260228693485260010e-01
-2.389109283685684204e-01
-2.019266486167907715e-01
-3.169937431812286377e-01
-1.630957424640655518e-01
3.342396914958953857e-01
1.877854317426681519e-01
-1.437405869364738464e-02
9.286390244960784912e-02
-1.070593893527984619e-01
-2.279067337512969971e-01
-1.717901676893234253e-01
2.972257696092128754e-02
7.857860624790191650e-02
-1.810630857944488525e-01
1.387010607868432999e-02
1.206668987870216370e-01
1.104675680398941040e-01
1.984801739454269409e-01
-2.286005765199661255e-01
-6.179150938987731934e-01
-1.658641546964645386e-01
2.116432785987854004e-01
-1.566059440374374390e-01
7.491435110569000244e-02
-1.678764373064041138e-01
3.361025080084800720e-02
6.009794026613235474e-02
-1.323838531970977783e-02
-2.896373160183429718e-02
2.255318760871887207e-01
-4.323950707912445068e-01
-2.508745789527893066e-01
7.226046174764633179e-02
5.985349416732788086e-02
1.411083620041608810e-03
6.614618748426437378e-02
3.199901282787322998e-01
-9.116793423891067505e-02
-2.909222841262817383e-01
-1.108779385685920715e-01
-2.601563036441802979e-01
1.507116556167602539e-01
1.436384394764900208e-02
1.081042140722274780e-01
-3.187237679958343506e-01
-7.712961733341217041e-02
-8.722054958343505859e-02
-8.364982903003692627e-02
2.768387794494628906e-01
-3.121136687695980072e-02
-1.986479312181472778e-01
-1.953766793012619019e-01
7.307346165180206299e-02
1.416325718164443970e-01
1.294966787099838257e-01
9.994148463010787964e-02
1.192651689052581787e-01
1.772044040262699127e-02
-1.938302218914031982e-01
3.182391822338104248e-01
6.650397926568984985e-02
7.546504586935043335e-02
8.486126363277435303e-02
5.172270908951759338e-02
1.520466804504394531e-01
1.763967424631118774e-01
-3.370863199234008789e-01
-1.100877821445465088e-01
-2.901004068553447723e-02
-4.415538907051086426e-02
1.643866300582885742e-01
-1.544803380966186523e-01
1.588893681764602661e-01
1.053357720375061035e-01
-1.309265345335006714e-01
-1.586342416703701019e-02
6.027742475271224976e-02
-2.347982227802276611e-01
7.305214554071426392e-02
-3.464138209819793701e-01
-3.521831333637237549e-01
3.538491129875183105e-01
1.580160409212112427e-01
-1.327738463878631592e-01
-2.718627080321311951e-02
-5.679535679519176483e-03
1.275597810745239258e-01
2.331500351428985596e-01
-1.859080791473388672e-01
-9.714314341545104980e-02
-2.762674391269683838e-01
-9.272897616028785706e-03
-3.655191278085112572e-03
3.034955859184265137e-01
-2.342467308044433594e-01
-8.931508660316467285e-01
8.742077648639678955e-02
1.261817663908004761e-01
1.054631993174552917e-01
3.122773766517639160e-02
-1.471085399389266968e-01
-1.611535400152206421e-01
-2.460479885339736938e-01
2.555261552333831787e-02
2.267378270626068115e-01
3.406870663166046143e-01
1.929476261138916016e-01
-1.102207452058792114e-01
2.688992917537689209e-01
-5.265786126255989075e-02
2.402289658784866333e-01
1.455655544996261597e-01
-1.225701272487640381e-01
1.675383150577545166e-01
3.473384976387023926e-01
-7.338958978652954102e-02
-1.534986309707164764e-03
-1.010776087641716003e-01
-2.854032255709171295e-02
-1.496120989322662354e-01
5.429478362202644348e-02
-8.363241702318191528e-02
-1.107624620199203491e-01
-1.190716922283172607e-01
2.932511828839778900e-02
2.532813847064971924e-01
1.117320209741592407e-01
1.518694013357162476e-01
-7.255531847476959229e-02
2.724940516054630280e-02
3.515458106994628906e-01
2.580860629677772522e-02
-1.783198714256286621e-01
-3.731223940849304199e-01
1.443625539541244507e-01
-1.702849753201007843e-03
-3.376274108886718750e-01
-4.042113572359085083e-02
1.443729642778635025e-02
-5.306240543723106384e-02
2.777133882045745850e-01
-1.696027442812919617e-02
1.362147182226181030e-01
-2.867905795574188232e-01
9.416722506284713745e-02
1.689056307077407837e-01
1.986639350652694702e-01
1.892484724521636963e-01
-1.343239843845367432e-01
2.488985806703567505e-01
-5.060918331146240234e-01
-2.944913804531097412e-01
1.647275537252426147e-01
1.497763842344284058e-01
-2.173979729413986206e-01
-5.436215996742248535e-01
3.986218571662902832e-01
1.293686330318450928e-01
-1.113161668181419373e-01
-8.311308920383453369e-03
-4.831016063690185547e-01
-8.152374066412448883e-03
1.668281257152557373e-01
-3.053163886070251465e-01
-3.278489410877227783e-01
2.925648093223571777e-01
1.297117173671722412e-01
-1.512882113456726074e-01
-8.675167709589004517e-02
-7.165421247482299805e-01
-2.805141173303127289e-02
4.092010855674743652e-02
1.201896890997886658e-01
8.885616809129714966e-02
1.149913221597671509e-01
3.467167913913726807e-02
-1.292779296636581421e-01
1.753621995449066162e-01
-1.166634261608123779e-01
1.803688555955886841e-01
-3.278501629829406738e-01
-2.740121781826019287e-01
-7.380987051874399185e-03
-1.521241515874862671e-01
-2.466281503438949585e-01
-2.187841534614562988e-01
1.186351105570793152e-01
-4.634451493620872498e-02
-2.577987313270568848e-01
-7.422665506601333618e-02
-5.310286208987236023e-02
2.161505967378616333e-01
8.118937909603118896e-02
3.894496709108352661e-02
-4.661168158054351807e-01
-2.902074754238128662e-01
1.719795614480972290e-01
5.834771692752838135e-02
-5.530388653278350830e-02
1.798058748245239258e-01
4.799705743789672852e-02
1.178894788026809692e-01
-2.735676169395446777e-01
1.492889076471328735e-01
1.166783943772315979e-01
-1.480941027402877808e-01
-1.172669902443885803e-01
-4.206703230738639832e-02
-1.168880537152290344e-01
1.750652492046356201e-01
-1.341742128133773804e-01
2.552496790885925293e-01
-2.163045853376388550e-01
-4.985431209206581116e-02
-2.270252257585525513e-01
-3.471762835979461670e-01
-8.409168571233749390e-02
-1.593883484601974487e-01
3.353225290775299072e-01
7.410234957933425903e-02
1.823067106306552887e-02
1.650957465171813965e-01
1.485187858343124390e-01
2.073240429162979126e-01
-1.234640181064605713e-01
-2.704179659485816956e-02
3.122657909989356995e-02
-2.573405206203460693e-01
2.419862197712063789e-03
-1.759336590766906738e-01
-6.369499117136001587e-02
4.763622954487800598e-02
1.361062526702880859e-01
-2.351417094469070435e-01
5.138240382075309753e-02
-6.787125952541828156e-03
-1.819309294223785400e-01
3.197151422500610352e-01
2.425685822963714600e-01
-2.217358201742172241e-01
9.065891057252883911e-02
-1.052394360303878784e-01
-2.919577956199645996e-01
4.020634666085243225e-02
2.196245342493057251e-01
-3.131521344184875488e-01
2.764235138893127441e-01
-7.357626687735319138e-03
-2.111538201570510864e-01
7.054441422224044800e-02
5.337677896022796631e-03
6.231711246073246002e-03
6.758160889148712158e-02
1.381099373102188110e-01
8.455928415060043335e-02
-1.922363764606416225e-03
-6.815214455127716064e-02
7.769288122653961182e-02
-1.091117039322853088e-01
4.789860919117927551e-02
1.719554513692855835e-01
-1.137251704931259155e-01
1.013854742050170898e-01
-3.810766711831092834e-02
4.529454186558723450e-02
8.274809271097183228e-02
-1.232407391071319580e-01
-2.093909084796905518e-01
4.020966291427612305e-01
-1.171037480235099792e-01
2.620117180049419403e-02
-8.185517787933349609e-02
-2.593453526496887207e-01
-5.367179587483406067e-02
9.756509214639663696e-02
5.183354020118713379e-02
-1.055837422609329224e-02
1.988792791962623596e-03
-1.828285306692123413e-01
1.428104192018508911e-01
-3.056294983252882957e-03
-1.778016686439514160e-01
-2.525332011282444000e-02
-3.145021200180053711e-01
-8.481697738170623779e-02
-1.030331999063491821e-01
-4.634148627519607544e-02
2.264470607042312622e-01
-2.172724902629852295e-01
-4.756963998079299927e-02
-1.956080831587314606e-02
-9.479491412639617920e-02
7.883397489786148071e-02
-3.027685582637786865e-01
1.019162982702255249e-01
-1.113634333014488220e-01
2.040756493806838989e-01
-4.959645867347717285e-02
-7.908225804567337036e-02
-7.776156533509492874e-03
-2.089087069034576416e-01
4.678906127810478210e-02
-1.433268096297979355e-02
8.165988256223499775e-04
-1.453294903039932251e-01
2.775902450084686279e-01
-1.225360706448554993e-01
-1.203241124749183655e-01
-2.112233787775039673e-01
2.053146064281463623e-02
4.512705653905868530e-02
-3.203696757555007935e-02
1.261949688196182251e-01
-3.089405968785285950e-02
-6.260679662227630615e-02
-7.274639606475830078e-02
3.062565997242927551e-02
6.434626132249832153e-02
-1.162780728191137314e-02
-2.128324285149574280e-02
-1.979189692065119743e-03
6.781623698770999908e-03
-9.702128358185291290e-03
-1.580587476491928101e-01
9.707212448120117188e-02
-2.331042289733886719e-02
9.961859881877899170e-02
-3.854658603668212891e-01
3.739245831966400146e-01
-1.234354823827743530e-01
-2.912100851535797119e-01
2.477596849203109741e-01
1.305000334978103638e-01
-1.110956147313117981e-01
-8.547373116016387939e-02
-2.151277214288711548e-01
1.615228652954101562e-01
1.274313926696777344e-01
2.080941498279571533e-01
2.266904860734939575e-01
6.258890777826309204e-02
1.068053171038627625e-01
1.607752889394760132e-01
3.026787936687469482e-01
-1.239932850003242493e-01
-1.589821577072143555e-01
2.054711282253265381e-01
2.458282709121704102e-01
-1.549993604421615601e-01
1.329301595687866211e-01
-1.446862518787384033e-01
2.236452698707580566e-01
-1.401119530200958252e-01
-1.354849780909717083e-03
-6.430100183933973312e-03
1.399323046207427979e-01
-1.323816180229187012e-01
-4.528132453560829163e-02
1.879395246505737305e-01
-4.772477224469184875e-02
2.008834779262542725e-01
-1.111092716455459595e-01
-2.028504312038421631e-01
5.628699064254760742e-02
-2.246063649654388428e-01
-2.514141499996185303e-01
2.650997042655944824e-01
8.278088271617889404e-02
1.257449015974998474e-02
-1.979434937238693237e-01
4.781891778111457825e-02
-1.730676442384719849e-01
-3.863560780882835388e-02
-3.642727434635162354e-02
1.671144813299179077e-01
-4.113155305385589600e-01
2.870610654354095459e-01
-1.722353100776672363e-01
2.183362543582916260e-01
2.146749496459960938e-01
-2.776539921760559082e-01
1.013912819325923920e-02
-7.490349411964416504e-01
-1.402109861373901367e-02
-2.882897555828094482e-01
2.209826111793518066e-01
-6.940912604331970215e-01
-3.143492937088012695e-01
1.032157167792320251e-01
-3.441932201385498047e-01
-3.800820559263229370e-02
-7.086290419101715088e-02
-2.187106385827064514e-02
-6.414071470499038696e-02
2.048154175281524658e-01
-3.332002088427543640e-02
1.733106747269630432e-02
-8.460392057895660400e-02
-1.420613378286361694e-01
-3.064876496791839600e-01
-2.954501509666442871e-01
2.469310462474822998e-01
-1.833796352148056030e-01
4.139874875545501709e-01
-7.205946445465087891e-01
-6.320756673812866211e-01
-3.008174598217010498e-01
4.181906580924987793e-02
-3.065153658390045166e-01
1.891968771815299988e-02
7.623654603958129883e-02
2.631481550633907318e-02
9.856827557086944580e-02
1.486334055662155151e-01
-3.441732227802276611e-01
1.267975121736526489e-01
8.938216418027877808e-02
-6.129767000675201416e-02
-1.358160525560379028e-01
2.285990118980407715e-01
4.344666376709938049e-02
5.076617375016212463e-02
-4.612649232149124146e-02
5.733132362365722656e-02
9.864202141761779785e-02
-1.463687885552644730e-02
3.072514198720455170e-02
1.859318017959594727e-01
2.999787628650665283e-01
1.623824052512645721e-02
-2.794737517833709717e-01
8.742028474807739258e-02
8.893470466136932373e-02
3.300272822380065918e-01
5.689115822315216064e-02
-3.244703114032745361e-01
6.269816309213638306e-02
-1.352937519550323486e-01
6.194576621055603027e-02
-2.064682990312576294e-01
1.375775486230850220e-01
2.617101967334747314e-01
-1.571498215198516846e-01
3.324496746063232422e-02
-1.557806581258773804e-01
-1.644629538059234619e-01
2.196388542652130127e-01
1.277665346860885620e-01
7.335785776376724243e-02
-2.240167697891592979e-03
1.044213473796844482e-01
-4.353621229529380798e-02
5.997935310006141663e-03
1.161140874028205872e-01
4.708050936460494995e-02
1.365213543176651001e-01
-8.756961673498153687e-03
2.019195556640625000e-01
7.535812258720397949e-02
1.585204452276229858e-01
8.414442092180252075e-02
4.698344692587852478e-02
-2.821073494851589203e-02
-1.534103602170944214e-01
2.811520099639892578e-01
-7.464677840471267700e-02
-2.393685430288314819e-01
3.623019903898239136e-02
4.107683897018432617e-02
-2.442501932382583618e-01
-4.574107006192207336e-02
2.203180454671382904e-02
3.221928775310516357e-01
-3.357685804367065430e-01
-2.506268322467803955e-01
2.834548950195312500e-01
5.435281619429588318e-02
-2.615846395492553711e-01
-1.325601190328598022e-01
-8.337142318487167358e-02
-1.635823547840118408e-01
-1.847722232341766357e-01
1.459289938211441040e-01
7.219879329204559326e-02
-1.126239076256752014e-02
2.488262951374053955e-01
9.367080032825469971e-02
2.811028063297271729e-01
-2.320950105786323547e-02
-5.783887952566146851e-02
1.353199481964111328e-01
-1.848714947700500488e-01
-3.221227526664733887e-01
-1.191020384430885315e-01
-2.598260343074798584e-01
-9.527838788926601410e-03
1.298155486583709717e-01
9.634868055582046509e-02
1.728667765855789185e-01
7.520034164190292358e-02
7.276557385921478271e-02
-3.952877596020698547e-03
-7.941908203065395355e-03
-3.610440790653228760e-01
6.690317299216985703e-03
1.655631363391876221e-01
4.322908818721771240e-01
9.543113410472869873e-02
4.488132297992706299e-01
-1.402883529663085938e-01
-3.043382763862609863e-01
-3.240103274583816528e-02
1.134152188897132874e-01
-2.172953039407730103e-01
-4.518797695636749268e-01
1.795459687709808350e-01
3.844958543777465820e-02
-1.473192423582077026e-01
-7.251217961311340332e-02
-1.229656785726547241e-01
-1.698885113000869751e-02
2.332194894552230835e-02
-1.623476445674896240e-01
1.815839484333992004e-02
-1.897793449461460114e-02
1.316825449466705322e-01
-8.698363602161407471e-02
-3.278557583689689636e-02
1.330991182476282120e-02
1.521396636962890625e-01
-4.873616695404052734e-01
-2.012527287006378174e-01
5.049899220466613770e-02
2.312852293252944946e-01
1.092942059040069580e-01
-5.285905301570892334e-02
8.680926635861396790e-03
2.976999059319496155e-02
-7.344037294387817383e-02
-6.220368742942810059e-01
1.442966759204864502e-01
-3.544985316693782806e-03
-2.282096743583679199e-01
4.029299691319465637e-02
-2.318367362022399902e-01
-2.083021998405456543e-01
-2.797738090157508850e-02
1.783615164458751678e-02
8.192764222621917725e-02
3.752186894416809082e-02
-2.865744754672050476e-02
-7.503877580165863037e-02
-1.314327120780944824e-01
-1.174411457031965256e-02
3.619979321956634521e-02
2.203409522771835327e-01
-2.547309994697570801e-01
3.867153078317642212e-02
-2.656894549727439880e-02
3.979970142245292664e-02
-1.030594259500503540e-01
-1.960505992174148560e-01
2.727720439434051514e-01
-2.506171762943267822e-01
-7.735234219580888748e-03
1.997432261705398560e-01
2.515532672405242920e-01
-2.055238187313079834e-01
-8.697158098220825195e-02
-2.366614490747451782e-01
2.117553502321243286e-01
-8.516095578670501709e-02
5.310686770826578140e-03
7.926000654697418213e-02
2.519179582595825195e-01
5.861221253871917725e-02
-2.425651103258132935e-01
2.125455588102340698e-01
-1.714870184659957886e-01
-2.052158117294311523e-01
-2.854518294334411621e-01
-6.404825448989868164e-01
4.601529240608215332e-02
-1.255797445774078369e-01
-8.564302325248718262e-02
-4.443646967411041260e-01
-2.475158125162124634e-02
1.401108056306838989e-01
-1.622346341609954834e-01
-2.740004956722259521e-01
-5.599221680313348770e-03
7.438287883996963501e-02
8.111432939767837524e-02
1.344047337770462036e-01
-3.121675848960876465e-01
-1.696520857512950897e-02
-6.580390036106109619e-02
3.965696319937705994e-02
-1.606474048458039761e-03
1.368699818849563599e-01
-3.133153915405273438e-01
4.352907836437225342e-02
-2.336506545543670654e-02
-2.688760757446289062e-01
1.095148175954818726e-01
-4.354740381240844727e-01
-2.145425081253051758e-01
3.655369207262992859e-02
-5.763882398605346680e-02
-5.427234992384910583e-02
-1.066795065999031067e-01
1.982741951942443848e-01
3.667894750833511353e-02
-2.216239869594573975e-01
-1.885866820812225342e-01
4.555124044418334961e-02
-3.813230395317077637e-01
-6.381478160619735718e-02
-3.395500481128692627e-01
-1.645170003175735474e-01
-3.017236590385437012e-01
4.113178700208663940e-02
-2.234029769897460938e-01
-3.164488822221755981e-02
-1.769859045743942261e-01
-3.372452408075332642e-02
-1.475680917501449585e-01
7.211011648178100586e-02
1.359111070632934570e-02
-4.343274049460887909e-03
-6.441491190344095230e-03
-3.162261843681335449e-01
7.952450215816497803e-02
-8.017282932996749878e-02
8.488783240318298340e-02
-3.973057493567466736e-02
-1.997029595077037811e-02
2.007378637790679932e-02
7.084631174802780151e-02
-4.627559781074523926e-01
-7.270914316177368164e-02
3.765128552913665771e-02
-7.744660228490829468e-02
-1.414151340723037720e-01
-1.190454512834548950e-02
2.295534908771514893e-01
3.248189389705657959e-02
-3.773234784603118896e-01
4.470348358154296875e-02
1.753534674644470215e-01
1.124017089605331421e-01
1.497795134782791138e-01
-2.874957323074340820e-01
1.836471632122993469e-02
1.664660274982452393e-01
1.920119225978851318e-01
1.696285754442214966e-01
-2.177089639008045197e-02
-1.022266373038291931e-01
1.530452747829258442e-03
-2.488595843315124512e-01
3.352785706520080566e-01
2.069458365440368652e-01
-1.050580386072397232e-02
-2.561394572257995605e-01
-3.821800947189331055e-01
1.266875863075256348e-01
-1.096134409308433533e-01
-4.488870874047279358e-02
-1.241648867726325989e-01
-1.186387464404106140e-01
-4.434870183467864990e-02
-2.178116291761398315e-01
3.702546060085296631e-01
3.410309255123138428e-01
-1.518939733505249023e-01
-2.034125775098800659e-01
-1.140782088041305542e-01
4.557787440717220306e-03
1.094836369156837463e-01
-1.607885062694549561e-01
9.816353768110275269e-02
-2.892495319247245789e-02
-1.500230282545089722e-01
-8.984584361314773560e-03
-9.881386533379554749e-03
7.823825627565383911e-02
3.027307689189910889e-01
-5.779079720377922058e-02
2.757155895233154297e-01
-1.273886114358901978e-01
-1.001069694757461548e-01
6.864459812641143799e-02
-1.140784661401994526e-04
-1.446334272623062134e-01
1.890773177146911621e-01
-1.797804608941078186e-03
6.486508846282958984e-01
-1.580848246812820435e-01
1.039972305297851562e-01
4.430177062749862671e-02
-1.137310042977333069e-01
-2.609391137957572937e-02
1.726363599300384521e-02
-2.738275229930877686e-01
2.150318920612335205e-01
-1.425795555114746094e-01
-4.007439315319061279e-01
-2.226900011301040649e-01
1.048594266176223755e-01
6.074568256735801697e-02
-1.048363000154495239e-01
-2.090900093317031860e-01
-2.294632792472839355e-01
-2.981593310832977295e-01
1.442311406135559082e-01
2.301101535558700562e-01
8.938429504632949829e-02
1.361906761303544044e-03
-3.391128182411193848e-01
-1.863092184066772461e-01
1.643073558807373047e-01
1.171286404132843018e-01
1.482855677604675293e-01
2.886467427015304565e-02
-5.342378281056880951e-03
-2.050398290157318115e-01
1.641793400049209595e-01
-3.646019101142883301e-01
3.670330047607421875e-01
7.156847417354583740e-02
2.244133055210113525e-01
1.776876747608184814e-01
-8.148711919784545898e-02
5.987306684255599976e-02
-6.573211401700973511e-02
2.868846058845520020e-02
-5.908761173486709595e-02
8.640737086534500122e-02
1.595419645309448242e-01
-5.757873132824897766e-02
-6.273835152387619019e-02
2.383680194616317749e-01
1.752500683069229126e-01
1.531027704477310181e-01
-2.611744403839111328e-01
-1.144380196928977966e-01
-9.207142144441604614e-02
-1.648539677262306213e-02
-9.255398809909820557e-02
-2.204306423664093018e-02
-2.556520700454711914e-01
3.522882238030433655e-02
-1.728678941726684570e-01
-3.276982530951499939e-02
-1.757602244615554810e-01
-1.705643534660339355e-01
-5.404458940029144287e-02
-3.312041461467742920e-01
1.459454596042633057e-01
-5.851389765739440918e-01
-5.472138058394193649e-03
-1.966113597154617310e-01
-2.061275392770767212e-01
-4.202615916728973389e-01
-7.507950812578201294e-02
3.806120902299880981e-02
1.472061872482299805e-01
1.088650226593017578e-01
-3.392448127269744873e-01
-1.598003655672073364e-01
-5.439391732215881348e-02
6.674479693174362183e-02
-1.173717081546783447e-01
1.730290353298187256e-01
-1.645854562520980835e-01
7.597165554761886597e-02
1.349154673516750336e-02
-1.000805124640464783e-01
-5.114307999610900879e-02
-1.318827550858259201e-02
-2.456456236541271210e-02
1.008373405784368515e-02
-3.499219417572021484e-01
-1.903814077377319336e-01
4.928126558661460876e-02
-3.126667067408561707e-02
-5.413592457771301270e-01
-2.501789033412933350e-01
-3.045988269150257111e-02
-7.544706761837005615e-02
-1.899865865707397461e-01
9.484396129846572876e-02
-1.450546979904174805e-01
2.876805067062377930e-01
1.950212419033050537e-01
-2.152758650481700897e-02
9.231483936309814453e-02
-1.026746183633804321e-01
-6.673202384263277054e-03
-1.076886653900146484e-01
3.538005948066711426e-01
-1.436733901500701904e-01
2.017507404088973999e-01
-7.557664066553115845e-02
5.484084412455558777e-02
-1.303283870220184326e-01
3.783322870731353760e-01
2.873674929141998291e-01
-2.442728728055953979e-01
4.576449096202850342e-02
-3.239860292524099350e-03
-1.822416037321090698e-01
-1.994306743144989014e-01
-9.563169628381729126e-02
2.096300423145294189e-01
3.052788376808166504e-01
2.804576978087425232e-02
-1.312018483877182007e-01
-2.846398353576660156e-01
6.968223303556442261e-02
1.824709922075271606e-01
-1.024906858801841736e-01
1.586425900459289551e-01
-2.416322194039821625e-02
7.492630183696746826e-02
-5.851814150810241699e-01
1.316613405942916870e-01
-5.292645096778869629e-01
1.250409930944442749e-01
2.598115801811218262e-01
-2.607519030570983887e-01
1.113642901182174683e-01
-3.016434311866760254e-01
2.906755506992340088e-01
-6.565212458372116089e-02
-2.679851651191711426e-02
-1.706836163066327572e-03
-1.169274970889091492e-01
-1.442552655935287476e-01
-3.140659332275390625e-01
2.899642586708068848e-01
-2.652562595903873444e-02
-3.440842032432556152e-01
-6.559050828218460083e-02
-3.865962028503417969e-01
-1.905531436204910278e-01
-1.697433888912200928e-01
1.023851633071899414e-01
2.173237204551696777e-01
-4.782266542315483093e-02
-2.378817796707153320e-01
7.952330261468887329e-02
-9.880664199590682983e-02
1.103232265450060368e-03
-4.489086940884590149e-02
-2.175461128354072571e-02
-1.025521606206893921e-01
-2.723979055881500244e-01
-2.170171141624450684e-01
2.775062434375286102e-02
-6.456602364778518677e-02
-1.592871546745300293e-01
-1.734240353107452393e-01
2.663078308105468750e-01
-8.053299039602279663e-03
1.806587330065667629e-03
9.661766700446605682e-03
8.416552841663360596e-02
5.192236602306365967e-02
5.166595056653022766e-02
2.911415696144104004e-02
-5.262882113456726074e-01
-9.654588252305984497e-02
6.205203384160995483e-02
-2.151187211275100708e-01
2.085743546485900879e-01
-1.252753734588623047e-01
2.919934391975402832e-01
-1.447170227766036987e-01
-1.280420571565628052e-01
-3.688524663448333740e-01
-2.028010189533233643e-01
1.846770793199539185e-01
-2.892052531242370605e-01
-2.284440957009792328e-02
2.578162550926208496e-01
-1.722052097320556641e-01
3.685457259416580200e-02
-3.616472184658050537e-01
-6.875509023666381836e-02
2.981558740139007568e-01
-1.267274618148803711e-01
1.796594262123107910e-01
-1.971436291933059692e-01
-1.361507028341293335e-01
-1.104308143258094788e-01
-3.942165970802307129e-01
1.626584082841873169e-01
-8.299282193183898926e-02
-2.341798841953277588e-01
3.975694179534912109e-01
-9.169866889715194702e-02
5.445306375622749329e-02
4.852075874805450439e-01
4.177933633327484131e-01
9.637502022087574005e-03
-3.941416740417480469e-02
-7.580543309450149536e-02
1.619480997323989868e-01
1.974735409021377563e-01
-9.549623727798461914e-02
1.153919473290443420e-01
-1.129680946469306946e-01
-6.106953620910644531e-01
1.910088807344436646e-01
2.929472923278808594e-01
3.009574115276336670e-01
-4.324620589613914490e-02
-1.207128465175628662e-01
7.972327060997486115e-03
-6.421837955713272095e-02
-1.487125605344772339e-01
-9.488596022129058838e-02
3.692033886909484863e-01
-2.328436076641082764e-01
-3.568628132343292236e-01
1.600952744483947754e-01
-8.731147646903991699e-02
9.296974539756774902e-02
-9.594618529081344604e-02
3.938684463500976562e-01
1.150347292423248291e-01
1.944912672042846680e-01
-7.675812393426895142e-02
-1.684356927871704102e-01
3.641941770911216736e-02
-1.333511918783187866e-01
1.485489159822463989e-01
-9.764350205659866333e-02
2.945481054484844208e-02
5.357588827610015869e-02
2.535013556480407715e-01
-1.567737460136413574e-01
2.748406119644641876e-02
1.377448290586471558e-01
-2.219917178153991699e-01
1.858150213956832886e-02
2.823843248188495636e-02
-9.342891722917556763e-02
2.227967679500579834e-01
-5.311513785272836685e-03
-2.362651675939559937e-01
-1.294461637735366821e-01
8.207443356513977051e-02
-4.582775533199310303e-01
3.109490275382995605e-01
-1.749152094125747681e-01
1.916906982660293579e-01
-2.573836445808410645e-01
2.401628196239471436e-01
-4.940731823444366455e-02
1.618545949459075928e-01
-7.204228639602661133e-02
-3.991141915321350098e-01
3.073765039443969727e-01
3.594558313488960266e-02
-2.302487641572952271e-01
1.696790158748626709e-01
1.808357983827590942e-01
8.866780996322631836e-02
1.904030144214630127e-01
-7.640444487333297729e-02
1.208675354719161987e-01
1.863170042634010315e-02
2.244978249073028564e-01
4.322907030582427979e-01
-9.688496589660644531e-02
2.408119738101959229e-01
-1.658635884523391724e-01
6.150688230991363525e-02
4.175602644681930542e-02
1.992566734552383423e-01
-3.186918199062347412e-01
2.052100300788879395e-01
-6.173530966043472290e-02
1.343387961387634277e-01
1.553031206130981445e-01
-4.137247428297996521e-02
8.500181138515472412e-03
4.431158304214477539e-02
2.217812687158584595e-01
2.578132152557373047e-01
5.264708027243614197e-02
-1.168272271752357483e-01
6.723617017269134521e-02
-5.555798858404159546e-02
-2.706225216388702393e-01
1.153432875871658325e-01
-4.468534607440233231e-03
-1.399454027414321899e-01
-2.254546880722045898e-01
2.562924027442932129e-01
-6.345516443252563477e-01
8.848208934068679810e-02
2.888472974300384521e-01
9.055890142917633057e-02
-4.089620709419250488e-02
6.590455025434494019e-02
-1.526407003402709961e-01
-1.636919528245925903e-01
1.293784528970718384e-01
-2.583158612251281738e-01
1.238792389631271362e-01
1.089844331145286560e-01
5.293796584010124207e-02
1.512737870216369629e-01
-1.397067606449127197e-01
1.470287144184112549e-01
1.652893871068954468e-01
-1.185153350234031677e-01
2.324197739362716675e-01
9.621559083461761475e-02
1.803570687770843506e-01
4.985351860523223877e-02
6.819419562816619873e-02
-7.234434038400650024e-02
-1.266021877527236938e-01
-4.096449613571166992e-01
-1.453078445047140121e-02
1.415870040655136108e-01
-3.930967748165130615e-01
-2.213063985109329224e-01
3.017106652259826660e-01
-1.749355345964431763e-01
3.223214447498321533e-01
6.997553259134292603e-02
1.005729362368583679e-01
-2.951261959969997406e-02
2.364832758903503418e-01
5.612985417246818542e-02
4.297368577681481838e-04
2.006717771291732788e-01
-2.808772958815097809e-02
-3.457040339708328247e-02
-2.398841641843318939e-02
5.655956454575061798e-03
3.266972899436950684e-01
-1.096028238534927368e-01
3.295843675732612610e-02
-2.316960394382476807e-01
-1.437380909919738770e-02
3.816916048526763916e-02
-1.795506477355957031e-01
-4.446948319673538208e-02
1.473980396986007690e-01
2.346907556056976318e-02
-2.279678173363208771e-02
-2.343045473098754883e-01
1.005590930581092834e-01
-2.651105523109436035e-01
-1.196592375636100769e-01
2.433717697858810425e-01
-4.275334179401397705e-01
1.585021466016769409e-01
1.246029860340058804e-03
2.553590536117553711e-01
1.237677037715911865e-01
1.398488432168960571e-01
-1.079297438263893127e-02
1.118002533912658691e-01
1.359063982963562012e-01
-2.971769273281097412e-01
2.316144295036792755e-03
-1.030786186456680298e-01
1.627126336097717285e-01
-1.064408421516418457e-01
-1.284465342760086060e-01
1.993787437677383423e-01
1.028599068522453308e-01
-8.221442252397537231e-02
4.550797641277313232e-01
7.992915809154510498e-02
2.265777811408042908e-02
8.242921531200408936e-02
-3.051035404205322266e-01
6.991260498762130737e-02
-2.739638835191726685e-02
-1.615789532661437988e-01
-3.988076746463775635e-02
2.159626632928848267e-01
-1.060651708394289017e-02
2.328775823116302490e-01
6.604664027690887451e-02
4.043162614107131958e-02
8.744747191667556763e-02
1.668174266815185547e-01
2.485182322561740875e-02
8.681960403919219971e-02
-8.548049628734588623e-02
5.791757255792617798e-02
-8.461274206638336182e-03
7.110787928104400635e-02
-1.452919095754623413e-01
6.940950453281402588e-02
-1.319602280855178833e-01
1.115393042564392090e-01
-1.688134819269180298e-01
7.877105474472045898e-02
7.156768441200256348e-02
-5.175598263740539551e-01
-2.690608613193035126e-02
3.973032534122467041e-02
-5.872925743460655212e-02
1.875844597816467285e-01
-1.819403618574142456e-01
-3.071704804897308350e-01
-1.081813499331474304e-01
2.674139142036437988e-01
6.974481046199798584e-02
4.384179785847663879e-02
-1.352730095386505127e-01
6.300299763679504395e-01
-3.036583065986633301e-01
5.031846836209297180e-02
-1.697079390287399292e-01
5.247117578983306885e-02
-4.746504873037338257e-02
1.644797921180725098e-01
-1.897720098495483398e-01
1.549990326166152954e-01
7.487625628709793091e-02
-1.098307818174362183e-01
-3.614146411418914795e-01
2.057804912328720093e-01
-3.608371019363403320e-01
-2.574773728847503662e-01
-3.044215217232704163e-02
-1.296552568674087524e-01
1.140584647655487061e-01
-1.337103694677352905e-01
-2.462305687367916107e-02
9.530255198478698730e-02
-7.159726321697235107e-02
-7.150665670633316040e-02
8.524058386683464050e-03
-1.959155201911926270e-01
-1.167557537555694580e-01
-1.263568401336669922e-01
-1.251074522733688354e-01
-3.778868019580841064e-01
4.110845550894737244e-02
-3.538386523723602295e-01
1.599242091178894043e-01
-2.707160711288452148e-01
-2.210026234388351440e-01
