5.187161732465028763e-03
7.369787897914648056e-03
-5.490865092724561691e-03
-6.652886979281902313e-03
8.461690507829189301e-03
-7.672891020774841309e-03
-6.104091648012399673e-03
3.263090271502733231e-03
-1.017890404909849167e-03
1.201604027301073074e-02
1.107684243470430374e-02
-6.300383247435092926e-03
-4.575632628984749317e-04
-6.569563411176204681e-03
3.646987024694681168e-03
8.298036642372608185e-03
-6.694665178656578064e-03
-6.522690411657094955e-03
-6.794166285544633865e-03
3.623916534706950188e-03
-6.656697019934654236e-03
-7.419148460030555725e-03
7.948607206344604492e-03
2.158009447157382965e-03
-5.789328832179307938e-03
-7.631301414221525192e-03
3.799946513026952744e-03
3.710437333211302757e-03
-7.657276932150125504e-03
4.049979615956544876e-03
3.379157045856118202e-03
-6.409060675650835037e-03
9.540944360196590424e-03
-7.278515491634607315e-03
-1.066993921995162964e-03
8.005871437489986420e-03
8.931598626077175140e-03
-3.254727460443973541e-03
-6.123906001448631287e-03
-4.341011401265859604e-03
-6.391572766005992889e-03
-6.060772109776735306e-03
2.552195219323039055e-03
3.876724513247609138e-03
7.092719897627830505e-03
2.719296026043593884e-04
-5.826040171086788177e-03
-9.215908357873558998e-05
-8.558806963264942169e-03
1.019709557294845581e-02
-7.045496255159378052e-03
5.271694157272577286e-03
-6.851643789559602737e-03
4.328860435634851456e-03
-7.131328806281089783e-03
-7.388698402792215347e-03
-6.294611841440200806e-03
-7.090778555721044540e-03
1.916624838486313820e-03
1.673102029599249363e-03
-1.827112864702939987e-04
-6.258380599319934845e-03
2.474965527653694153e-03
4.624961409717798233e-03
-7.734910584986209869e-03
9.793632663786411285e-03
1.038925535976886749e-02
-7.225097622722387314e-03
-7.553535979241132736e-03
3.175111254677176476e-03
3.617084585130214691e-03
-7.663080003112554550e-03
-7.401769515126943588e-03
1.308943238109350204e-02
-6.332114804536104202e-03
-7.778025697916746140e-03
-6.444878410547971725e-03
-6.609628908336162567e-03
4.363477230072021484e-03
1.668150187470018864e-03
3.930979873985052109e-03
2.917899517342448235e-03
-6.613510660827159882e-03
-6.868193391710519791e-03
-5.155575927346944809e-03
5.169903393834829330e-03
9.919660165905952454e-03
5.719759967178106308e-03
-6.395152769982814789e-03
-7.274911273270845413e-03
2.717321971431374550e-03
-2.342387801036238670e-03
-7.607283536344766617e-03
3.016215050593018532e-03
-8.244923315942287445e-03
8.360867388546466827e-03
3.384920768439769745e-03
2.826576353982090950e-03
3.001873614266514778e-03
4.905538167804479599e-03
-1.937970146536827087e-02
-1.113934256136417389e-02
2.443260699510574341e-02
-2.618351019918918610e-02
1.025192532688379288e-02
-4.124129191040992737e-02
-5.037313699722290039e-02
3.819503262639045715e-02
3.768686950206756592e-02
-8.357634942512959242e-05
1.385004445910453796e-02
2.922741509974002838e-02
-2.338153310120105743e-02
-1.317533105611801147e-02
8.419422432780265808e-03
1.386918127536773682e-02
-2.780113555490970612e-02
-9.143736958503723145e-02
-3.042488545179367065e-02
1.607256755232810974e-02
7.657779846340417862e-03
1.504878792911767960e-02
1.612290181219577789e-02
-2.897117054089903831e-03
2.276529185473918915e-02
1.063368562608957291e-02
2.042428217828273773e-02
-1.867812825366854668e-03
7.254352676682174206e-04
3.847863897681236267e-02
1.042485050857067108e-02
-2.050918713212013245e-02
2.997200749814510345e-02
2.192234806716442108e-02
2.450468204915523529e-02
-6.952271610498428345e-02
1.963165588676929474e-02
-1.031913012266159058e-01
6.060272920876741409e-03
-1.729897223412990570e-02
2.794707380235195160e-02
2.451369166374206543e-02
4.515733942389488220e-02
3.517079725861549377e-02
-8.752183988690376282e-03
-1.505984831601381302e-02
-1.757084019482135773e-02
-6.695807725191116333e-02
-4.358045384287834167e-02
3.072638623416423798e-02
-7.744364440441131592e-02
-1.916191540658473969e-02
-4.667502269148826599e-02
5.497695133090019226e-02
7.055433839559555054e-02
8.760555833578109741e-02
2.181048505008220673e-02
1.078817471861839294e-01
2.871724031865596771e-02
4.761487245559692383e-02
4.050081223249435425e-02
-9.501773864030838013e-02
-2.619313821196556091e-02
-1.044890657067298889e-02
4.069215804338455200e-02
5.345783382654190063e-02
3.355211392045021057e-02
4.174256324768066406e-02
4.982328042387962341e-02
5.393980443477630615e-02
7.034244388341903687e-02
-3.421482443809509277e-02
6.700706481933593750e-02
1.009859666228294373e-01
7.671219855546951294e-02
8.582058548927307129e-02
8.524306863546371460e-02
-1.997069120407104492e-01
-1.060369759798049927e-01
1.079165711998939514e-01
-9.907177090644836426e-02
7.928194850683212280e-02
8.834839612245559692e-02
8.693893998861312866e-02
-8.755644410848617554e-02
