-3.984360024333000183e-03
-4.068812821060419083e-03
-3.404319053515791893e-03
-2.100828103721141815e-03
-4.109047353267669678e-03
1.889976672828197479e-03
3.207200672477483749e-03
2.800705377012491226e-03
-4.113089293241500854e-03
-3.481067018583416939e-03
-4.062718711793422699e-03
1.913496089400723577e-04
3.649737685918807983e-03
8.563725277781486511e-03
6.688987370580434799e-03
2.742781769484281540e-03
1.743446802720427513e-03
-4.084258340299129486e-03
-3.764324588701128960e-03
-4.278941545635461807e-03
5.131238605827093124e-03
4.213204607367515564e-03
-3.916901536285877228e-03
2.428291365504264832e-03
-4.292927216738462448e-03
7.434390485286712646e-03
-3.625328186899423599e-03
-4.149456042796373367e-03
-4.032757133245468140e-03
-3.785655368119478226e-03
-3.759274724870920181e-03
2.463918179273605347e-03
4.917734186165034771e-04
2.804580843076109886e-03
1.248642452992498875e-03
-4.069524351507425308e-03
2.229170640930533409e-03
-1.346593780908733606e-04
7.001796737313270569e-03
-3.218899248167872429e-03
2.978157950565218925e-03
-3.837371012195944786e-03
-4.324089735746383667e-03
-1.819448312744498253e-03
-4.386434797197580338e-03
-3.875589929521083832e-03
-3.455504542216658592e-03
1.635085442103445530e-03
-4.230207297950983047e-03
-3.869136096909642220e-03
-3.860919503495097160e-03
2.108077751472592354e-03
3.070163773372769356e-03
-4.306547343730926514e-03
6.973457988351583481e-03
-4.204424098134040833e-03
2.374454867094755173e-03
-3.995141945779323578e-03
-4.034238401800394058e-03
2.458790782839059830e-03
6.492703687399625778e-03
-4.322477150708436966e-03
2.336482750251889229e-03
2.059726510196924210e-03
1.783758867532014847e-03
2.698395401239395142e-03
2.679405501112341881e-03
-4.242412280291318893e-03
1.244521350599825382e-03
-4.538623616099357605e-03
-3.881538985297083855e-03
4.671554081141948700e-03
6.267620716243982315e-03
2.002295572310686111e-03
7.952585001476109028e-04
-3.880104515701532364e-03
-4.036933649331331253e-03
1.341782975941896439e-03
-3.746329108253121376e-03
-3.422558074817061424e-03
-2.661484468262642622e-04
-3.914702218025922775e-03
2.446206519380211830e-03
1.614795881323516369e-03
-4.288890399038791656e-03
-4.001113586127758026e-03
2.029946772381663322e-03
2.571722958236932755e-03
-3.804075531661510468e-03
-3.213983261957764626e-03
-3.874817397445440292e-03
2.821322996169328690e-03
-1.407295465469360352e-03
1.595576759427785873e-03
-4.099028650671243668e-03
1.461520791053771973e-03
-3.713332582265138626e-03
5.765370558947324753e-03
-3.384885611012578011e-03
3.312087152153253555e-03
-6.078483909368515015e-02
8.935224264860153198e-03
-2.158768661320209503e-02
2.265574783086776733e-02
5.452969111502170563e-03
1.232704613357782364e-02
-1.619484275579452515e-02
7.252234965562820435e-02
-7.883831113576889038e-02
1.021642237901687622e-01
2.281850762665271759e-02
1.320090703666210175e-02
-1.868295483291149139e-02
-7.768141105771064758e-03
1.968098059296607971e-02
-3.062329813838005066e-02
1.770727336406707764e-02
-5.570464767515659332e-03
5.192634835839271545e-02
-7.504539564251899719e-03
2.019455656409263611e-02
6.753458175808191299e-03
-3.677366534247994423e-03
3.913568332791328430e-02
1.435409486293792725e-02
1.023503672331571579e-02
1.444257609546184540e-02
1.121059618890285492e-02
2.330363355576992035e-02
1.363642886281013489e-02
2.119813486933708191e-02
-3.413114696741104126e-02
-6.853027641773223877e-02
-4.236081987619400024e-02
-5.748859606683254242e-03
-7.298822165466845036e-04
-8.022451400756835938e-02
-1.272685825824737549e-03
-1.064863335341215134e-02
-1.195312477648258209e-02
-8.722832426428794861e-03
2.282865904271602631e-02
2.981620654463768005e-02
3.920627757906913757e-02
-6.354129407554864883e-03
5.552517250180244446e-04
1.167494524270296097e-02
1.184585224837064743e-02
-1.760680414736270905e-02
-1.488115265965461731e-02
-1.624994911253452301e-03
-7.006894797086715698e-02
3.866554424166679382e-02
2.158162929117679596e-02
-8.773247897624969482e-02
6.928768008947372437e-02
6.320315599441528320e-02
1.025515515357255936e-02
-3.398379310965538025e-02
1.063982583582401276e-02
-4.321351647377014160e-02
-2.961549721658229828e-02
5.244675651192665100e-02
4.495424404740333557e-02
-4.556996747851371765e-02
-7.944268174469470978e-03
-8.142995089292526245e-02
-4.051951318979263306e-02
-4.919766262173652649e-02
3.506045043468475342e-02
4.199762269854545593e-02
1.393097732216119766e-02
8.849558979272842407e-02
-8.118047565221786499e-02
5.148274451494216919e-02
7.719335705041885376e-02
9.565231204032897949e-02
6.524811685085296631e-02
6.289330869913101196e-02
2.974342554807662964e-02
5.117965117096900940e-02
7.136942446231842041e-02
-1.240577027201652527e-01
3.766006976366043091e-02
3.899028897285461426e-02
