-2.009405195713043213e-01
9.209540486335754395e-02
1.271737515926361084e-01
1.923568248748779297e-01
1.077818125486373901e-01
-9.112923592329025269e-02
7.997938990592956543e-02
-5.719435214996337891e-01
-1.899734735488891602e-01
-1.746549159288406372e-01
-1.566481441259384155e-01
-1.189717426896095276e-01
-3.124072253704071045e-01
7.288394123315811157e-02
1.518573611974716187e-01
-1.560534685850143433e-01
9.292786568403244019e-02
1.970582008361816406e-01
-1.065543442964553833e-01
-2.565016746520996094e-01
8.179953321814537048e-03
-1.045965552330017090e-01
2.682372033596038818e-01
-9.201010107062757015e-05
-3.496488556265830994e-02
-2.425887137651443481e-01
-7.326345443725585938e-01
1.593021601438522339e-01
-5.230402573943138123e-02
-3.789851814508438110e-02
-1.151660531759262085e-01
-2.145875059068202972e-02
2.450067549943923950e-02
-1.165553107857704163e-01
-3.044957518577575684e-01
-9.944867342710494995e-02
-1.676372811198234558e-02
-2.048606276512145996e-01
-1.997919231653213501e-01
4.172606766223907471e-01
-6.499439477920532227e-02
-6.364027261734008789e-01
-1.196287795901298523e-01
4.113940894603729248e-01
2.284918725490570068e-01
6.860948204994201660e-01
-6.440449506044387817e-02
4.890257120132446289e-01
1.358748972415924072e-01
-2.354536801576614380e-01
-2.214414477348327637e-01
9.090995788574218750e-02
-1.008084714412689209e-01
-1.387413293123245239e-01
-4.027249217033386230e-01
-4.652312397956848145e-01
-1.102300286293029785e-01
-5.481079220771789551e-01
-7.563326954841613770e-01
5.663320794701576233e-02
5.519266054034233093e-02
1.730460673570632935e-01
2.397478371858596802e-02
-4.222276434302330017e-02
-1.061293035745620728e-01
-1.682908535003662109e-01
-5.847824811935424805e-01
-3.093796670436859131e-01
4.673972725868225098e-02
-4.774394035339355469e-01
-1.457099318504333496e-01
1.156825274229049683e-01
-2.648944854736328125e-01
2.080583199858665466e-02
8.867111057043075562e-02
3.215938210487365723e-01
-5.038800835609436035e-02
-6.753070652484893799e-02
1.598689705133438110e-01
-8.908314257860183716e-02
-1.791781038045883179e-01
-3.891952037811279297e-01
-2.218983024358749390e-01
-4.453865811228752136e-02
2.676286101341247559e-01
1.960213929414749146e-01
-4.091459512710571289e-02
1.207620184868574142e-02
8.409725874662399292e-02
-3.116549849510192871e-01
1.754922270774841309e-01
1.765549480915069580e-01
3.398650139570236206e-02
-3.095633722841739655e-02
-5.231070797890424728e-03
-7.434417307376861572e-02
-1.543692033737897873e-02
-5.073636025190353394e-02
-2.601996809244155884e-02
-1.271035224199295044e-01
-9.112768620252609253e-02
5.579414963722229004e-02
-1.775541901588439941e-01
-7.462544739246368408e-02
-2.094287872314453125e-01
-3.955704867839813232e-01
-4.738424718379974365e-01
-5.253679156303405762e-01
1.505209207534790039e-01
1.469716802239418030e-02
-3.379177749156951904e-01
3.394854813814163208e-02
9.965363889932632446e-02
1.789401657879352570e-02
-2.085205316543579102e-01
-2.687566876411437988e-01
-7.355871796607971191e-02
6.701063364744186401e-02
-6.179536506533622742e-02
7.380564510822296143e-02
-3.312433138489723206e-02
1.253591775894165039e-01
-4.075175151228904724e-02
-4.725788161158561707e-02
3.967086225748062134e-02
-1.942924708127975464e-01
-2.397087514400482178e-01
4.099263250827789307e-02
2.111973911523818970e-01
-7.922700792551040649e-02
1.499471366405487061e-01
-9.582540392875671387e-01
-1.098843514919281006e-01
1.580895483493804932e-02
2.570972144603729248e-01
-1.309486478567123413e-01
2.802639007568359375e-01
-7.873331308364868164e-01
5.879206210374832153e-02
-4.677517805248498917e-03
1.650577411055564880e-02
-6.637365440838038921e-04
9.791920334100723267e-02
2.993070483207702637e-01
-8.924235701560974121e-01
5.268646776676177979e-02
-1.606560349464416504e-01
1.770499050617218018e-01
-2.508713165298104286e-03
-6.563513725996017456e-02
-6.311878561973571777e-02
-1.061271056532859802e-01
5.555364768952131271e-03
-3.001718819141387939e-01
-1.321814417839050293e+00
-3.486355021595954895e-02
-6.473060846328735352e-01
-1.867290139198303223e-01
-1.778830140829086304e-01
1.183348596096038818e-01
1.749979704618453979e-01
-4.920045137405395508e-01
-2.135914117097854614e-01
3.690820038318634033e-01
-2.411600798368453979e-01
-9.765084385871887207e-01
1.644758582115173340e-01
6.139223277568817139e-02
-8.387060761451721191e-01
1.344587802886962891e-01
3.296947181224822998e-01
2.549324333667755127e-01
1.978073716163635254e-01
-1.067509889602661133e+00
1.256738454103469849e-01
-1.094666719436645508e-01
7.342704385519027710e-02
-2.622307538986206055e-01
1.682703495025634766e-01
1.668142527341842651e-01
-2.981212139129638672e-01
-1.486744135618209839e-01
5.629941821098327637e-02
2.978284470736980438e-02
-2.330744452774524689e-02
-8.460920304059982300e-02
1.712898910045623779e-01
5.765955895185470581e-02
2.452311478555202484e-02
2.472654916346073151e-02
-1.202332600951194763e-01
3.420630469918251038e-02
-3.271161615848541260e-01
-1.025799512863159180e-01
-5.767368078231811523e-01
9.577160328626632690e-02
1.628108173608779907e-01
-1.646932587027549744e-02
3.774609416723251343e-02
-6.745417416095733643e-02
-8.638926595449447632e-02
4.258955419063568115e-01
-6.350000947713851929e-02
-7.289709895849227905e-02
7.270416617393493652e-01
-2.477582097053527832e-01
-4.571049809455871582e-01
4.359323680400848389e-01
7.304392009973526001e-02
1.693336218595504761e-01
-2.464028596878051758e-01
1.770629547536373138e-02
3.170408010482788086e-01
5.763985589146614075e-02
-4.391793608665466309e-01
1.947019398212432861e-01
-2.517881691455841064e-01
-3.774490952491760254e-01
-2.933909557759761810e-02
-6.054008007049560547e-01
2.402006648480892181e-02
-1.293598581105470657e-02
3.486981689929962158e-01
-8.360054343938827515e-02
1.358355134725570679e-01
5.489156767725944519e-02
5.225315093994140625e-01
-1.336619071662425995e-02
-8.069501072168350220e-02
3.648987710475921631e-01
-6.032540202140808105e-01
-5.810204744338989258e-01
-1.194486394524574280e-01
1.382509171962738037e-01
-7.282814383506774902e-02
-1.297545712441205978e-02
-5.188721790909767151e-02
3.524194359779357910e-01
1.530360877513885498e-01
3.782643973827362061e-01
-2.158097475767135620e-01
1.003122925758361816e-01
-4.495402276515960693e-01
-3.314979374408721924e-02
2.705311477184295654e-01
-1.399089545011520386e-01
-1.091424077749252319e-01
1.744361668825149536e-01
-1.847187727689743042e-01
1.114016398787498474e-03
-4.896987602114677429e-02
1.654314622282981873e-02
-1.613478213548660278e-01
5.106523633003234863e-02
-1.576793938875198364e-01
-4.578094482421875000e-01
4.471544921398162842e-01
3.163207694888114929e-02
-1.906140446662902832e-01
-4.059558808803558350e-01
-2.008908241987228394e-01
1.125701069831848145e-01
1.691366359591484070e-02
-4.399158991873264313e-03
-1.060069948434829712e-01
-5.779585242271423340e-02
-1.808661669492721558e-01
9.518368542194366455e-02
-1.858584210276603699e-02
1.354869902133941650e-01
-2.081556320190429688e-01
4.154628515243530273e-02
-2.733975350856781006e-01
2.056174166500568390e-02
-1.603418774902820587e-02
-1.177781969308853149e-01
3.069830499589443207e-02
-2.472624033689498901e-01
-3.505060076713562012e-02
-4.943224787712097168e-01
2.446357905864715576e-01
3.177384147420525551e-03
-1.710850298404693604e-01
-5.017796531319618225e-02
-3.757287263870239258e-01
-1.258631050586700439e-01
1.312865167856216431e-01
4.281178116798400879e-02
-1.262673884630203247e-01
-1.536522507667541504e-01
7.639410346746444702e-02
1.396458745002746582e-01
-8.918855339288711548e-02
3.631667420268058777e-02
8.301106281578540802e-04
-2.282178401947021484e-01
9.954482316970825195e-02
-6.427165269851684570e-01
2.838722197338938713e-03
1.603627577424049377e-02
-3.114717900753021240e-01
7.743325829505920410e-02
-4.755807518959045410e-01
-2.798526883125305176e-01
6.847116351127624512e-02
-3.254716098308563232e-01
1.475942879915237427e-01
1.867346912622451782e-01
-1.538412868976593018e-01
2.210051566362380981e-01
4.725240916013717651e-02
7.167799472808837891e-01
-4.422696232795715332e-01
-9.631210565567016602e-01
6.388533860445022583e-02
-3.021852970123291016e-01
-1.115821674466133118e-01
-2.869486808776855469e-01
-9.399417787790298462e-02
-3.255054354667663574e-02
1.008436009287834167e-01
3.580598160624504089e-03
1.662660539150238037e-01
-1.727905869483947754e-01
-1.138290017843246460e-01
-1.996349245309829712e-01
8.823646605014801025e-02
-5.326517224311828613e-01
2.149561047554016113e-01
-8.124030381441116333e-02
-4.891095161437988281e-01
-3.360287100076675415e-02
-5.257269740104675293e-02
-1.803869754076004028e-01
8.849389851093292236e-03
-4.537357985973358154e-01
1.469790935516357422e-01
4.958237055689096451e-03
-1.830697804689407349e-01
-4.636064171791076660e-01
1.465473622083663940e-01
-2.278377711772918701e-01
-3.573662638664245605e-01
4.028877615928649902e-02
-2.223404794931411743e-01
-1.398972570896148682e-01
1.391513496637344360e-01
-6.199530959129333496e-01
-1.316904183477163315e-02
3.844678774476051331e-02
-5.174594372510910034e-02
-2.936782538890838623e-01
-4.114580452442169189e-01
-1.382515728473663330e-01
1.520020365715026855e-01
-1.464462131261825562e-01
-1.973647922277450562e-01
-2.217378765344619751e-01
3.738466799259185791e-01
1.463178247213363647e-01
-3.008804619312286377e-01
3.798048011958599091e-03
2.908613979816436768e-01
1.061564460396766663e-01
-1.439152061939239502e-01
2.041899710893630981e-01
9.430159628391265869e-02
-7.752584218978881836e-01
-3.537653386592864990e-01
-3.895599544048309326e-01
-2.636420726776123047e-01
1.045109406113624573e-01
3.095394074916839600e-01
-7.365835458040237427e-02
-4.959675967693328857e-01
-1.768279224634170532e-01
3.781286999583244324e-02
-1.601584404706954956e-01
-1.375336349010467529e-01
-2.026275694370269775e-01
-1.612188220024108887e-01
2.276044785976409912e-01
-4.532501697540283203e-01
-1.289396584033966064e-01
-8.290636539459228516e-02
-4.031635820865631104e-01
1.064446046948432922e-01
1.131198555231094360e-01
5.813818052411079407e-02
9.239011257886886597e-02
1.604671962559223175e-02
-2.381915450096130371e-01
-4.288392961025238037e-01
-1.767413504421710968e-02
-4.980162978172302246e-01
-1.296912580728530884e-01
7.505718618631362915e-02
4.440981894731521606e-02
-6.592919677495956421e-02
3.366911411285400391e-02
-2.080352753400802612e-01
-5.321174263954162598e-01
-2.075805515050888062e-01
2.111303657293319702e-01
2.709961310029029846e-02
-1.952549070119857788e-01
9.355619840789586306e-05
1.848486214876174927e-01
-7.403988391160964966e-02
-1.030872464179992676e-01
2.705059051513671875e-01
8.831249922513961792e-02
1.925681531429290771e-02
1.575071513652801514e-01
1.405956745147705078e-01
2.162658609449863434e-02
7.878598570823669434e-02
-1.298048049211502075e-01
-1.487001776695251465e-01
1.347360163927078247e-01
2.278251945972442627e-02
-9.332832694053649902e-02
2.972078621387481689e-01
3.191399946808815002e-02
-5.634205788373947144e-02
2.024376541376113892e-01
-4.525477588176727295e-01
-4.984949827194213867e-01
-1.113829165697097778e-01
3.876746594905853271e-01
-2.469560652971267700e-01
-3.647690713405609131e-01
2.955660782754421234e-02
1.414960622787475586e-02
-7.833253741264343262e-01
1.604721508920192719e-02
2.196000516414642334e-01
-2.653923630714416504e-02
4.625739455223083496e-01
-1.453997343778610229e-01
4.008123278617858887e-02
-5.356914997100830078e-01
3.043540120124816895e-01
-5.339295864105224609e-01
2.582747042179107666e-01
-5.707810819149017334e-02
1.348921190947294235e-02
-6.078045368194580078e-01
-9.385993331670761108e-02
-4.896718859672546387e-01
-5.332973003387451172e-01
1.130510568618774414e-01
2.861581742763519287e-01
-4.101298153400421143e-01
-7.493428140878677368e-02
-4.006719291210174561e-01
1.903331577777862549e-01
4.513851106166839600e-01
4.012946188449859619e-01
-2.299688756465911865e-01
8.928463608026504517e-02
3.199469670653343201e-02
1.947593986988067627e-01
-7.946205139160156250e-01
3.142150118947029114e-02
-2.203509956598281860e-01
3.272365927696228027e-01
1.339263468980789185e-01
-2.888275980949401855e-01
-2.780607640743255615e-01
-7.651036381721496582e-01
3.990319371223449707e-01
1.142295077443122864e-03
-5.935148596763610840e-01
-2.647263705730438232e-01
-7.476386427879333496e-02
2.043090946972370148e-02
-1.300346851348876953e-01
8.083504438400268555e-02
2.245854735374450684e-01
-1.121436432003974915e-01
2.260896265506744385e-01
-1.743355840444564819e-01
-1.516917496919631958e-01
-1.887678354978561401e-01
7.428061962127685547e-02
8.369921147823333740e-02
2.298741787672042847e-02
-2.380343899130821228e-02
-5.244591273367404938e-03
-9.250440634787082672e-03
-1.434283405542373657e-01
-8.404949307441711426e-02
-2.516755461692810059e-02
-2.960535930469632149e-03
-1.209602206945419312e-01
7.461425662040710449e-02
-2.650373280048370361e-01
9.611595422029495239e-03
-3.201644122600555420e-02
3.097281455993652344e-01
2.493295073509216309e-02
-6.442058831453323364e-02
1.600846499204635620e-01
-2.802287042140960693e-01
-1.694878935813903809e-01
-2.311731427907943726e-01
4.091466218233108521e-02
2.003778517246246338e-01
6.722884136252105236e-04
-6.544154137372970581e-02
-6.665957719087600708e-02
-1.136246696114540100e-01
-7.503924518823623657e-02
9.618067741394042969e-02
-1.517730504274368286e-01
-7.523916661739349365e-02
-1.457983702421188354e-01
-1.806102991104125977e-01
1.411124039441347122e-02
1.876194626092910767e-01
-9.729869663715362549e-02
-2.181451395153999329e-02
1.553143411874771118e-01
7.726190984249114990e-02
-2.302479743957519531e-01
1.031821891665458679e-01
-1.231421604752540588e-01
-6.641853600740432739e-02
2.987402677536010742e-02
-5.104477703571319580e-02
-2.253920882940292358e-01
1.184713169932365417e-01
-8.270172029733657837e-02
-1.202957272529602051e+00
-2.912383377552032471e-01
1.059316396713256836e-01
1.038794443011283875e-01
2.085104025900363922e-02
1.782082766294479370e-02
-1.887017861008644104e-02
4.253079742193222046e-02
1.759907454252243042e-01
-8.420248329639434814e-02
9.763217717409133911e-02
-1.366708893328905106e-02
6.983242183923721313e-02
-5.950030684471130371e-02
6.684588734060525894e-03
2.838369831442832947e-02
3.351978659629821777e-01
5.637549608945846558e-02
-3.715544939041137695e-01
2.191687375307083130e-01
-1.728731989860534668e-01
-1.377421617507934570e-01
-6.495872139930725098e-01
1.979627460241317749e-01
-1.896475702524185181e-01
-4.641642272472381592e-01
1.287485212087631226e-01
1.372292488813400269e-01
4.806551709771156311e-02
1.070403978228569031e-01
8.367938548326492310e-02
-1.267225295305252075e-01
-4.116186872124671936e-02
-8.896902799606323242e-01
-1.101502031087875366e-01
-1.130766496062278748e-01
2.179537117481231689e-01
-2.178360521793365479e-02
-4.486090317368507385e-02
1.797064840793609619e-01
1.046674400568008423e-01
1.443476676940917969e-01
3.824496865272521973e-01
8.527984470129013062e-02
1.256892532110214233e-01
-1.470397859811782837e-01
-5.576190352439880371e-02
-3.198959529399871826e-01
-2.874761819839477539e-01
1.265719532966613770e-02
1.367387920618057251e-01
-6.863147765398025513e-02
8.127957582473754883e-02
5.998409986495971680e-01
-1.168159767985343933e-01
-1.626284122467041016e-01
4.735983535647392273e-02
-1.426892131567001343e-01
9.399670176208019257e-03
-5.104935169219970703e-02
4.787121340632438660e-02
2.028446346521377563e-01
-8.369751274585723877e-02
-1.151283551007509232e-02
1.225729063153266907e-01
-4.886298626661300659e-02
-1.560025215148925781e-01
5.660200491547584534e-02
-5.076356604695320129e-02
-3.837093710899353027e-02
-5.394371747970581055e-01
-4.981523752212524414e-01
-1.621099263429641724e-01
-9.396426081657409668e-01
1.548069808632135391e-02
-9.380856752395629883e-01
1.884830445051193237e-01
2.616381645202636719e-01
7.143607735633850098e-02
1.181889101862907410e-01
8.221197873353958130e-02
-9.394448250532150269e-02
-5.477749556303024292e-02
-5.370793938636779785e-01
-3.794857263565063477e-01
-1.195081025362014771e-01
-1.152983456850051880e-01
7.820624858140945435e-02
-3.171491622924804688e-01
1.805758029222488403e-01
6.925546377897262573e-02
-6.272903829813003540e-02
-1.194224506616592407e-02
-1.191460639238357544e-01
-3.625318780541419983e-02
-3.496989607810974121e-01
-2.513745054602622986e-02
2.405273765325546265e-01
-1.206726953387260437e-01
-5.321037173271179199e-01
-1.615747511386871338e-01
1.890574544668197632e-01
8.484689891338348389e-02
5.842958390712738037e-02
2.755181491374969482e-02
9.115663170814514160e-02
7.200799137353897095e-02
-3.633731901645660400e-01
-2.434218823909759521e-01
-2.105903066694736481e-02
-1.406826823949813843e-01
-9.309769421815872192e-02
5.863340198993682861e-02
7.605174928903579712e-02
-3.955906629562377930e-02
-3.005236387252807617e-02
-1.248147189617156982e-01
-5.251009389758110046e-02
1.771830469369888306e-01
4.839026927947998047e-02
-4.116222262382507324e-01
-5.486595034599304199e-01
6.087321322411298752e-03
-6.355467438697814941e-01
-2.349504828453063965e-01
-6.023655086755752563e-02
-3.163719177246093750e-01
1.717703789472579956e-01
1.021272093057632446e-01
1.799246817827224731e-01
8.551412075757980347e-02
4.472867399454116821e-02
1.006173044443130493e-01
-1.179256215691566467e-01
-6.791847944259643555e-01
8.615309745073318481e-02
-8.249756693840026855e-02
-2.929164469242095947e-01
2.766263186931610107e-01
4.929287359118461609e-02
-4.723506048321723938e-02
1.495793908834457397e-01
1.938331872224807739e-01
9.522615373134613037e-02
1.756137907505035400e-01
5.783468112349510193e-02
-3.450138270854949951e-01
1.679178886115550995e-02
-4.838918447494506836e-01
1.066936030983924866e-01
-1.646887958049774170e-01
-2.249143272638320923e-01
-8.010996878147125244e-02
2.146306075155735016e-02
8.215244114398956299e-02
-4.299073219299316406e-01
1.053421720862388611e-01
-1.833091527223587036e-01
3.420960307121276855e-01
-3.378668725490570068e-01
1.013167873024940491e-01
-2.044479995965957642e-01
3.073479793965816498e-02
-5.055127292871475220e-02
-2.661391161382198334e-02
-1.222071498632431030e-01
-5.509847998619079590e-01
-4.856699705123901367e-02
3.870784640312194824e-01
1.708511412143707275e-01
-6.465930491685867310e-02
1.616277992725372314e-01
1.124049425125122070e-01
-6.648635268211364746e-01
2.862836122512817383e-01
3.495104908943176270e-01
1.764613203704357147e-02
-3.403687477111816406e-01
-3.576334118843078613e-01
2.352581918239593506e-01
2.924192845821380615e-01
-7.556366268545389175e-03
-8.115061558783054352e-03
1.630872339010238647e-01
1.801617443561553955e-02
4.373101294040679932e-01
-2.612709105014801025e-01
1.017410233616828918e-01
1.527905613183975220e-01
6.705531477928161621e-02
6.524058431386947632e-02
-1.085112541913986206e-01
-8.027044683694839478e-02
-4.055392444133758545e-01
1.321817785501480103e-01
3.764896094799041748e-01
1.089657470583915710e-01
-2.825215086340904236e-02
-1.688515543937683105e-01
1.454404294490814209e-01
-8.881422132253646851e-02
1.827495694160461426e-01
-2.518431544303894043e-01
1.194064468145370483e-01
1.432799398899078369e-01
-2.956034243106842041e-01
4.046796634793281555e-02
2.386261075735092163e-01
-1.290639191865921021e-01
-4.503080546855926514e-01
-5.962067097425460815e-02
-2.590197920799255371e-01
1.172840520739555359e-01
-7.852175086736679077e-02
-3.966313302516937256e-01
-2.544285058975219727e-01
-4.633061215281486511e-02
1.786687225103378296e-01
4.186807945370674133e-02
-2.505905576981604099e-04
-1.002720519900321960e-01
-6.500992923974990845e-02
-3.425627052783966064e-01
-3.873887360095977783e-01
-1.318916082382202148e+00
-3.432115912437438965e-01
-1.693780273199081421e-01
-4.390859976410865784e-02
-6.010706350207328796e-02
-3.143738722428679466e-04
-8.593718707561492920e-02
-2.872632443904876709e-01
7.767787575721740723e-02
-1.594797074794769287e-01
1.273528635501861572e-01
-1.988655477762222290e-01
-1.909312754869461060e-01
1.809501945972442627e-01
-8.111414313316345215e-02
-1.343956142663955688e-01
9.347959421575069427e-03
-9.294948577880859375e-01
1.127000004053115845e-01
2.249148637056350708e-01
1.634790003299713135e-01
1.595767587423324585e-02
7.124292850494384766e-02
1.633614450693130493e-01
1.916090548038482666e-01
-8.778177946805953979e-02
2.405105717480182648e-02
-2.003894150257110596e-01
-1.311971843242645264e-01
-7.945165783166885376e-02
2.043050974607467651e-01
-8.047316968441009521e-02
2.483437210321426392e-02
1.567052453756332397e-01
1.296941637992858887e-01
-8.731026947498321533e-02
5.679079294204711914e-01
-4.958657547831535339e-02
-1.097747473977506161e-03
1.980526596307754517e-01
2.622340619564056396e-02
-3.553672730922698975e-01
-2.307978868484497070e-01
6.232687830924987793e-02
-7.060774415731430054e-02
2.182077057659626007e-02
-1.204375624656677246e+00
2.504450455307960510e-02
-9.529913961887359619e-02
-3.235177993774414062e-01
-5.035163760185241699e-01
5.070703625679016113e-01
3.965949639678001404e-02
5.414155498147010803e-02
1.231498867273330688e-01
-1.442609541118144989e-02
-2.017617821693420410e-01
9.442708641290664673e-02
2.506436705589294434e-01
1.407853066921234131e-01
-6.395443528890609741e-02
-1.859632879495620728e-02
-2.901583909988403320e-01
7.100448012351989746e-02
-7.140364646911621094e-01
5.173799395561218262e-02
2.125735953450202942e-02
-2.476599663496017456e-01
3.802548348903656006e-02
-1.103334128856658936e-01
1.217245310544967651e-01
-3.209793195128440857e-02
-4.001626074314117432e-01
-3.872751593589782715e-01
1.843793541193008423e-01
-2.797013223171234131e-01
-1.460433602333068848e-01
-2.829921841621398926e-01
1.451080441474914551e-01
3.446502611041069031e-02
1.405368559062480927e-02
-1.714121401309967041e-01
-3.604621067643165588e-02
-2.446220666170120239e-01
5.699732899665832520e-02
-6.065581738948822021e-02
-1.861189864575862885e-02
-1.960085630416870117e-01
-3.126817941665649414e-02
-1.612790971994400024e-01
7.352802902460098267e-02
4.405699204653501511e-03
-4.831362143158912659e-02
1.258422341197729111e-02
-3.321849703788757324e-01
-1.041236892342567444e-01
2.783601582050323486e-01
1.091714799404144287e-01
-3.188996016979217529e-01
4.502484202384948730e-01
-2.194654494524002075e-01
-1.742468327283859253e-01
-2.766507863998413086e-01
1.822135448455810547e-01
1.294073462486267090e-01
-9.880435466766357422e-02
8.718873560428619385e-02
8.887387067079544067e-02
-2.316074073314666748e-02
-5.910390019416809082e-01
-4.712478071451187134e-02
3.360156714916229248e-01
-9.457951784133911133e-02
5.730809643864631653e-04
-1.294558122754096985e-02
1.069788038730621338e-01
1.019003838300704956e-01
-6.690488010644912720e-02
1.400430798530578613e-01
-8.484303951263427734e-02
2.042189240455627441e-01
8.281453698873519897e-02
-1.746930927038192749e-01
1.166763678193092346e-01
-7.540797442197799683e-02
1.064565405249595642e-01
1.763269901275634766e-01
-1.349169313907623291e-01
-7.145157456398010254e-02
3.675450757145881653e-02
-2.434873580932617188e-02
2.671206593513488770e-01
-9.317951649427413940e-02
1.079244762659072876e-01
-1.350199282169342041e-01
-1.888028830289840698e-01
1.231909617781639099e-01
3.302159160375595093e-02
-3.986437618732452393e-01
1.730361580848693848e-01
-7.929708808660507202e-03
-1.535900086164474487e-01
2.154626548290252686e-01
4.091044887900352478e-02
-6.723997741937637329e-02
-1.995346508920192719e-03
-2.360226586461067200e-03
1.275333575904369354e-03
-1.363594830036163330e-01
-3.188699781894683838e-01
-1.343260854482650757e-01
6.337748765945434570e-01
-7.319439947605133057e-02
1.170713379979133606e-01
3.404223918914794922e-02
1.576560437679290771e-01
-1.824532002210617065e-01
3.370393812656402588e-02
-1.770561188459396362e-01
-2.799193002283573151e-02
-1.180480569601058960e-01
2.024199217557907104e-01
-9.733311831951141357e-02
1.155745908617973328e-01
-3.411597311496734619e-01
-7.541887462139129639e-03
5.019122734665870667e-03
1.417328417301177979e-01
-3.069415092468261719e-01
1.282022148370742798e-01
-6.633775830268859863e-01
1.336378902196884155e-01
-1.738882996141910553e-02
2.588125169277191162e-01
-8.050177693367004395e-01
4.437708556652069092e-01
1.973761469125747681e-01
2.821433544158935547e-02
4.534079134464263916e-02
-8.788149058818817139e-02
6.624520570039749146e-02
2.974269166588783264e-02
-4.511906206607818604e-01
1.081278204917907715e+00
6.834476590156555176e-01
-1.717724561691284180e+00
3.670076429843902588e-01
5.371080040931701660e-01
-4.400254786014556885e-01
4.879871606826782227e-01
-3.994030654430389404e-01
3.735148608684539795e-01
-4.571592062711715698e-02
1.824692822992801666e-02
-3.670546412467956543e-02
-8.115801960229873657e-02
2.905075252056121826e-01
1.123982891440391541e-01
-2.592584490776062012e-02
3.592078089714050293e-01
-1.945753246545791626e-01
-5.837301164865493774e-02
-2.840886414051055908e-01
6.611701846122741699e-02
1.594489216804504395e-01
2.162313610315322876e-01
-3.715072274208068848e-01
1.000857427716255188e-01
-7.782336324453353882e-02
-4.427491128444671631e-01
2.041629999876022339e-01
-7.935886271297931671e-03
-1.820032745599746704e-01
4.722541570663452148e-02
-7.589313387870788574e-02
5.182239040732383728e-02
-2.316946163773536682e-02
4.525914490222930908e-01
-2.854525856673717499e-02
1.064824685454368591e-01
3.190998733043670654e-01
-8.206771314144134521e-02
2.054359763860702515e-01
-2.124478816986083984e-01
7.705593854188919067e-02
1.366113685071468353e-02
-3.770719766616821289e-01
1.068094186484813690e-02
3.217915445566177368e-02
1.364493817090988159e-01
1.604498922824859619e-02
-5.688628554344177246e-01
-1.075192540884017944e-01
3.474254161119461060e-02
-9.408471733331680298e-02
3.449474275112152100e-02
2.934503555297851562e-01
-3.899970054626464844e-01
-1.596901379525661469e-02
1.071451753377914429e-01
2.484672367572784424e-01
2.793370187282562256e-01
1.425449457019567490e-02
2.325539290904998779e-01
-3.064870834350585938e-02
-1.132997125387191772e-01
-4.051923155784606934e-01
-3.482252731919288635e-02
-3.011002242565155029e-01
-5.076073855161666870e-02
-4.347407259047031403e-03
-3.954432308673858643e-01
6.288629770278930664e-02
9.704884886741638184e-02
1.055558994412422180e-01
-4.572228714823722839e-02
-7.323310375213623047e-01
-6.931913644075393677e-02
-2.283302322030067444e-02
6.632174849510192871e-01
9.001202881336212158e-02
-4.687991440296173096e-01
-1.288090050220489502e-01
6.078256666660308838e-02
-1.583424210548400879e-01
-5.337577685713768005e-02
1.438750624656677246e-01
1.558500677347183228e-01
8.567445725202560425e-02
-1.001620590686798096e-01
-1.211524233222007751e-01
-8.722245693206787109e-01
-6.272342056035995483e-02
-3.223418816924095154e-02
-6.253578662872314453e-01
-5.411154627799987793e-01
-1.095755100250244141e-01
1.018501967191696167e-01
9.342400729656219482e-02
1.717880219221115112e-01
5.803614854812622070e-02
-8.166252970695495605e-01
-1.584999859333038330e-01
8.477827906608581543e-02
6.098240148276090622e-03
2.645841613411903381e-02
-3.003831207752227783e-02
-2.935763299465179443e-01
1.494698077440261841e-01
-7.732390165328979492e-01
-1.696462184190750122e-02
2.818523906171321869e-02
-5.481754541397094727e-01
-3.971586748957633972e-02
2.701975405216217041e-01
1.261208206415176392e-01
3.901853412389755249e-02
3.740245997905731201e-01
-2.911002039909362793e-01
1.112075075507164001e-01
1.883372068405151367e-01
-2.968930304050445557e-01
-2.026949226856231689e-01
1.752582490444183350e-01
3.289910554885864258e-01
1.900233626365661621e-01
7.446310017257928848e-03
-3.471059203147888184e-01
-4.389949738979339600e-01
1.644529253244400024e-01
-2.384250760078430176e-01
-1.755580306053161621e-01
-5.739816427230834961e-01
2.949891984462738037e-01
4.537715762853622437e-02
-2.017843350768089294e-02
-1.611047685146331787e-01
-2.222766727209091187e-01
2.266945689916610718e-02
-2.375318408012390137e-01
-1.601125299930572510e-01
-2.823327779769897461e-01
-7.961800694465637207e-02
-8.336679637432098389e-02
-5.271942615509033203e-01
-5.608852505683898926e-01
-2.254641503095626831e-01
-2.667115926742553711e-01
2.354907393455505371e-01
-1.542911864817142487e-02
1.283166557550430298e-01
-1.008896604180335999e-01
3.667668253183364868e-02
-3.680310770869255066e-02
1.802413724362850189e-02
-1.728501766920089722e-01
8.939648419618606567e-02
-2.376294583082199097e-01
1.407708078622817993e-01
-4.898844659328460693e-01
-8.548673987388610840e-02
4.457540065050125122e-02
5.444438382983207703e-02
-6.751401722431182861e-02
-3.740271553397178650e-02
1.857707947492599487e-01
-1.071197632700204849e-02
-2.140725106000900269e-01
-5.208385363221168518e-02
1.423167530447244644e-02
-5.474960803985595703e-01
-7.839291356503963470e-03
-4.160766899585723877e-01
3.289344906806945801e-02
-2.586281895637512207e-01
2.620238661766052246e-01
-1.557195037603378296e-01
4.401990771293640137e-02
-1.261505186557769775e-01
-8.857972174882888794e-02
-2.083441317081451416e-01
4.399907961487770081e-02
2.710352838039398193e-01
-1.647556573152542114e-02
-3.284775018692016602e-01
-3.120628893375396729e-01
1.098189651966094971e-01
1.207040473818778992e-01
-2.891183197498321533e-01
-1.257015764713287354e-01
-1.179819703102111816e-01
-2.611239552497863770e-01
-1.352490186691284180e-01
3.694390654563903809e-01
-2.101500183343887329e-01
9.772691875696182251e-02
2.364497482776641846e-01
-1.444332897663116455e-01
-1.028340011835098267e-01
-1.708815991878509521e-01
-4.603730887174606323e-02
5.740862339735031128e-02
6.734836846590042114e-02
-2.420664876699447632e-01
-3.541634976863861084e-02
1.669721212238073349e-03
-2.476879209280014038e-01
-6.587043870240449905e-03
7.179410196840763092e-03
2.113067060708999634e-01
-6.381460279226303101e-02
-1.841657310724258423e-01
-7.525239884853363037e-02
1.679374128580093384e-01
-6.122942566871643066e-01
-1.519661992788314819e-01
-4.978415369987487793e-01
-2.601990997791290283e-01
-7.511611282825469971e-02
-1.540255248546600342e-01
1.122683212161064148e-01
1.654378026723861694e-01
-5.550767108798027039e-02
1.406512558460235596e-01
-1.483971625566482544e-01
2.676184475421905518e-01
1.324497014284133911e-01
-7.629544287919998169e-02
-1.428365111351013184e-01
-8.162268400192260742e-01
-3.704350888729095459e-01
-2.062261849641799927e-01
-1.086746826767921448e-01
5.639075860381126404e-02
6.061451509594917297e-02
1.373796761035919189e-01
-7.801208645105361938e-02
-4.862890020012855530e-02
-5.052316933870315552e-02
-1.073261380195617676e+00
-2.239893376827239990e-02
1.610686928033828735e-01
2.978200316429138184e-01
-1.824635863304138184e+00
-9.412968158721923828e-01
1.597159057855606079e-01
-6.059701442718505859e-01
1.033217236399650574e-01
-9.819670021533966064e-02
4.027096331119537354e-01
-2.708089351654052734e-01
-1.312910318374633789e-01
-2.011379748582839966e-01
-7.334184646606445312e-01
-1.079307079315185547e+00
-3.713501244783401489e-02
9.911020100116729736e-02
-2.853999435901641846e-01
1.829421967267990112e-01
-1.035296916961669922e-02
3.234575735405087471e-03
-5.323215126991271973e-01
-4.560268819332122803e-01
-6.956346631050109863e-01
3.288017511367797852e-01
-1.956193149089813232e-01
-1.136144638061523438e+00
-2.723038494586944580e-01
1.772870868444442749e-01
4.643453657627105713e-02
-1.500763446092605591e-01
6.239762296900153160e-04
1.244599558413028717e-02
-3.029063642024993896e-01
-4.413537383079528809e-01
-2.515053749084472656e-01
-2.861722707748413086e-01
-1.843674927949905396e-01
-4.726364314556121826e-01
2.448080778121948242e-01
-1.567283123731613159e-01
4.127670824527740479e-02
-2.672054246068000793e-02
2.029718756675720215e-01
-6.218665242195129395e-01
-8.024151623249053955e-02
-2.555747926235198975e-01
7.619461510330438614e-03
2.143428921699523926e-01
7.208704482764005661e-03
1.008734405040740967e-01
-1.887779682874679565e-01
4.829638451337814331e-02
-4.988412261009216309e-01
-6.409674882888793945e-02
-2.560556530952453613e-01
3.898501768708229065e-02
-3.996205329895019531e-01
1.709674000740051270e-01
1.194946840405464172e-02
2.280388623476028442e-01
-2.727434337139129639e-01
-4.854416474699974060e-02
-1.014169007539749146e-01
1.504678372293710709e-02
-4.044330120086669922e-02
-2.563067376613616943e-01
-4.453014135360717773e-01
1.492629945278167725e-01
-2.372754663228988647e-01
1.811648160219192505e-01
-1.054670941084623337e-02
