-1.201811358332633972e-01
-4.262856543064117432e-01
-1.005256175994873047e-01
6.688493490219116211e-02
-2.374527454376220703e-01
-2.002477645874023438e-02
6.619502604007720947e-02
-2.256314009428024292e-01
2.807216048240661621e-01
-2.070192247629165649e-02
-2.137007713317871094e-01
-2.147757411003112793e-01
-1.789545454084873199e-02
-3.017890453338623047e-01
-2.011351138353347778e-01
-5.725759267807006836e-02
1.905913650989532471e-01
-5.064719170331954956e-02
-1.806635558605194092e-01
-7.928381115198135376e-02
2.691407799720764160e-01
7.460597902536392212e-02
5.443438142538070679e-02
-6.514247506856918335e-02
4.123513102531433105e-01
-1.017353013157844543e-01
3.988406434655189514e-02
-2.930064797401428223e-01
8.727941662073135376e-02
3.135403990745544434e-01
-1.277718544006347656e-01
-1.462077647447586060e-01
1.702316254377365112e-01
1.079614087939262390e-01
4.744616895914077759e-02
2.594603784382343292e-02
-3.121450915932655334e-02
-9.142781794071197510e-02
1.199102625250816345e-01
1.197951659560203552e-01
2.110726684331893921e-01
-4.248988032341003418e-01
1.455335970968008041e-02
2.176057547330856323e-01
9.767218492925167084e-03
6.264563649892807007e-02
1.420946270227432251e-01
-9.501221030950546265e-02
1.426238268613815308e-01
1.768280863761901855e-01
6.276156753301620483e-02
-7.750827074050903320e-02
1.193143427371978760e-01
-1.590566188097000122e-01
2.216992229223251343e-01
1.534324139356613159e-01
8.069533854722976685e-03
-1.368187274783849716e-02
3.080172277987003326e-02
8.305744826793670654e-02
-3.237978518009185791e-01
-2.438215352594852448e-02
3.581107854843139648e-01
1.706452071666717529e-01
-1.344914883375167847e-01
2.768271267414093018e-01
-6.872933823615312576e-03
-2.560152411460876465e-01
5.095200613141059875e-03
3.583963513374328613e-01
3.323694765567779541e-01
-2.065660664811730385e-03
2.541685402393341064e-01
-8.474776893854141235e-02
1.387146413326263428e-01
-2.113381475210189819e-01
2.526603341102600098e-01
-6.461968421936035156e-01
1.828269660472869873e-01
-2.168750315904617310e-01
-9.979041665792465210e-02
4.948702454566955566e-02
-7.332283258438110352e-02
-7.827934622764587402e-01
-1.425817236304283142e-02
-1.572761684656143188e-01
1.596633717417716980e-02
2.036684602499008179e-01
-5.064800754189491272e-02
-7.160156499594449997e-03
-1.754566282033920288e-01
-1.143136546015739441e-01
1.534304618835449219e-01
2.266538292169570923e-01
-2.506361603736877441e-01
-2.399442195892333984e-01
-3.237369954586029053e-01
-2.139137238264083862e-01
3.464903533458709717e-01
2.601841986179351807e-01
2.188606746494770050e-02
1.108997091650962830e-01
-1.107679978013038635e-01
-2.156108468770980835e-01
-9.163120388984680176e-02
2.904145419597625732e-02
7.786895334720611572e-02
-1.810630857944488525e-01
4.243482649326324463e-02
1.515975445508956909e-01
9.150019288063049316e-02
2.307214140892028809e-01
-2.214070260524749756e-01
-6.138651371002197266e-01
-1.141051352024078369e-01
2.215553224086761475e-01
-2.430823892354965210e-01
9.533947706222534180e-02
-1.839572489261627197e-01
2.487999014556407928e-02
4.655892401933670044e-02
-1.219741255044937134e-02
-4.205401986837387085e-02
2.441720813512802124e-01
-4.301210045814514160e-01
-1.175561174750328064e-01
8.052141964435577393e-02
6.146191433072090149e-02
3.920892998576164246e-02
4.142762348055839539e-02
3.590758442878723145e-01
-7.596749812364578247e-02
-2.909222841262817383e-01
-7.879050821065902710e-02
-2.739584445953369141e-01
1.893833875656127930e-01
2.598158083856105804e-02
6.930295377969741821e-02
-3.160657286643981934e-01
-1.085008680820465088e-01
-7.623075693845748901e-02
-1.119392812252044678e-01
2.219900190830230713e-01
1.261829305440187454e-02
-1.492720395326614380e-01
-2.811010479927062988e-01
1.054115071892738342e-01
6.292513012886047363e-02
1.066570803523063660e-01
1.035975664854049683e-01
1.846287250518798828e-01
-1.349178552627563477e-01
-1.483930349349975586e-01
1.822731792926788330e-01
7.033149898052215576e-02
1.381506770849227905e-01
9.265293180942535400e-02
7.398679107427597046e-02
2.643362879753112793e-01
1.628846973180770874e-01
-3.147184550762176514e-01
-1.710909605026245117e-01
-1.088023744523525238e-02
-1.633383147418498993e-02
1.623639464378356934e-01
-1.549426466226577759e-01
2.893936261534690857e-02
8.820820599794387817e-02
-1.694438308477401733e-01
-1.169544905424118042e-01
9.268084540963172913e-03
-2.258789539337158203e-01
3.671787679195404053e-02
-2.560704946517944336e-01
-3.396844863891601562e-01
4.048843979835510254e-01
1.396953463554382324e-01
-7.411329448223114014e-02
-2.214113436639308929e-02
-3.511826694011688232e-02
1.347759366035461426e-01
2.381036728620529175e-01
-1.859080791473388672e-01
-8.931560441851615906e-03
-2.719591856002807617e-01
-2.193244290538132191e-04
-1.849456503987312317e-02
2.235083580017089844e-01
-2.342467308044433594e-01
-6.624193191528320312e-01
1.430029571056365967e-01
-4.679047036916017532e-03
1.559651345014572144e-01
5.594772845506668091e-02
-1.235093995928764343e-01
-1.475496292114257812e-01
-2.212800532579421997e-01
1.968998275697231293e-02
2.586409151554107666e-01
3.199061453342437744e-01
3.980714678764343262e-01
-1.404879391193389893e-01
1.572157889604568481e-01
-3.060437273234128952e-03
2.058850377798080444e-01
2.262806594371795654e-01
-1.152659207582473755e-01
1.675383150577545166e-01
4.262195527553558350e-01
-1.606095731258392334e-01
-8.248236030340194702e-02
-6.849014759063720703e-02
-7.575773447751998901e-02
-1.496120989322662354e-01
4.763449355959892273e-02
-2.307414449751377106e-02
-2.405821532011032104e-01
-1.037375032901763916e-01
1.017160937190055847e-01
1.402693837881088257e-01
1.171729415655136108e-01
1.606285721063613892e-01
-1.261800378561019897e-01
1.633873768150806427e-02
-2.020169235765933990e-02
9.062244743108749390e-02
-1.101396419107913971e-02
-3.236151933670043945e-01
1.361936926841735840e-01
-2.056157216429710388e-02
-3.104383945465087891e-01
-2.736961469054222107e-02
4.271493479609489441e-02
-6.997635215520858765e-02
2.720314860343933105e-01
-1.112237125635147095e-01
1.329444795846939087e-01
-2.473381757736206055e-01
1.321862637996673584e-01
1.974088102579116821e-01
1.978443861007690430e-01
6.104886159300804138e-02
-1.148324385285377502e-01
1.783788800239562988e-01
-4.423342049121856689e-01
-2.667453289031982422e-01
1.706416606903076172e-01
1.226249188184738159e-01
-2.025055438280105591e-01
-4.367568492889404297e-01
3.907465636730194092e-01
1.280774474143981934e-01
7.664564251899719238e-02
2.121057361364364624e-02
-3.071773052215576172e-01
-3.554521873593330383e-02
1.725393086671829224e-01
-3.053163886070251465e-01
-3.473901748657226562e-01
3.065057396888732910e-01
1.494103521108627319e-01
-1.580735892057418823e-01
-7.034367322921752930e-02
-7.182393670082092285e-01
-6.228972971439361572e-02
7.159621268510818481e-02
1.033293083310127258e-01
9.552489221096038818e-02
1.305508911609649658e-01
4.713433235883712769e-02
-1.801170855760574341e-01
1.965465545654296875e-01
-9.241512417793273926e-02
1.800284087657928467e-01
-2.307871729135513306e-01
-3.114634454250335693e-01
-5.397927481681108475e-03
6.604305934160947800e-03
-2.439419925212860107e-01
-1.221139058470726013e-01
1.306985914707183838e-01
-5.254750698804855347e-02
-2.577987313270568848e-01
-1.121792271733283997e-01
-3.160754218697547913e-02
2.121288329362869263e-01
1.011124774813652039e-01
4.589892923831939697e-02
-4.641891419887542725e-01
-3.028767406940460205e-01
1.880069077014923096e-01
7.198349386453628540e-02
-4.591047018766403198e-02
1.860693991184234619e-01
8.405289798974990845e-02
1.340198516845703125e-01
-2.641939520835876465e-01
1.784024238586425781e-01
1.404637694358825684e-01
-1.704765260219573975e-01
-5.679765716195106506e-02
-3.248109295964241028e-02
-3.963202610611915588e-02
2.549630999565124512e-01
-1.152784749865531921e-01
2.509661614894866943e-01
-2.364903092384338379e-01
-4.985431209206581116e-02
-2.673551440238952637e-01
-3.088087737560272217e-01
-4.486349970102310181e-02
-1.633784472942352295e-01
2.347752302885055542e-01
7.322119921445846558e-02
-4.184780642390251160e-03
1.259361803531646729e-01
1.628287434577941895e-01
1.371660977602005005e-01
-1.809258162975311279e-01
-4.780775308609008789e-02
3.082833066582679749e-02
-2.544963955879211426e-01
5.063910037279129028e-02
-1.264831125736236572e-01
4.059958457946777344e-02
4.763622954487800598e-02
1.361062526702880859e-01
-2.351417094469070435e-01
5.138240382075309753e-02
-6.787125952541828156e-03
-2.128259986639022827e-01
2.884429693222045898e-01
2.425685822963714600e-01
-2.262804210186004639e-01
9.119202941656112671e-02
-7.468191534280776978e-02
-2.616749703884124756e-01
2.188149839639663696e-02
2.196245342493057251e-01
-3.132513761520385742e-01
2.475382387638092041e-01
-7.357626687735319138e-03
-2.111538201570510864e-01
1.014013215899467468e-01
5.337677896022796631e-03
6.231711246073246002e-03
6.758160889148712158e-02
1.400668621063232422e-01
1.134181022644042969e-01
-1.922363764606416225e-03
-2.357963174581527710e-01
4.816921800374984741e-02
-9.525644034147262573e-02
1.342629827558994293e-02
1.178368180990219116e-01
-9.515962004661560059e-02
9.185878187417984009e-02
-1.102908421307802200e-02
-5.888967961072921753e-02
-1.066519413143396378e-02
-1.352589279413223267e-01
-2.286725789308547974e-01
4.182608723640441895e-01
-8.535784482955932617e-02
4.231124371290206909e-02
-1.251866072416305542e-01
-9.581132978200912476e-02
4.719170276075601578e-03
7.470894604921340942e-02
-3.451692685484886169e-02
-2.282638289034366608e-02
3.206808492541313171e-02
-1.829604655504226685e-01
1.132613867521286011e-01
3.935832902789115906e-02
-1.607064008712768555e-01
-5.715155508369207382e-03
-2.296625524759292603e-01
-6.961436569690704346e-02
-9.533153474330902100e-02
-3.566854447126388550e-02
2.266643345355987549e-01
-1.948460340499877930e-01
-4.049907624721527100e-02
-4.087518528103828430e-02
-1.114133298397064209e-01
1.092603355646133423e-01
-2.954850792884826660e-01
1.279684454202651978e-01
-1.187034547328948975e-01
1.941059529781341553e-01
2.920344658195972443e-02
-1.437600106000900269e-01
-3.113785013556480408e-02
-1.266995370388031006e-01
4.434472694993019104e-02
-3.377604298293590546e-03
-2.769339364022016525e-03
-1.434411704540252686e-01
2.431474179029464722e-01
-5.251065269112586975e-02
-1.008759513497352600e-01
-2.757634818553924561e-01
-6.436286494135856628e-03
8.611055463552474976e-02
-3.696923702955245972e-02
1.261609941720962524e-01
-2.007701992988586426e-02
-2.648408152163028717e-02
-5.271790921688079834e-02
1.687669567763805389e-02
6.455445289611816406e-02
-2.575572580099105835e-02
-1.882314309477806091e-02
-4.503912106156349182e-02
4.887137096375226974e-03
1.366168027743697166e-03
-1.702146083116531372e-01
1.201200578361749649e-02
-6.348416209220886230e-02
7.356588542461395264e-02
-3.880424201488494873e-01
3.861706852912902832e-01
-1.334855854511260986e-01
-2.974363267421722412e-01
2.477596849203109741e-01
1.795957535505294800e-01
-1.056024730205535889e-01
-3.783557936549186707e-02
-2.151277214288711548e-01
1.633419394493103027e-01
1.204496175050735474e-01
2.080941498279571533e-01
2.414301037788391113e-01
6.033045426011085510e-02
1.029624417424201965e-01
1.762157529592514038e-01
2.930341958999633789e-01
-1.239932850003242493e-01
-1.477520316839218140e-01
1.925239264965057373e-01
2.458282709121704102e-01
-1.494895219802856445e-01
1.522837430238723755e-01
-1.446831673383712769e-01
2.328592538833618164e-01
-1.401119530200958252e-01
3.949898481369018555e-02
8.022146672010421753e-02
1.399323046207427979e-01
-1.163567453622817993e-01
-7.174326479434967041e-02
2.727397084236145020e-01
-3.480103611946105957e-02
2.267078906297683716e-01
-1.075884327292442322e-01
-2.007835358381271362e-01
8.548542112112045288e-02
-1.963548511266708374e-01
-2.455579042434692383e-01
2.808404266834259033e-01
1.086724549531936646e-01
4.182999581098556519e-02
-1.594622433185577393e-01
7.523140311241149902e-02
-1.992903053760528564e-01
-1.466195732355117798e-01
5.680112168192863464e-03
1.451134532690048218e-01
-4.011096954345703125e-01
2.911805808544158936e-01
-1.460284143686294556e-01
2.264938801527023315e-01
2.172150760889053345e-01
-2.189759314060211182e-01
7.566366344690322876e-02
-3.305306732654571533e-01
-1.754665076732635498e-01
-2.826993465423583984e-01
2.177265286445617676e-01
-6.381285190582275391e-01
-2.912257313728332520e-01
1.303534060716629028e-01
-2.651115655899047852e-01
-8.284254930913448334e-03
-8.122873306274414062e-02
-2.137170173227787018e-02
-6.322189420461654663e-02
2.361783236265182495e-01
-3.183559328317642212e-02
2.793161012232303619e-02
-6.487563252449035645e-02
8.957123011350631714e-02
-1.536238193511962891e-01
-3.326949775218963623e-01
2.564539313316345215e-01
-1.857432126998901367e-01
3.988817036151885986e-01
-3.875876069068908691e-01
-5.931601524353027344e-01
-1.990534663200378418e-01
-2.055844990536570549e-03
-1.740114092826843262e-01
5.123766511678695679e-02
1.246650144457817078e-01
4.605961218476295471e-02
8.628073334693908691e-02
1.486334055662155151e-01
-4.090366661548614502e-01
1.735417097806930542e-01
1.040382608771324158e-01
-6.070826575160026550e-02
-9.904259443283081055e-02
2.559936046600341797e-01
4.885370656847953796e-02
1.243027672171592712e-01
-4.907252639532089233e-02
7.145633548498153687e-02
5.092005804181098938e-02
2.868374343961477280e-03
3.486238420009613037e-02
2.087171822786331177e-01
3.727886080741882324e-01
-1.924086734652519226e-02
-1.982209831476211548e-01
-1.715291887521743774e-01
7.962764799594879150e-02
1.691886931657791138e-01
5.834946781396865845e-02
-3.373846411705017090e-01
3.729838505387306213e-02
-1.382585167884826660e-01
6.488759070634841919e-02
-1.309556365013122559e-01
1.479165852069854736e-01
2.226812839508056641e-01
-1.433158218860626221e-01
4.755062051117420197e-03
-1.455345898866653442e-01
-1.105008348822593689e-01
2.044387459754943848e-01
2.158841937780380249e-01
7.783637195825576782e-02
-7.384347170591354370e-02
9.222192317247390747e-02
-2.499758824706077576e-02
3.743257746100425720e-02
1.527540534734725952e-01
5.178115516901016235e-02
1.273855865001678467e-01
-2.945930138230323792e-02
1.757439374923706055e-01
1.828626096248626709e-01
1.271045356988906860e-01
6.391416490077972412e-02
7.148017734289169312e-02
-1.705552078783512115e-02
-1.534103602170944214e-01
2.974472343921661377e-01
-1.478344798088073730e-01
-2.706631124019622803e-01
1.676680147647857666e-02
1.396747957915067673e-02
-2.641963660717010498e-01
-6.942135095596313477e-02
5.628122761845588684e-02
1.271780580282211304e-01
-3.377290666103363037e-01
-2.616736590862274170e-01
2.985086739063262939e-01
4.187465831637382507e-02
-2.822183966636657715e-01
-2.058911472558975220e-01
-1.857768744230270386e-01
-2.638916075229644775e-01
-1.991691142320632935e-01
1.769278794527053833e-01
4.787486046552658081e-02
-2.993790991604328156e-02
2.387898266315460205e-01
6.856676191091537476e-02
2.898541688919067383e-01
-1.448813173919916153e-02
-1.109068542718887329e-01
1.334845125675201416e-01
-1.772952377796173096e-01
-3.421821296215057373e-01
-1.465949863195419312e-01
-2.512708604335784912e-01
-5.391933023929595947e-02
1.196066066622734070e-01
-7.554494775831699371e-03
1.582325696945190430e-01
9.481655806303024292e-02
1.046083495020866394e-01
-4.049548879265785217e-02
1.237731147557497025e-02
-4.186444580554962158e-01
4.125430062413215637e-02
1.990723311901092529e-01
3.336643576622009277e-01
1.048149242997169495e-01
3.949517309665679932e-01
-1.561066955327987671e-01
-3.542076349258422852e-01
-1.982441917061805725e-02
1.168846264481544495e-01
-2.172953039407730103e-01
-5.532056093215942383e-01
1.697632372379302979e-01
-4.649967420846223831e-03
-2.164382338523864746e-01
-6.489607691764831543e-02
-1.462667882442474365e-01
-3.812881652265787125e-03
6.409101188182830811e-02
-4.822931066155433655e-02
6.333801895380020142e-02
-3.180355951189994812e-02
2.062367647886276245e-01
-8.624178916215896606e-02
-1.377014536410570145e-02
-8.443371206521987915e-02
1.681086719036102295e-01
-4.725832343101501465e-01
8.226751536130905151e-02
6.005999073386192322e-02
3.769929111003875732e-01
8.584120869636535645e-02
4.334149137139320374e-02
3.866888955235481262e-02
2.126357704401016235e-02
-6.371563673019409180e-02
-5.758063793182373047e-01
9.851262718439102173e-02
-4.011917486786842346e-02
-2.631038427352905273e-01
3.250396251678466797e-02
-2.308085858821868896e-01
-2.580176293849945068e-01
-7.467481493949890137e-02
4.821369424462318420e-02
8.662813156843185425e-02
4.707563295960426331e-02
-3.080442547798156738e-02
-1.277797520160675049e-01
-9.739009290933609009e-02
2.599065378308296204e-02
2.727582678198814392e-02
3.379824012517929077e-02
-2.547309994697570801e-01
3.867153078317642212e-02
-2.656894549727439880e-02
3.980758041143417358e-02
-1.030594259500503540e-01
-1.983336657285690308e-01
2.723291218280792236e-01
-2.506171762943267822e-01
-7.735234219580888748e-03
1.997829079627990723e-01
2.517901957035064697e-01
-2.052493244409561157e-01
-8.699011802673339844e-02
-2.366614490747451782e-01
2.117448449134826660e-01
-8.544696867465972900e-02
5.342504940927028656e-03
7.926000654697418213e-02
2.524062395095825195e-01
5.861221253871917725e-02
-2.425651103258132935e-01
2.125294208526611328e-01
-1.716077178716659546e-01
-2.050765305757522583e-01
-2.854518294334411621e-01
-3.285839259624481201e-01
5.939188227057456970e-02
1.017189770936965942e-01
-1.243291720747947693e-01
-3.742895722389221191e-01
-4.291254654526710510e-02
1.412727236747741699e-01
-1.622346341609954834e-01
-2.235934585332870483e-01
-5.285793542861938477e-02
8.395593613386154175e-02
8.581490069627761841e-02
1.022687554359436035e-01
-2.892643809318542480e-01
5.314347147941589355e-02
-7.557650655508041382e-02
5.207437276840209961e-02
2.619520947337150574e-02
1.526335179805755615e-01
-3.270173668861389160e-01
1.144635863602161407e-02
-1.998572237789630890e-02
-2.976826727390289307e-01
1.104070097208023071e-01
-3.955492675304412842e-01
-2.145425081253051758e-01
3.655369207262992859e-02
-5.763882398605346680e-02
-5.427234992384910583e-02
-1.066795065999031067e-01
1.982741951942443848e-01
3.667894750833511353e-02
-2.216239869594573975e-01
-1.885866820812225342e-01
4.555124044418334961e-02
-3.813230395317077637e-01
-6.381478160619735718e-02
-3.395500481128692627e-01
-1.645170003175735474e-01
-3.017236590385437012e-01
4.113178700208663940e-02
-2.234029769897460938e-01
-3.164488822221755981e-02
-1.769859045743942261e-01
-3.372452408075332642e-02
-1.475680917501449585e-01
7.211011648178100586e-02
1.359111070632934570e-02
-4.343274049460887909e-03
-6.441491190344095230e-03
-4.168964028358459473e-01
4.039737954735755920e-02
-4.041736200451850891e-02
1.104272454977035522e-01
-1.837297715246677399e-02
1.611180230975151062e-02
1.807899586856365204e-02
8.583559095859527588e-02
-4.539997279644012451e-01
7.343878969550132751e-03
1.166606415063142776e-02
-7.077929377555847168e-02
-3.071913681924343109e-02
-4.297135863453149796e-03
2.020547837018966675e-01
3.998893499374389648e-02
-1.888712644577026367e-01
6.230763345956802368e-02
1.750274747610092163e-01
8.559887856245040894e-02
2.047972008585929871e-02
-2.380269914865493774e-01
-1.723458757624030113e-03
1.583420336246490479e-01
1.594058424234390259e-01
1.291753649711608887e-01
7.941138744354248047e-02
-1.393753737211227417e-01
-8.561190217733383179e-03
-2.623583078384399414e-01
3.309435248374938965e-01
2.048786878585815430e-01
-1.050580386072397232e-02
-2.220998704433441162e-01
-3.216611146926879883e-01
1.139050573110580444e-01
-1.093954220414161682e-01
-4.322050884366035461e-02
-1.241648867726325989e-01
-1.429980993270874023e-01
-8.754041045904159546e-02
-2.087320685386657715e-01
3.248354792594909668e-01
3.125500679016113281e-01
-2.403672486543655396e-01
-1.849135458469390869e-01
-9.431975334882736206e-02
-3.070062771439552307e-02
9.041478484869003296e-02
-1.179008185863494873e-01
2.707894742488861084e-01
-4.551766440272331238e-02
1.177376508712768555e-02
-3.823744831606745720e-03
-4.894044715911149979e-03
1.020024269819259644e-01
2.799443304538726807e-01
-5.779079720377922058e-02
2.893245518207550049e-01
-2.156779617071151733e-01
-6.156942620873451233e-02
9.622594714164733887e-02
1.869761967100203037e-03
-1.446334272623062134e-01
2.359919846057891846e-01
4.343388229608535767e-02
4.668886661529541016e-01
-1.912879049777984619e-01
1.570204198360443115e-01
-7.470399141311645508e-04
-1.362940669059753418e-01
9.835637174546718597e-04
-3.112740349024534225e-03
-2.465504705905914307e-01
1.786931157112121582e-01
-1.348451972007751465e-01
-3.989906311035156250e-01
-2.471864968538284302e-01
1.047687679529190063e-01
2.052526473999023438e-01
-1.057232394814491272e-01
-2.200154811143875122e-01
-2.294632792472839355e-01
-2.858645319938659668e-01
1.905479580163955688e-01
2.221411615610122681e-01
8.610174804925918579e-02
8.048319257795810699e-03
-3.391128182411193848e-01
-2.151279598474502563e-01
1.946810781955718994e-01
1.700857430696487427e-01
1.535114198923110962e-01
2.348056808114051819e-02
3.171823918819427490e-02
-2.325391024351119995e-01
2.064525634050369263e-01
-3.338613808155059814e-01
3.557085692882537842e-01
4.320204630494117737e-02
2.732692956924438477e-01
1.862293779850006104e-01
-8.148711919784545898e-02
4.189813882112503052e-02
-6.573211401700973511e-02
1.514307036995887756e-02
-4.869886860251426697e-02
8.640737086534500122e-02
1.595419645309448242e-01
-1.848133802413940430e-01
-5.257120728492736816e-02
2.353504598140716553e-01
1.794528514146804810e-01
1.531027704477310181e-01
-2.611744403839111328e-01
-1.550771594047546387e-01
-9.207142144441604614e-02
-5.411460995674133301e-03
-7.309523224830627441e-02
-1.456122249364852905e-01
-2.302889376878738403e-01
3.522882238030433655e-02
-1.081726178526878357e-01
-1.930047385394573212e-02
-1.492353975772857666e-01
-1.690645813941955566e-01
-3.176210820674896240e-02
-3.390602767467498779e-01
1.508756577968597412e-01
-5.423874258995056152e-01
-2.386853564530611038e-03
-1.974429339170455933e-01
-2.061275392770767212e-01
-3.375266194343566895e-01
-3.081408701837062836e-02
1.440113596618175507e-02
1.409804672002792358e-01
1.162753328680992126e-01
-3.416070342063903809e-01
-1.076203063130378723e-01
-5.011560022830963135e-02
1.124762520194053650e-01
-1.005105152726173401e-01
1.483202576637268066e-01
-1.441867649555206299e-01
1.156346127390861511e-01
2.230374142527580261e-02
-7.640346139669418335e-02
-6.419618427753448486e-02
-2.431583404541015625e-02
4.370662197470664978e-02
1.008373405784368515e-02
-3.284936845302581787e-01
-1.367415040731430054e-01
1.748672313988208771e-02
-7.141081988811492920e-02
-4.333885312080383301e-01
-2.417731136083602905e-01
1.113419979810714722e-01
-4.422513395547866821e-02
-1.442943662405014038e-01
1.150039210915565491e-01
-1.629458218812942505e-01
2.782742083072662354e-01
1.904664188623428345e-01
-7.785771042108535767e-03
2.098673433065414429e-01
-1.374864131212234497e-01
9.549018740653991699e-02
-2.413406074047088623e-01
2.732388377189636230e-01
-1.459466218948364258e-01
1.690667122602462769e-01
-8.206125348806381226e-02
6.384306121617555618e-03
-1.567571014165878296e-01
3.779563903808593750e-01
3.629582524299621582e-01
-1.900246292352676392e-01
5.945009365677833557e-02
1.270866207778453827e-02
-1.708150207996368408e-01
-1.994306743144989014e-01
-5.926891043782234192e-02
2.165151536464691162e-01
3.091672956943511963e-01
2.815327793359756470e-02
-2.185785323381423950e-01
-2.846398353576660156e-01
1.627032272517681122e-02
1.629234105348587036e-01
-9.718075394630432129e-02
1.118298545479774475e-01
-2.892911247909069061e-02
8.834102004766464233e-02
-5.289670228958129883e-01
1.712035685777664185e-01
-5.490477085113525391e-01
1.041786298155784607e-01
2.478535473346710205e-01
-3.166440427303314209e-01
9.621226787567138672e-02
-3.712741136550903320e-01
3.010575771331787109e-01
-1.730465590953826904e-01
-4.226113110780715942e-02
6.016051396727561951e-03
-1.169274970889091492e-01
-1.900387257337570190e-01
-2.450582981109619141e-01
2.895646989345550537e-01
-1.970838941633701324e-02
-2.763398587703704834e-01
-5.789740383625030518e-02
-2.619691491127014160e-01
-1.617634147405624390e-01
-2.187974900007247925e-01
9.541984647512435913e-02
2.260590195655822754e-01
-7.125994563102722168e-02
-1.535573452711105347e-01
6.786965578794479370e-02
-2.066235840320587158e-01
-1.088014105334877968e-03
-5.577076971530914307e-02
-1.139543280005455017e-01
-1.536611765623092651e-01
-1.447456330060958862e-01
-1.848951876163482666e-01
7.598353922367095947e-02
-7.874701917171478271e-02
-1.673166900873184204e-01
-1.734240353107452393e-01
2.608335018157958984e-01
5.394922103732824326e-03
8.029127493500709534e-03
5.362347513437271118e-02
9.755529463291168213e-02
5.192236602306365967e-02
-7.730655372142791748e-02
1.120883822441101074e-01
-1.492803841829299927e-01
-1.424028128385543823e-01
1.463138014078140259e-01
-2.389720529317855835e-01
2.510347366333007812e-01
-9.444872289896011353e-02
3.378682732582092285e-01
-2.091214507818222046e-01
-1.139690056443214417e-01
-2.217915952205657959e-01
-2.564761340618133545e-01
1.863721162080764771e-01
-2.360152304172515869e-01
2.490254491567611694e-02
2.625776827335357666e-01
-2.190941423177719116e-01
3.685457259416580200e-02
-1.443101763725280762e-01
-1.607088744640350342e-01
2.110294401645660400e-01
-7.569232583045959473e-02
1.760709732770919800e-01
-2.032722085714340210e-01
-7.924564182758331299e-02
-2.109727412462234497e-01
-2.129738181829452515e-01
1.525298506021499634e-01
-1.757100820541381836e-01
-1.517027020454406738e-01
3.744078576564788818e-01
-9.169866889715194702e-02
7.706833630800247192e-02
3.139779567718505859e-01
2.927730679512023926e-01
1.029726192355155945e-01
-3.944510966539382935e-02
-6.314019858837127686e-02
2.396690845489501953e-01
1.954641044139862061e-01
-9.694486856460571289e-02
1.256287992000579834e-01
-1.021109893918037415e-01
-5.597102642059326172e-01
2.592801451683044434e-01
2.554866373538970947e-01
2.980166673660278320e-01
-4.149887710809707642e-02
-8.903032541275024414e-02
5.206863954663276672e-02
-7.944086939096450806e-02
-2.018553316593170166e-01
-3.234624490141868591e-02
3.296470046043395996e-01
-2.915720045566558838e-01
-2.475272268056869507e-01
1.801290214061737061e-01
-1.412442326545715332e-01
4.760244861245155334e-02
-8.686759322881698608e-02
-4.422220215201377869e-02
1.559341400861740112e-01
-2.871651388704776764e-02
-1.056566368788480759e-02
-1.401482969522476196e-01
3.906406834721565247e-02
-1.258005052804946899e-01
1.678656637668609619e-01
-7.388324290513992310e-02
1.179477572441101074e-01
5.645462870597839355e-02
2.729753255844116211e-01
-1.935471445322036743e-01
2.711616642773151398e-02
1.248334124684333801e-01
-1.831230223178863525e-01
1.058721169829368591e-01
3.684800816699862480e-03
-1.071748062968254089e-01
2.406537383794784546e-01
2.844233810901641846e-02
-2.358256280422210693e-01
-5.086962133646011353e-02
2.489278279244899750e-02
-3.250044882297515869e-01
-3.359064087271690369e-02
-5.633006617426872253e-02
2.338205277919769287e-01
-1.460429131984710693e-01
2.750117778778076172e-01
-2.472749948501586914e-01
1.607506573200225830e-01
-7.204228639602661133e-02
-5.153361335396766663e-02
2.997673749923706055e-01
-1.381137371063232422e-01
-2.524840235710144043e-01
1.930205374956130981e-01
2.052977085113525391e-01
1.618912667036056519e-01
1.597493290901184082e-01
3.054820932447910309e-02
1.217840760946273804e-01
-6.066452711820602417e-02
-2.300164476037025452e-02
4.841203689575195312e-01
-9.688496589660644531e-02
2.669873535633087158e-01
-1.039458066225051880e-01
3.983155824244022369e-03
8.446743339300155640e-02
1.646439284086227417e-01
-2.497682273387908936e-01
2.488033026456832886e-01
-6.475779414176940918e-02
1.548615694046020508e-01
1.668179035186767578e-01
-4.137247428297996521e-02
7.005681097507476807e-02
5.260678753256797791e-02
2.262027114629745483e-01
2.616567313671112061e-01
2.304011955857276917e-02
-1.168272271752357483e-01
1.652498543262481689e-01
-8.804317563772201538e-02
-2.543532550334930420e-01
8.536671847105026245e-02
3.286023810505867004e-02
-1.511616706848144531e-01
-2.463872730731964111e-01
2.761918008327484131e-01
-6.642631292343139648e-01
1.645574271678924561e-01
3.187002539634704590e-01
9.055890142917633057e-02
-3.595482930541038513e-02
6.590455025434494019e-02
-1.546504199504852295e-01
-1.636919528245925903e-01
9.984374791383743286e-02
-2.884135544300079346e-01
1.238792389631271362e-01
1.401174217462539673e-01
9.103672206401824951e-02
1.799243092536926270e-01
-1.082988530397415161e-01
1.216076537966728210e-01
1.652893871068954468e-01
-1.214096769690513611e-01
2.038003951311111450e-01
4.883932694792747498e-02
1.803570687770843506e-01
7.751308381557464600e-02
2.388757467269897461e-02
2.605701424181461334e-02
-1.266021877527236938e-01
-3.208630383014678955e-01
1.269575860351324081e-02
1.354792118072509766e-01
-2.986550927162170410e-01
-1.761371940374374390e-01
2.240260690450668335e-01
-1.411737352609634399e-01
2.835938334465026855e-01
9.804037213325500488e-02
9.566739201545715332e-02
-2.951261959969997406e-02
-7.471543550491333008e-02
1.699667721986770630e-01
5.231480300426483154e-02
2.207228839397430420e-01
1.022180318832397461e-01
-3.457040339708328247e-02
1.157367005944252014e-01
9.549981355667114258e-02
2.246274054050445557e-01
-1.804486215114593506e-01
9.576272219419479370e-02
-3.067891672253608704e-02
-3.682472556829452515e-02
3.816916048526763916e-02
-9.703007340431213379e-02
2.702997066080570221e-02
2.246009111404418945e-01
2.358143962919712067e-02
-1.759909838438034058e-02
-2.345746159553527832e-01
8.396567404270172119e-02
-2.651105523109436035e-01
-8.986406028270721436e-02
2.743548750877380371e-01
-4.275334179401397705e-01
1.563846468925476074e-01
-5.643877666443586349e-03
2.300199717283248901e-01
9.618516266345977783e-02
1.396839171648025513e-01
-1.079297438263893127e-02
1.117891594767570496e-01
1.619809716939926147e-01
-2.970919311046600342e-01
6.273279897868633270e-03
-9.566585719585418701e-02
1.626079380512237549e-01
-9.825298935174942017e-02
-1.284465342760086060e-01
2.392468750476837158e-01
1.032601967453956604e-01
-8.217059820890426636e-02
-1.720078885555267334e-01
5.348577722907066345e-02
1.380723714828491211e-01
1.059466898441314697e-01
-2.586593031883239746e-01
-1.644906401634216309e-01
-3.621479868888854980e-02
-1.615789532661437988e-01
1.159141287207603455e-01
-1.343862095382064581e-04
-4.506866261363029480e-02
2.417265474796295166e-01
8.928909897804260254e-02
3.678188100457191467e-02
9.928055852651596069e-02
8.736541867256164551e-02
1.662415564060211182e-01
1.749324053525924683e-01
-6.897746026515960693e-02
-1.235659327358007431e-02
1.682289689779281616e-02
9.535266458988189697e-02
-1.232101544737815857e-01
2.006278745830059052e-02
-9.350585192441940308e-02
2.815505564212799072e-01
-6.222404539585113525e-02
3.244109079241752625e-02
-3.505825996398925781e-03
-5.265821814537048340e-01
9.792212396860122681e-03
4.529801383614540100e-02
-5.872925743460655212e-02
1.324794590473175049e-01
-2.133357077836990356e-01
-2.776060700416564941e-01
-1.016133949160575867e-01
2.256234586238861084e-01
6.982344388961791992e-02
7.988154143095016479e-02
-1.022596284747123718e-01
6.426125764846801758e-01
-4.637287557125091553e-01
5.967743322253227234e-02
-1.969148218631744385e-01
-1.320545822381973267e-01
-2.491589821875095367e-02
7.472530007362365723e-02
-7.063208520412445068e-02
2.152452617883682251e-01
2.567980438470840454e-02
-1.026984453201293945e-01
-3.372699320316314697e-01
2.013117969036102295e-01
-2.873105406761169434e-01
-2.700170874595642090e-01
-3.401445224881172180e-02
-1.296552568674087524e-01
1.138138473033905029e-01
-9.074283391237258911e-02
-1.381046045571565628e-02
1.234773397445678711e-01
-7.450330257415771484e-02
-7.150665670633316040e-02
-1.149775926023721695e-02
-2.062774151563644409e-01
-1.417556554079055786e-01
-1.557818502187728882e-01
-1.429707258939743042e-01
-3.623310923576354980e-01
8.386640809476375580e-03
-3.297182321548461914e-01
1.454185843467712402e-01
-2.807769179344177246e-01
-2.431202828884124756e-01
