-5.903156399726867676e-01
-3.321597576141357422e-01
3.695459961891174316e-01
-8.343141525983810425e-02
-5.957506299018859863e-01
-9.690847992897033691e-02
4.158031940460205078e-01
-7.228170037269592285e-01
-3.724201023578643799e-02
6.595212966203689575e-02
1.429220288991928101e-01
-1.789279431104660034e-01
4.145751297473907471e-01
3.089290112257003784e-02
1.473281085491180420e-01
3.379896581172943115e-01
3.088094592094421387e-01
-3.549454212188720703e-01
2.326629459857940674e-01
4.644513130187988281e-01
-2.531337440013885498e-01
3.587405383586883545e-01
-3.753913342952728271e-01
-5.932475328445434570e-01
-3.627795577049255371e-01
-2.636062204837799072e-01
-4.296655952930450439e-01
1.874969601631164551e-01
5.441281199455261230e-01
-6.450484991073608398e-01
3.506762683391571045e-01
2.648805081844329834e-01
-3.356205523014068604e-01
1.382768899202346802e-01
-2.376865595579147339e-01
3.268564641475677490e-01
3.346008360385894775e-01
-4.198024272918701172e-01
-5.180969834327697754e-02
-2.753688395023345947e-01
-5.055218338966369629e-01
-3.027300164103507996e-02
4.073596298694610596e-01
-5.466824173927307129e-01
2.278601229190826416e-01
-5.446775555610656738e-01
-4.732229709625244141e-01
-3.868476152420043945e-01
-7.743164151906967163e-02
-1.794485002756118774e-01
