4.209566414356231689e-01
1.855943948030471802e-01
6.007308959960937500e-01
-1.791439771652221680e+00
-1.476020067930221558e-01
-5.077561736106872559e-01
-3.047670423984527588e-01
9.157569408416748047e-01
-1.070726215839385986e-01
-5.007216930389404297e-01
4.747359752655029297e-01
-3.022829890251159668e-01
-3.134746253490447998e-01
3.604329228401184082e-01
2.058065384626388550e-01
-4.272359609603881836e-01
-3.531813621520996094e-01
-2.431502938270568848e-01
-1.327478289604187012e-01
1.993262767791748047e-01
2.648353874683380127e-01
3.267262578010559082e-01
2.450621277093887329e-01
-1.115355610847473145e+00
2.139067975804209709e-03
6.334963440895080566e-01
-2.148891538381576538e-01
4.990817606449127197e-01
1.375713348388671875e-01
-4.032024145126342773e-01
-2.473495006561279297e-01
-6.587499976158142090e-01
-2.557244300842285156e+00
2.598451077938079834e-01
-2.464533299207687378e-01
4.443148374557495117e-01
-4.059656858444213867e-01
-2.115600109100341797e+00
3.635265678167343140e-02
1.490039527416229248e-01
-9.638569504022598267e-02
-6.060008406639099121e-01
-1.486404895782470703e+00
3.715196251869201660e-02
1.911888420581817627e-01
6.544654965400695801e-01
8.116118907928466797e-01
2.042394876480102539e-01
-3.625899851322174072e-01
8.037382960319519043e-01
-8.384333848953247070e-01
-1.157748579978942871e+00
-7.731950283050537109e-02
6.042010784149169922e-01
1.747201532125473022e-01
7.775607705116271973e-02
-2.696519196033477783e-01
-4.576453208923339844e+00
4.437709152698516846e-01
3.194706141948699951e-01
8.692652732133865356e-02
-2.088703364133834839e-01
-8.370172381401062012e-01
-3.239197283983230591e-02
-6.401325762271881104e-02
-2.017752975225448608e-01
3.498033285140991211e-01
-5.352064967155456543e-01
-1.742587834596633911e-01
2.715159058570861816e-01
-4.271480441093444824e-01
-4.090806245803833008e-01
-5.266883373260498047e-01
-4.027154445648193359e-01
5.246149003505706787e-02
9.876013398170471191e-01
1.388903021812438965e+00
-6.007370352745056152e-01
-1.718424320220947266e+00
2.758037149906158447e-01
-6.139420866966247559e-01
-5.607412457466125488e-01
-5.227386951446533203e-01
4.898600876331329346e-01
4.079039692878723145e-01
-1.963940709829330444e-01
-1.490898609161376953e+00
-9.724898934364318848e-01
-4.159033894538879395e-01
9.825395792722702026e-02
1.606166213750839233e-01
5.294172167778015137e-01
-3.089085817337036133e-01
-3.260979354381561279e-01
-5.098303556442260742e-01
-7.230095267295837402e-01
-1.622923731803894043e+00
1.151361107826232910e+00
-1.520064026117324829e-01
7.238951325416564941e-01
3.180250823497772217e-01
7.772522419691085815e-02
-4.480974376201629639e-01
-1.584380716085433960e-01
1.502907872200012207e-01
-1.420096755027770996e+00
5.052394866943359375e-01
-5.112140774726867676e-01
-1.720474958419799805e-01
1.022754669189453125e+00
4.104984402656555176e-01
-2.717981040477752686e-01
-5.116974934935569763e-02
3.549240231513977051e-01
-1.704935133457183838e-01
-6.253889799118041992e-01
-3.734009340405464172e-03
-5.407772660255432129e-01
-1.189274191856384277e-01
2.642352283000946045e-01
1.188251152634620667e-01
-1.087654948234558105e+00
1.000964716076850891e-01
-5.479269474744796753e-02
-5.644096136093139648e-01
1.624413579702377319e-01
-4.394727349281311035e-01
-2.531231164932250977e+00
-1.576726287603378296e-01
-8.393052220344543457e-02
-2.980734407901763916e-02
-4.571447968482971191e-01
-2.863592207431793213e-01
-8.442741632461547852e-02
-1.001842737197875977e+00
-2.477584332227706909e-01
1.642232388257980347e-01
-3.608563244342803955e-01
5.346977710723876953e-01
-2.643486559391021729e-01
2.543758042156696320e-02
8.669754266738891602e-01
-1.703328847885131836e+00
1.277992222458124161e-02
2.943571805953979492e-01
-2.105385959148406982e-01
5.074470043182373047e-01
-3.402604341506958008e+00
-5.723636150360107422e-01
9.277638792991638184e-01
-4.721221923828125000e-01
1.288463592529296875e+00
-2.212856292724609375e+00
-5.299380421638488770e-01
-2.370300889015197754e-01
9.057300686836242676e-01
2.261944115161895752e-01
-5.625398159027099609e-01
-1.279977411031723022e-01
6.515204310417175293e-01
-5.859761834144592285e-01
2.720055282115936279e-01
-3.005534112453460693e-01
4.577352404594421387e-01
1.953213848173618317e-02
-3.911048173904418945e-01
-3.677338361740112305e-01
2.068703174591064453e-01
7.523643970489501953e-02
5.198274552822113037e-02
-1.313913464546203613e-01
9.564471989870071411e-02
-3.066013157367706299e-01
3.638114929199218750e-01
9.178311377763748169e-02
1.207375898957252502e-01
-3.009634017944335938e-01
3.460158109664916992e-01
7.479003630578517914e-03
1.505556851625442505e-01
-3.716689109802246094e+00
4.192385971546173096e-01
-1.126925826072692871e+00
4.478769302368164062e-01
-4.473730921745300293e-02
-2.075777389109134674e-02
-2.654562294483184814e-01
4.635392427444458008e-01
-9.240709245204925537e-02
1.974604874849319458e-01
4.958988726139068604e-02
4.737934768199920654e-01
-2.909572981297969818e-02
5.222320556640625000e-01
1.396316140890121460e-01
2.656690031290054321e-02
-2.604111135005950928e-01
5.560570582747459412e-02
3.937302827835083008e-01
2.087360173463821411e-01
6.098980307579040527e-01
3.195429742336273193e-01
-8.291331529617309570e-01
-6.492835283279418945e-02
-7.186099886894226074e-01
-1.654716730117797852e-01
-4.983174800872802734e-01
-6.741955280303955078e-01
-4.580094665288925171e-02
-4.175322353839874268e-01
-2.306621074676513672e+00
1.767140999436378479e-02
-3.909904658794403076e-01
1.189350709319114685e-01
-1.986736506223678589e-01
2.611350119113922119e-01
-3.238753080368041992e-01
-1.555757522583007812e-01
3.384791612625122070e-01
2.985188961029052734e-01
-5.674994587898254395e-01
-1.328398734331130981e-01
6.719390153884887695e-01
-1.429973125457763672e+00
3.124781847000122070e-01
3.338592052459716797e-01
-2.747313380241394043e-01
3.185491263866424561e-01
-3.503771126270294189e-01
1.638775318861007690e-02
9.818415045738220215e-01
-8.772933483123779297e-01
-1.617300510406494141e-01
5.324499607086181641e-01
-3.252232372760772705e-01
-1.767379492521286011e-01
-3.535158634185791016e-01
-2.449760675430297852e+00
5.378902554512023926e-01
6.589762568473815918e-01
-8.572825789451599121e-01
-7.090504169464111328e-01
1.128009438514709473e+00
3.063175380229949951e-01
2.294369339942932129e-01
-1.342173013836145401e-02
-5.359166115522384644e-02
3.531309962272644043e-01
-2.473000437021255493e-01
-1.334185060113668442e-02
