-4.737707972526550293e-02
-4.204318299889564514e-02
2.482643723487854004e-02
3.753756359219551086e-02
-2.250009402632713318e-02
3.582887351512908936e-02
1.319940201938152313e-02
2.321701683104038239e-02
-1.600801385939121246e-02
-2.082268893718719482e-02
-4.080982878804206848e-02
3.581810742616653442e-02
-1.404454559087753296e-02
3.887147456407546997e-02
3.873023390769958496e-02
8.488708175718784332e-03
1.987308030948042870e-03
4.405343439429998398e-03
-2.300220169126987457e-02
-3.555787354707717896e-02
2.278020977973937988e-02
1.002181787043809891e-02
-7.297562435269355774e-03
1.638255827128887177e-02
-2.654253691434860229e-02
4.908356815576553345e-02
2.402948960661888123e-02
-4.143164306879043579e-02
-2.180026285350322723e-02
-1.428886596113443375e-02
-1.133324764668941498e-02
2.458285912871360779e-02
3.694447875022888184e-02
2.804580843076109886e-03
2.400798350572586060e-02
-1.881521195173263550e-02
3.115297853946685791e-02
-3.403692506253719330e-03
5.133704096078872681e-02
-1.834305934607982635e-02
1.029097102582454681e-02
-7.278941106051206589e-03
-3.459905460476875305e-02
1.735980063676834106e-02
-2.168603800237178802e-02
-4.753215983510017395e-02
2.276937291026115417e-02
-8.908323943614959717e-03
-3.113722614943981171e-02
-2.018460631370544434e-02
-1.539555937051773071e-02
6.186777260154485703e-03
7.892081514000892639e-03
-3.766555339097976685e-02
5.564759299159049988e-02
-3.524782881140708923e-02
2.151919901371002197e-02
-1.643620990216732025e-02
4.410037770867347717e-03
1.876597106456756592e-02
2.087774313986301422e-02
-1.935380883514881134e-02
1.129256375133991241e-02
9.596408344805240631e-03
-6.827155593782663345e-03
7.529603317379951477e-03
4.469206184148788452e-02
-4.125063121318817139e-02
2.546944469213485718e-02
-1.714024133980274200e-02
-1.814622431993484497e-02
-1.976631581783294678e-02
5.453144758939743042e-02
-2.769930753856897354e-03
8.239343762397766113e-03
-2.762017026543617249e-02
-4.632572829723358154e-02
6.309638731181621552e-03
-2.117982320487499237e-02
-2.619689516723155975e-02
-1.454805396497249603e-02
-2.227826230227947235e-02
8.588755503296852112e-03
1.444906461983919144e-02
-4.699091240763664246e-02
-2.440667711198329926e-02
1.041758712381124496e-02
-2.720529155340045691e-04
-1.471606921404600143e-02
-8.076291531324386597e-03
4.672772251069545746e-03
2.956126444041728973e-02
-1.982965134084224701e-02
-2.860606648027896881e-03
-1.601465046405792236e-02
2.797540510073304176e-03
-2.261290326714515686e-02
1.866621524095535278e-02
1.211651042103767395e-02
2.050028368830680847e-02
-3.197787329554557800e-02
2.136710658669471741e-02
-6.020492315292358398e-02
-4.825349897146224976e-02
-1.180354580283164978e-01
2.694741636514663696e-02
-4.431298747658729553e-02
-5.723241483792662621e-04
-1.537224510684609413e-03
-3.477481380105018616e-02
2.202639169991016388e-02
7.380757597275078297e-04
1.432780059985816479e-03
-9.038503468036651611e-02
1.461241021752357483e-02
-6.336928904056549072e-02
-5.246682837605476379e-02
-4.963054507970809937e-02
5.260339006781578064e-02
-1.095364242792129517e-01
1.264729257673025131e-02
4.362765699625015259e-02
-1.873195543885231018e-02
-2.078387141227722168e-02
1.163067016750574112e-02
1.896121772006154060e-03
5.124101415276527405e-03
6.250324193388223648e-03
6.775662302970886230e-03
3.018675372004508972e-02
-1.655778847634792328e-02
-8.235173672437667847e-02
4.385229572653770447e-02
-1.624402776360511780e-02
2.168159559369087219e-02
-7.255242019891738892e-02
7.984934002161026001e-02
1.951055787503719330e-02
-3.983133006840944290e-03
3.084700554609298706e-02
2.902457676827907562e-02
3.619341179728507996e-02
-1.452377298846840858e-03
1.614175550639629364e-02
4.730540886521339417e-02
-4.007771983742713928e-02
-4.434533789753913879e-02
2.571946941316127777e-02
-3.240245208144187927e-02
-7.570273708552122116e-03
6.783057749271392822e-02
-1.122141852974891663e-01
9.379459917545318604e-02
-8.619721978902816772e-03
1.838054358959197998e-01
1.271071285009384155e-01
1.391738504171371460e-01
6.141735240817070007e-02
-9.350297600030899048e-02
-5.169460177421569824e-02
2.696065930649638176e-03
-3.558116406202316284e-02
1.932617649435997009e-02
-1.712537743151187897e-02
-2.386985905468463898e-02
1.888725161552429199e-02
6.437461823225021362e-03
-7.159578055143356323e-02
-4.078291356563568115e-02
1.049869880080223083e-02
2.715436974540352821e-03
4.779052734375000000e-02
1.167731508612632751e-01
-7.820793986320495605e-02
5.066800490021705627e-02
6.012571230530738831e-02
6.398224830627441406e-02
7.311608642339706421e-02
9.017531573772430420e-02
1.099928468465805054e-01
3.335257992148399353e-02
-1.039037853479385376e-02
-3.710824623703956604e-02
1.174538657069206238e-01
7.061850279569625854e-02
