6.553147733211517334e-02
-5.103253126144409180e-01
5.294705033302307129e-01
3.978441953659057617e-01
5.071123242378234863e-01
4.888242483139038086e-02
-1.542530804872512817e-01
-1.073255240917205811e-01
3.433474898338317871e-01
5.441194027662277222e-02
-4.345371723175048828e-01
-2.660361491143703461e-02
3.315688073635101318e-01
5.189656615257263184e-01
-6.253962963819503784e-02
5.629904568195343018e-02
-1.103096529841423035e-01
-4.963314831256866455e-01
3.696429133415222168e-01
9.026273339986801147e-02
2.949403822422027588e-01
-4.210872352123260498e-01
5.660861730575561523e-02
-4.002153873443603516e-02
5.736460089683532715e-01
-2.822519540786743164e-01
-6.630892306566238403e-02
-5.136371254920959473e-01
-1.776619553565979004e-01
1.871716529130935669e-01
-7.597353309392929077e-02
-2.109141796827316284e-01
1.682888120412826538e-01
-2.564951777458190918e-01
-1.717261672019958496e-01
1.568176895380020142e-01
-1.820311993360519409e-01
1.318410038948059082e-01
1.108079254627227783e-01
1.161551219411194324e-03
4.851961135864257812e-02
-5.083013176918029785e-01
3.964647650718688965e-02
1.169638410210609436e-01
2.320811618119478226e-03
-5.075890943408012390e-02
1.401285380125045776e-01
-1.628723740577697754e-01
3.303869366645812988e-01
-4.721553251147270203e-02
3.346391022205352783e-01
-9.876951575279235840e-02
-5.367028713226318359e-02
1.262049973011016846e-01
-3.403759598731994629e-01
-6.165994703769683838e-02
-5.270237922668457031e-01
-1.833305209875106812e-01
-3.205671310424804688e-01
3.848229767754673958e-03
-3.771128654479980469e-01
-1.196743175387382507e-01
1.712132841348648071e-01
-5.386022478342056274e-02
2.820332944393157959e-01
-6.747374534606933594e-01
9.560906141996383667e-02
-9.535309672355651855e-02
-3.260663747787475586e-01
1.341209262609481812e-01
-3.901433944702148438e-01
1.707830280065536499e-01
3.672726824879646301e-02
-2.371229827404022217e-01
6.440585106611251831e-02
-1.196784377098083496e+00
2.273982465267181396e-01
-1.484050035476684570e+00
-2.671916723251342773e+00
-1.791257619857788086e+00
-1.546095311641693115e-01
-2.778841368854045868e-02
-1.600648909807205200e-01
-1.051687479019165039e+00
-2.587404549121856689e-01
-6.706151962280273438e-01
-7.718485832214355469e+00
-1.717985272407531738e+00
-3.036518767476081848e-02
-5.683380365371704102e-01
-1.579670667648315430e+00
-1.503514051437377930e+00
1.999564468860626221e-01
-8.998495936393737793e-01
-2.046190053224563599e-01
-6.358752250671386719e-01
-5.311928391456604004e-01
-8.771186321973800659e-02
3.046656250953674316e-01
-2.191228419542312622e-01
7.699665427207946777e-02
2.024909555912017822e-01
-1.042293086647987366e-01
-2.634971141815185547e-01
-1.112414717674255371e+00
2.119577117264270782e-02
3.616992756724357605e-02
-9.500455111265182495e-02
-1.345320701599121094e+00
-2.421672642230987549e-02
3.521858751773834229e-01
2.840558066964149475e-02
2.440919913351535797e-02
-5.618453621864318848e-01
-1.376649141311645508e-01
2.550276368856430054e-02
1.344569176435470581e-01
-5.636120215058326721e-02
-1.772435158491134644e-01
-5.720837712287902832e-01
2.866931855678558350e-01
-2.884975373744964600e-01
-6.341602206230163574e-01
2.674256563186645508e-01
-9.349811077117919922e-01
-1.000082254409790039e+00
-2.207430601119995117e-01
-1.833169221878051758e+00
-1.911613494157791138e-01
-3.385514616966247559e-01
1.612166315317153931e-01
-7.229415327310562134e-02
4.056003391742706299e-01
-3.104360103607177734e-01
-4.870036840438842773e-01
-4.882878780364990234e+00
2.364916205406188965e-01
4.054581280797719955e-03
7.401636838912963867e-01
1.381313502788543701e-01
-2.717631459236145020e-01
3.694267868995666504e-01
2.754633724689483643e-01
-2.170083522796630859e+00
2.474115937948226929e-01
1.559751927852630615e-01
-6.090433523058891296e-02
-1.344909667968750000e-01
1.030150204896926880e-01
-9.113015532493591309e-01
6.917079538106918335e-02
-9.139585494995117188e-02
-1.306432008743286133e+00
5.851287841796875000e-01
-9.622133374214172363e-01
3.711665421724319458e-02
-6.267663836479187012e-02
4.206296503543853760e-01
1.323345005512237549e-01
-7.802941650152206421e-02
-2.776529192924499512e-01
-1.736629456281661987e-01
2.928045392036437988e-01
-1.999328851699829102e+00
1.774479448795318604e-01
5.921465754508972168e-01
5.074288845062255859e-01
-5.800603330135345459e-02
-2.640823423862457275e-01
2.682017683982849121e-01
1.922368071973323822e-02
-4.964286327362060547e+00
5.667812749743461609e-02
-3.841897472739219666e-02
2.126601040363311768e-01
-1.779747754335403442e-01
1.192413866519927979e-01
-1.772309839725494385e-01
-1.405881047248840332e+00
2.630912326276302338e-02
-4.842172861099243164e-01
-5.044540762901306152e-01
-1.943890005350112915e-01
-1.296721398830413818e-01
-1.033014178276062012e+00
2.488811761140823364e-01
-1.431689709424972534e-01
-1.676963120698928833e-01
-1.458069801330566406e+00
-2.871332466602325439e-01
-2.652376592159271240e-01
-1.142706051468849182e-01
5.577291846275329590e-01
-2.267704486846923828e+00
-2.404199838638305664e-01
-3.181010484695434570e+00
-7.740477472543716431e-02
-9.975244998931884766e-01
1.940995901823043823e-01
1.342474520206451416e-01
7.820356488227844238e-01
-5.494720339775085449e-01
5.125069990754127502e-02
5.992613434791564941e-01
-2.569901943206787109e-01
8.211898803710937500e-02
-1.159527823328971863e-01
1.495870351791381836e-01
-1.683213591575622559e+00
-1.106555610895156860e-01
-5.137157440185546875e-01
-2.439900189638137817e-01
1.769134551286697388e-01
-3.156709969043731689e-01
1.256474293768405914e-02
4.834138453006744385e-01
-3.156054913997650146e-01
-3.932587802410125732e-01
-4.824527204036712646e-01
-1.889356523752212524e-01
-4.499672055244445801e-01
-4.751882255077362061e-01
-5.542777013033628464e-03
-2.410568296909332275e-01
-2.183560848236083984e+00
2.718430459499359131e-01
-1.413103044033050537e-01
-2.157167904078960419e-02
2.075662016868591309e-01
2.056587934494018555e-01
-4.833213686943054199e-01
2.106656581163406372e-01
-4.654568433761596680e-01
3.583355545997619629e-01
-1.810824424028396606e-01
4.182936251163482666e-01
6.965588927268981934e-01
1.335141956806182861e-01
-1.386897731572389603e-02
2.871350646018981934e-01
-1.978695020079612732e-02
3.272514939308166504e-01
-2.691191807389259338e-02
3.277935683727264404e-01
-4.151582717895507812e+00
-1.627698838710784912e-01
1.310644000768661499e-01
7.944132387638092041e-02
1.464646607637405396e-01
-1.857849121093750000e+00
7.262315750122070312e-01
9.312365949153900146e-02
3.983095288276672363e-01
-8.088239431381225586e-01
-4.157510995864868164e-01
-6.049213930964469910e-02
2.152771875262260437e-02
-2.185168117284774780e-01
1.139522567391395569e-01
3.022833466529846191e-01
1.114234030246734619e-01
-5.108026266098022461e-01
-3.279338479042053223e-01
-1.852988749742507935e-01
-4.050243645906448364e-02
-6.439453959465026855e-01
1.316473931074142456e-01
1.182930245995521545e-01
-1.364033785648643970e-03
-4.588383436203002930e-01
1.548026036471128464e-02
5.217313766479492188e-01
-2.722798846662044525e-02
8.068411797285079956e-02
-1.208568364381790161e-01
-1.619772017002105713e-01
5.263692140579223633e-02
-3.063727617263793945e-01
-1.216405928134918213e-01
-1.778741002082824707e+00
-7.606528699398040771e-02
5.875886976718902588e-02
5.926956422626972198e-03
-3.254310786724090576e-01
-4.305796325206756592e-01
2.532207667827606201e-01
2.113582789897918701e-01
-4.547773897647857666e-01
-3.045355081558227539e-01
-2.196667343378067017e-01
-1.949160248041152954e-01
-2.160557508468627930e-01
5.049234628677368164e-02
-6.358372420072555542e-02
-2.150408774614334106e-01
-2.933919131755828857e-01
-2.846531569957733154e-01
-3.975361958146095276e-02
4.338235035538673401e-02
-5.113314837217330933e-02
5.703112110495567322e-02
9.233407974243164062e-01
-3.937397897243499756e-02
2.828412950038909912e-01
-1.511483043432235718e-01
9.456337243318557739e-02
-7.810443639755249023e-02
-1.713393032550811768e-01
-1.821243762969970703e-01
-5.931149795651435852e-02
4.170599877834320068e-01
6.949791908264160156e-01
-2.180840373039245605e-01
-7.042817473411560059e-01
-1.798492819070816040e-01
4.406339228153228760e-01
1.588203161954879761e-01
1.807876080274581909e-01
5.244757533073425293e-01
1.365555673837661743e-01
-1.072304964065551758e+00
3.165129125118255615e-01
1.700877994298934937e-01
-4.385685324668884277e-01
-2.450357675552368164e+00
3.558259084820747375e-02
-3.023459576070308685e-02
6.742735859006643295e-03
1.292982995510101318e-01
1.287762075662612915e-02
-4.187498241662979126e-02
-3.473554924130439758e-02
7.357576396316289902e-04
7.563876360654830933e-02
7.585149724036455154e-04
-5.226723849773406982e-02
-3.423894941806793213e-02
-3.582018241286277771e-02
-6.736622750759124756e-02
4.657929390668869019e-02
1.260406225919723511e-01
1.210250630974769592e-01
-5.696072056889533997e-02
8.394476026296615601e-02
-7.002035528421401978e-02
8.844786323606967926e-03
-3.244345486164093018e-01
4.585491865873336792e-02
-2.306275069713592529e-02
2.174386754631996155e-02
4.230330232530832291e-03
1.011227145791053772e-01
5.999082699418067932e-02
4.040468484163284302e-02
-2.897746562957763672e-01
1.438099294900894165e-01
8.047978579998016357e-02
-3.061604499816894531e-01
9.761171042919158936e-02
-1.068007349967956543e-01
7.061431556940078735e-02
-3.139293670654296875e+00
2.686205506324768066e-01
-1.105611324310302734e+00
-1.087088510394096375e-01
-1.708325028419494629e+00
-7.115744948387145996e-01
1.110411211848258972e-01
-1.323840498924255371e+00
-9.842985868453979492e-01
-1.716825738549232483e-02
-4.780725240707397461e-01
-1.248957663774490356e-01
3.863833472132682800e-02
-2.667519450187683105e-01
-1.090502619743347168e+00
2.556871771812438965e-01
-5.932193398475646973e-01
6.663852930068969727e-02
-2.173160463571548462e-01
-1.384351611137390137e+00
4.605412483215332031e-01
4.899437725543975830e-02
4.329204857349395752e-01
-8.409155905246734619e-02
-1.410072207450866699e+00
-1.889145970344543457e-01
3.815582022070884705e-02
-1.686130881309509277e+00
2.605685293674468994e-01
-4.006235599517822266e-01
-1.949465274810791016e-01
1.246006712317466736e-01
2.673786580562591553e-01
-8.804069519042968750e+00
6.379282474517822266e-02
-4.648277163505554199e-01
-5.245293974876403809e-01
-9.363796114921569824e-01
-3.231071233749389648e+00
-9.966544508934020996e-01
1.592785418033599854e-01
-4.676164314150810242e-02
-3.215817809104919434e-01
2.145636826753616333e-01
4.051547124981880188e-02
-2.553548663854598999e-02
-8.226057291030883789e-01
7.238018512725830078e-02
-1.787281513214111328e+00
-2.565520107746124268e-01
-1.287455111742019653e-02
-7.676406502723693848e-01
-3.945924341678619385e-02
2.032403647899627686e-01
-7.087329030036926270e-01
-9.221019148826599121e-01
5.089963674545288086e-01
2.176506966352462769e-01
1.322771329432725906e-02
-1.089493870735168457e+00
-1.015868902206420898e+00
1.587259322404861450e-01
-3.016525208950042725e-01
-2.356113493442535400e-01
3.613448739051818848e-01
1.852684766054153442e-01
-1.858822405338287354e-01
-1.619053930044174194e-01
-1.819418966770172119e-01
-8.798203468322753906e-01
-3.207758069038391113e-02
2.146244049072265625e-01
1.124825477600097656e-01
3.855689465999603271e-01
-3.282878398895263672e+00
-1.316205114126205444e-01
6.037690639495849609e-01
-7.414601445198059082e-01
-1.409975159913301468e-02
-6.675336509943008423e-02
8.863583803176879883e-01
1.287450492382049561e-01
3.058197498321533203e-01
-1.425573676824569702e-01
2.241669455543160439e-03
-3.212811648845672607e-01
8.029932528734207153e-02
-2.814705073833465576e-01
2.062275111675262451e-01
-1.827109605073928833e-01
9.313994050025939941e-01
-1.984688043594360352e-01
3.309387564659118652e-01
-4.994458258152008057e-01
-4.539298713207244873e-01
-2.835352718830108643e-02
7.743542194366455078e-01
-1.175747394561767578e+00
-2.039763182401657104e-01
1.098788976669311523e+00
2.947965264320373535e-01
1.378559947013854980e+00
-3.354109823703765869e-01
-3.394675552845001221e-01
3.837442696094512939e-01
-9.704787135124206543e-01
7.522554397583007812e-01
3.694860041141510010e-01
-5.337578654289245605e-01
2.076099254190921783e-02
5.768389701843261719e-01
-2.181680649518966675e-01
-1.898200958967208862e-01
-3.960570991039276123e-01
3.940849900245666504e-01
-9.504941105842590332e-01
1.207521744072437286e-02
3.397817015647888184e-01
7.794718742370605469e-01
-1.722509026527404785e+00
-3.654413223266601562e-01
1.110599264502525330e-01
-1.069856047630310059e+00
3.296785755082964897e-03
3.386740982532501221e-01
-6.476037502288818359e-01
3.720000088214874268e-01
1.583118140697479248e-01
-4.496524631977081299e-01
-8.067480325698852539e-01
-9.615181684494018555e-01
-1.018321156501770020e+00
9.301850944757461548e-02
-2.672421932220458984e-01
-3.146452903747558594e-01
2.367261201143264771e-01
1.288887858390808105e-01
-1.543638408184051514e-01
-5.610187053680419922e-01
5.394255518913269043e-01
8.953429758548736572e-02
-5.766462162137031555e-02
-1.867253541946411133e+00
-2.679274417459964752e-02
-4.390550032258033752e-02
1.202192530035972595e-02
1.047269906848669052e-02
-1.433624029159545898e-01
-3.534378483891487122e-02
1.054444536566734314e-01
-6.121483445167541504e-02
-1.375993937253952026e-01
-6.612437367439270020e-01
-1.437442600727081299e-01
-1.553135633468627930e+00
-3.684089779853820801e-01
9.044706076383590698e-02
-2.001434862613677979e-01
-5.283146165311336517e-03
2.612932026386260986e-02
2.344909012317657471e-01
-4.451370611786842346e-02
8.380128443241119385e-02
-1.485558897256851196e-01
-9.576766937971115112e-02
2.177644520998001099e-02
-1.683095097541809082e+00
-2.433408349752426147e-01
-4.657591879367828369e-01
2.996310777962207794e-02
-3.779308637604117393e-03
-4.926804900169372559e-01
-4.220407009124755859e-01
-5.170902609825134277e-02
3.494338691234588623e-02
-2.781429290771484375e-01
-9.862176775932312012e-01
-2.679801285266876221e-01
-6.037879362702369690e-02
2.253306284546852112e-02
-1.186022683978080750e-01
-1.350518409162759781e-02
-5.277176201343536377e-02
4.742869362235069275e-02
-1.965109631419181824e-02
-9.233680367469787598e-01
-1.714192144572734833e-02
4.728038981556892395e-02
-5.816308259963989258e-01
1.381500959396362305e-01
-2.059972845017910004e-03
1.725824177265167236e-01
3.225443065166473389e-01
2.168647944927215576e-01
-2.417016476392745972e-01
2.282400727272033691e-01
-5.583981871604919434e-01
-8.841618299484252930e-01
9.540366940200328827e-03
7.861341834068298340e-01
3.578762412071228027e-01
3.970411792397499084e-02
-5.636244416236877441e-01
1.867924034595489502e-01
8.026199936866760254e-01
3.491636514663696289e-01
-5.599923431873321533e-02
1.684185117483139038e-01
-1.020847335457801819e-01
-2.689682878553867340e-03
4.126116037368774414e-01
-1.019463129341602325e-02
1.539013236761093140e-01
-1.502407073974609375e+00
-3.121815323829650879e-01
5.817826390266418457e-01
-3.452703952789306641e-01
-3.756679594516754150e-01
-1.037632942199707031e+00
-2.767561562359333038e-02
-4.954247176647186279e-02
-1.548241674900054932e-01
8.816137164831161499e-02
-5.724129676818847656e-01
2.269677668809890747e-01
-1.106235608458518982e-01
-1.034616678953170776e-01
-8.493753671646118164e-01
1.123237758874893188e-01
-1.153886616230010986e-01
-1.991905719041824341e-01
1.300294995307922363e-01
-8.254915475845336914e-01
-1.703658699989318848e-01
-3.710012882947921753e-02
5.434254929423332214e-02
-3.206915259361267090e-01
-4.539942443370819092e-01
3.626926243305206299e-01
-6.952492147684097290e-02
5.470222234725952148e-02
5.414968132972717285e-01
-3.401162624359130859e-01
-4.858785495162010193e-02
6.320408731698989868e-02
1.915504783391952515e-02
-5.078733563423156738e-01
-1.474657207727432251e-01
-2.299167774617671967e-02
1.904593259096145630e-01
-1.546563021838665009e-02
-1.915195286273956299e-01
-3.049324154853820801e-01
-2.345292270183563232e-01
-4.114206433296203613e-01
-3.479503393173217773e-01
1.383289135992527008e-02
-1.503396630287170410e-01
-1.954182684421539307e-01
3.992044925689697266e-02
-3.534501492977142334e-01
-6.556250900030136108e-02
9.138596057891845703e-02
-6.162290573120117188e-01
-3.390424549579620361e-01
3.192416951060295105e-02
2.248942619189620018e-04
-4.104726389050483704e-02
-3.826991319656372070e-01
-1.624927856028079987e-02
-1.051877904683351517e-02
6.621028482913970947e-02
-1.825805157423019409e-01
-2.370225265622138977e-02
6.388029456138610840e-02
-4.724543914198875427e-02
-6.220280192792415619e-03
-6.488995999097824097e-02
-9.472294896841049194e-02
1.590677499771118164e-01
-7.877680659294128418e-02
1.857199892401695251e-02
-1.728397309780120850e-01
1.680407673120498657e-01
2.207301184535026550e-02
-3.737120032310485840e-01
-1.699366234242916107e-02
5.424525588750839233e-02
-1.043207645416259766e-01
-2.547309994697570801e-01
2.897746860980987549e-02
-2.656894549727439880e-02
5.113832652568817139e-02
-1.030594259500503540e-01
-1.545472145080566406e-01
2.887369990348815918e-01
-2.506171762943267822e-01
-3.561078105121850967e-03
2.211254835128784180e-01
2.566334605216979980e-01
-2.403533756732940674e-01
-8.257554471492767334e-02
-2.366614490747451782e-01
2.089763879776000977e-01
-7.514303177595138550e-02
5.310686770826578140e-03
7.926000654697418213e-02
2.456766963005065918e-01
8.867405354976654053e-02
-2.482317686080932617e-01
2.125455588102340698e-01
-1.635282337665557861e-01
-2.224940061569213867e-01
-2.854518294334411621e-01
-1.710318326950073242e-01
3.852545842528343201e-02
-1.298754513263702393e-01
7.281143069267272949e-01
-2.980935275554656982e-01
-8.730085100978612900e-04
-1.818631961941719055e-02
1.642280817031860352e-02
-2.189179807901382446e-01
1.823575347661972046e-01
1.324377059936523438e-01
-5.584301427006721497e-02
2.358985505998134613e-02
-1.917346119880676270e-01
-1.113147959113121033e-01
-3.706553876399993896e-01
-2.069340199232101440e-01
2.437426522374153137e-02
-1.878798604011535645e-01
-2.105542086064815521e-02
1.167666912078857422e-02
5.871373042464256287e-02
-1.534061413258314133e-02
5.804247036576271057e-02
-4.971499741077423096e-01
-1.750789731740951538e-01
3.884508088231086731e-02
-5.763882398605346680e-02
-4.114698618650436401e-02
-5.808543041348457336e-02
1.894292533397674561e-01
7.348893582820892334e-02
-2.216239869594573975e-01
-1.886738538742065430e-01
4.836177825927734375e-02
-4.081330597400665283e-01
-3.338732197880744934e-02
-3.507272601127624512e-01
-1.645170003175735474e-01
-2.978900372982025146e-01
4.117486625909805298e-02
-2.234029769897460938e-01
-2.988923341035842896e-02
-2.039820402860641479e-01
-3.984214738011360168e-02
-1.260252296924591064e-01
7.211011648178100586e-02
8.066974580287933350e-02
-2.225973643362522125e-03
-5.335161462426185608e-03
-5.262239649891853333e-02
6.470177322626113892e-02
-3.478882014751434326e-01
-4.821757376194000244e-01
2.654281556606292725e-01
6.325888633728027344e-02
5.276313051581382751e-03
-5.005713701248168945e-01
-2.598984837532043457e-01
6.497762352228164673e-02
2.605244219303131104e-01
5.961499735713005066e-02
-2.688317298889160156e-01
-1.884721875190734863e+00
-2.565616369247436523e-01
-1.618976235389709473e+00
-3.233210742473602295e-01
1.405413914471864700e-02
-1.264198422431945801e+00
-1.448277384042739868e-01
9.330629371106624603e-03
8.854752779006958008e-02
-7.621065527200698853e-02
8.550578355789184570e-02
-1.888637393712997437e-01
-6.202095001935958862e-02
-2.548641681671142578e+00
-1.541989088058471680e+00
-2.345698773860931396e-01
-5.180915817618370056e-02
2.220371365547180176e-01
2.125715836882591248e-02
-1.136018112301826477e-01
-5.802717804908752441e-01
-9.838389754295349121e-01
-6.232535243034362793e-01
-3.132191300392150879e-01
1.945276111364364624e-01
-1.532631158828735352e+00
-1.501298546791076660e+00
-3.821125626564025879e-02
1.811187416315078735e-01
8.240133523941040039e-01
4.611078798770904541e-01
-5.399436950683593750e-01
-5.264092683792114258e-01
-1.075938105583190918e+00
-5.626621842384338379e-02
-8.282916247844696045e-02
3.712019026279449463e-01
-1.397071592509746552e-02
9.087882190942764282e-02
-1.626404672861099243e-01
-6.716623306274414062e-01
1.695454716682434082e-01
1.101771965622901917e-01
-1.144863292574882507e-01
-3.739314973354339600e-01
5.259916931390762329e-02
-9.314352273941040039e-02
-2.909551858901977539e-01
3.862233087420463562e-02
1.903591752052307129e-01
3.193086013197898865e-02
-2.173875570297241211e-01
-1.087393164634704590e+00
-1.638464927673339844e-01
-1.292300224304199219e+00
-2.147518992424011230e-01
1.229373663663864136e-01
8.538434654474258423e-02
-5.470328330993652344e-01
-1.946022361516952515e-01
-1.120188385248184204e-01
-7.918065190315246582e-01
9.574000537395477295e-02
-9.021139144897460938e-01
5.799169465899467468e-02
1.577481180429458618e-01
7.971857674419879913e-03
-1.528979837894439697e-01
-5.882860183715820312e+00
-1.231654405593872070e+00
-1.596625745296478271e-01
6.458548456430435181e-02
5.974764749407768250e-02
8.022358268499374390e-02
-5.830860733985900879e-01
1.405528485774993896e-01
1.068351045250892639e-01
2.069357931613922119e-01
-2.268075466156005859e+00
2.435313165187835693e-02
-1.311236172914505005e-01
-2.575576782226562500e+00
1.485041826963424683e-01
2.733524739742279053e-01
1.625707298517227173e-01
-3.163315057754516602e-01
-3.194442749023437500e+00
-9.269225001335144043e-01
3.729921579360961914e-02
-4.974007606506347656e-02
-3.879741951823234558e-02
-6.573211401700973511e-02
1.409112960100173950e-01
-8.309141546487808228e-02
8.626279979944229126e-02
1.598305553197860718e-01
-7.434301972389221191e-01
-4.736471772193908691e-01
1.652030944824218750e-01
-2.388306520879268646e-02
1.531027704477310181e-01
-2.611744403839111328e-01
-3.445641696453094482e-02
-6.959216296672821045e-02
-1.376506388187408447e-01
-2.482329607009887695e-01
-2.718664705753326416e-01
-2.510462403297424316e-01
-1.459311228245496750e-02
-1.584552228450775146e-01
-1.315589398145675659e-01
-3.650369346141815186e-01
1.363453716039657593e-01
-1.588715463876724243e-01
-3.238548040390014648e-01
-2.293123006820678711e-01
-7.018933892250061035e-01
-1.108817290514707565e-02
-2.586023807525634766e-01
-8.534530550241470337e-02
1.311075501143932343e-02
4.354497492313385010e-01
-5.679062604904174805e-01
1.803592592477798462e-02
1.543617099523544312e-01
-7.036930322647094727e-01
3.162234425544738770e-01
-3.106041252613067627e-01
5.717548131942749023e-01
3.674882948398590088e-01
-2.409378588199615479e-01
2.954443395137786865e-01
-3.818122148513793945e-01
5.834711715579032898e-02
-4.352790117263793945e-01
-2.754053473472595215e-01
-8.522289246320724487e-02
-8.576166033744812012e-01
4.074207842350006104e-01
-6.696724295616149902e-01
-8.927643895149230957e-01
-8.575401902198791504e-01
6.279239654541015625e-01
-2.074436247348785400e-01
-5.601753666996955872e-02
-7.074099779129028320e-01
-7.347771525382995605e-01
-3.584991216659545898e+00
-2.886085271835327148e+00
-3.730905652046203613e-01
-3.289078772068023682e-01
2.670997083187103271e-01
-2.538745403289794922e+00
-3.044373273849487305e+00
9.457609653472900391e-01
-1.647386550903320312e+00
5.581483840942382812e-01
-1.931660175323486328e-01
-1.833081990480422974e-01
9.931211173534393311e-02
-8.985316157341003418e-01
6.353134512901306152e-01
-1.025193572044372559e+00
-1.285513401031494141e+00
9.194831550121307373e-02
6.050020456314086914e-01
-2.570444643497467041e-01
6.966596096754074097e-02
-4.089313447475433350e-01
7.198551297187805176e-01
5.015671253204345703e-01
-1.970824718475341797e+00
8.532889187335968018e-02
2.740184403955936432e-02
-2.846276044845581055e+00
1.161561980843544006e-01
-3.531451523303985596e-01
9.866666793823242188e-02
-1.100409746170043945e+00
-7.413635849952697754e-01
-6.328251361846923828e-01
-3.103704452514648438e+00
3.456813395023345947e-01
3.430347144603729248e-02
-6.128486394882202148e-01
6.876411288976669312e-02
-5.719825744628906250e+00
1.943291351199150085e-02
1.708469837903976440e-01
6.689676046371459961e-01
-1.240281462669372559e-01
2.475631684064865112e-01
5.980267375707626343e-02
5.578169599175453186e-02
7.702591270208358765e-02
-2.363397032022476196e-01
-1.701030582189559937e-01
-1.999195478856563568e-02
-2.121113091707229614e-01
-4.012044668197631836e-01
1.777750104665756226e-01
-6.659028530120849609e-01
-1.163660585880279541e-01
-5.567965283989906311e-02
-9.385411143302917480e-01
-6.364268809556961060e-02
9.023946523666381836e-02
1.078855618834495544e-01
-8.150202035903930664e-02
-2.777868211269378662e-01
-3.266897401772439480e-04
-1.472423970699310303e-01
-1.849996508099138737e-03
-6.813152879476547241e-02
-4.057722985744476318e-01
4.524654243141412735e-03
-6.371477842330932617e-01
2.465151622891426086e-02
-1.207109466195106506e-01
4.941604137420654297e-01
1.385421901941299438e-01
-7.922044396400451660e-02
-2.168227434158325195e-01
-2.121824957430362701e-02
-1.077300496399402618e-02
1.044734045863151550e-01
2.157537937164306641e-01
-2.893887758255004883e-01
7.418625801801681519e-02
2.731117233633995056e-02
1.387189477682113647e-01
-1.225922107696533203e-01
-1.894124783575534821e-02
4.238301888108253479e-03
1.027898564934730530e-01
-5.885672569274902344e-02
1.138449385762214661e-01
-9.651351571083068848e-01
-9.055139124393463135e-02
-2.830091714859008789e-01
-3.361567854881286621e-01
-8.304657936096191406e-01
-9.542014449834823608e-02
1.048856601119041443e-01
5.517097711563110352e-01
-1.114870086312294006e-01
-4.433914646506309509e-02
-2.437456995248794556e-01
-4.111269116401672363e-01
1.193122416734695435e-01
-1.045737862586975098e+00
4.387091696262359619e-01
-1.266750454902648926e+00
-5.451846122741699219e-01
4.803298041224479675e-03
-1.153202295303344727e+00
9.263986349105834961e-02
1.093830820173025131e-02
-7.544404864311218262e-01
5.089458450675010681e-02
-6.271138787269592285e-02
-4.716848433017730713e-01
-1.972551226615905762e+00
8.286921679973602295e-02
1.686667501926422119e-01
-1.848966926336288452e-01
2.785535454750061035e-01
1.672651618719100952e-01
1.242292523384094238e-01
-2.295483648777008057e-01
-3.857645392417907715e-01
-2.309467077255249023e+00
-6.877733021974563599e-02
4.514290988445281982e-01
-1.552726477384567261e-01
5.397594571113586426e-01
-5.737692713737487793e-01
7.953960448503494263e-02
-1.211152896285057068e-01
-5.337113738059997559e-01
6.983644366264343262e-01
2.385698407888412476e-01
3.094819188117980957e-01
-6.021071672439575195e-01
-3.296171128749847412e-01
9.937066584825515747e-03
-4.250144958496093750e-01
-7.663076370954513550e-02
5.230447277426719666e-02
4.784657061100006104e-01
-3.353133499622344971e-01
3.098292648792266846e-01
-8.904720097780227661e-02
-6.171098724007606506e-02
-2.976443469524383545e-01
-2.391578704118728638e-01
3.533090651035308838e-02
3.893724083900451660e-01
-6.761718392372131348e-01
1.027216613292694092e-01
5.371348932385444641e-02
-1.584949791431427002e-01
-3.268008232116699219e-01
-2.262851595878601074e-01
7.105900347232818604e-02
-1.136928126215934753e-01
-1.977440565824508667e-01
-2.548941969871520996e-01
-4.284802913665771484e+00
-9.344003349542617798e-02
1.772610694169998169e-01
4.007529914379119873e-01
1.659374982118606567e-01
1.189029514789581299e-01
2.416975051164627075e-01
3.379172831773757935e-02
4.725672006607055664e-01
-2.554295957088470459e-01
3.995097056031227112e-02
2.235458195209503174e-01
8.039844781160354614e-02
-5.613678693771362305e-01
5.387497544288635254e-01
6.734713912010192871e-03
-4.085439443588256836e-01
-5.543909221887588501e-02
-2.339702099561691284e-01
2.767253518104553223e-01
-2.011414021253585815e-01
4.925514385104179382e-02
-2.974214553833007812e-01
9.822706133127212524e-02
2.696527540683746338e-01
-3.736491501331329346e-02
-3.630611896514892578e-01
1.714996993541717529e-01
2.138891965150833130e-01
-7.515610754489898682e-02
1.092178821563720703e-01
6.823275983333587646e-02
-3.527213037014007568e-01
-4.983136653900146484e-01
-3.913062214851379395e-01
1.973875798285007477e-02
-1.462285816669464111e-01
-2.934310734272003174e-01
1.372323036193847656e-01
3.567392826080322266e-01
-7.864684611558914185e-02
-6.023130938410758972e-02
-1.278319954872131348e+00
-3.896175622940063477e-01
-3.237213194370269775e-01
-1.464568674564361572e-01
2.136448323726654053e-01
-3.708405494689941406e+00
-5.853568762540817261e-02
3.203108906745910645e-01
-2.776766717433929443e-01
-5.828796625137329102e-01
2.174564599990844727e-01
-2.597931921482086182e-01
6.455149501562118530e-02
-4.537251964211463928e-02
-5.981396138668060303e-02
2.054437808692455292e-02
-4.511233791708946228e-02
-7.437207549810409546e-02
-3.401456400752067566e-02
2.235670387744903564e-02
6.873197853565216064e-02
-1.836748979985713959e-02
-2.600976452231407166e-02
4.108956456184387207e-02
-2.738456241786479950e-02
9.157468378543853760e-02
5.701606720685958862e-02
-4.515535011887550354e-02
1.052124053239822388e-01
-2.322663739323616028e-02
1.231323406100273132e-01
2.510626567527651787e-03
3.954859916120767593e-03
-5.393581930547952652e-03
4.622258991003036499e-02
-1.918671093881130219e-02
-5.310657992959022522e-02
2.025535702705383301e-01
4.847203493118286133e-01
-1.554242707788944244e-02
-3.440158665180206299e-01
-6.568734645843505859e-01
-2.865034043788909912e-01
5.476862937211990356e-02
1.973248720169067383e-01
1.031927391886711121e-01
-1.555345766246318817e-02
-1.159246206283569336e+00
-2.802741341292858124e-02
4.111720621585845947e-01
-1.058718681335449219e+00
4.521185159683227539e-01
-5.864940285682678223e-01
4.623363614082336426e-01
-6.072458624839782715e-01
-1.016844868659973145e+00
6.352217197418212891e-01
-1.108149997889995575e-03
1.918512433767318726e-01
-1.708732485771179199e+00
-2.066793739795684814e-01
3.765353560447692871e-01
1.079802438616752625e-01
-6.733105331659317017e-02
-1.805067211389541626e-01
1.205637231469154358e-01
-2.925127148628234863e-01
-9.743567556142807007e-02
2.579751908779144287e-01
-4.362067580223083496e-01
1.390850543975830078e-01
-3.217519447207450867e-02
2.676166892051696777e-01
1.272931247949600220e-01
7.730754464864730835e-02
7.531093433499336243e-03
1.103010401129722595e-01
2.059326171875000000e-01
-2.145493626594543457e-01
2.909528277814388275e-02
-8.434129506349563599e-02
1.704993396997451782e-01
-1.143124997615814209e-01
-1.731633394956588745e-01
2.173000276088714600e-01
1.479365229606628418e-01
-1.399482786655426025e-01
9.172780811786651611e-02
3.420115262269973755e-02
-2.693335115909576416e-01
-4.287327229976654053e-01
-3.983561992645263672e-01
-1.336171571165323257e-02
-2.972785942256450653e-02
1.422103643417358398e-01
-2.335948497056961060e-01
-5.901776999235153198e-02
1.864652335643768311e-01
-1.958540268242359161e-02
-6.798623204231262207e-01
-3.491918323561549187e-05
-1.366612464189529419e-01
-7.982878684997558594e-01
-8.310508131980895996e-01
2.653371356427669525e-02
-1.075894758105278015e-01
-7.876647263765335083e-02
2.147753024473786354e-03
-1.653884351253509521e-01
1.783526036888360977e-03
5.827110633254051208e-02
2.424454130232334137e-02
7.550702244043350220e-02
-1.599045246839523315e-01
-3.977628052234649658e-01
4.389143884181976318e-01
-1.239588737487792969e+00
-9.078742004930973053e-03
-1.149829030036926270e-01
3.888563215732574463e-01
1.781169772148132324e-01
-2.603135444223880768e-02
-2.029584050178527832e-01
-3.273674547672271729e-01
2.527030110359191895e-01
8.448818325996398926e-02
1.942462027072906494e-01
4.504592120647430420e-01
5.610558390617370605e-01
2.431266568601131439e-02
4.205292835831642151e-02
2.539994716644287109e-01
-1.221585925668478012e-02
1.552950888872146606e-01
1.344853490591049194e-01
-1.054520681500434875e-01
-2.451109439134597778e-01
-9.252779930830001831e-02
-1.284965872764587402e-01
-4.371434450149536133e-01
-2.895115017890930176e-01
-3.404096662998199463e-01
-4.705713391304016113e-01
-2.626629471778869629e-01
-1.135432422161102295e-01
-2.151448875665664673e-01
-5.116032063961029053e-02
9.785225242376327515e-02
-2.234698645770549774e-02
-7.167973518371582031e-01
-4.622306227684020996e-01
1.961863785982131958e-02
-2.912360727787017822e-01
-1.101011112332344055e-01
-1.873576343059539795e-01
-9.995291382074356079e-02
-3.665967583656311035e-01
2.106835246086120605e-01
-6.246442198753356934e-01
2.460573613643646240e-01
-6.277795881032943726e-02
-6.148863434791564941e-01
