9.325054474174976349e-03
6.221221294254064560e-03
-7.172138430178165436e-03
-1.623261719942092896e-02
1.239990815520286560e-02
-1.631791144609451294e-02
-1.357354503124952316e-02
4.892517346888780594e-03
4.753172397613525391e-03
1.802996546030044556e-02
1.008367072790861130e-02
2.756620757281780243e-03
-3.917946480214595795e-03
-1.545089483261108398e-02
7.143365219235420227e-03
1.292929332703351974e-02
-1.315394416451454163e-02
-1.516156457364559174e-02
-1.602840982377529144e-02
6.133442744612693787e-03
-1.406478043645620346e-02
-1.622135192155838013e-02
1.417443901300430298e-02
3.683899703901261091e-04
8.543074131011962891e-03
-1.631081104278564453e-02
1.283883396536111832e-02
1.361149945296347141e-03
-1.431794650852680206e-02
-6.259737536311149597e-03
8.321134373545646667e-03
-1.590677909553050995e-02
1.776856556534767151e-02
-1.608539745211601257e-02
3.103186376392841339e-03
4.970628302544355392e-03
1.775823533535003662e-02
-1.114528067409992218e-02
-1.444469485431909561e-02
-4.216525703668594360e-03
-1.577618531882762909e-02
-1.351457182317972183e-02
5.514790769666433334e-03
7.606700994074344635e-03
1.511427108198404312e-02
7.224632427096366882e-03
-1.308400649577379227e-02
-5.604812176898121834e-04
-1.778435707092285156e-02
7.664047647267580032e-03
-1.639318838715553284e-02
1.458550151437520981e-02
-1.433220785111188889e-02
7.650569081306457520e-03
-1.768685691058635712e-02
-1.426291279494762421e-02
-1.553632225841283798e-02
-6.520750932395458221e-03
-5.233807023614645004e-04
5.724202841520309448e-03
7.490507327020168304e-03
-1.544231548905372620e-02
4.861440509557723999e-03
4.679898265749216080e-03
-1.611793972551822662e-02
1.107073202729225159e-02
1.873362623155117035e-02
-1.617812179028987885e-02
-1.842311955988407135e-02
8.781963028013706207e-03
1.241408847272396088e-02
-1.567808538675308228e-02
-1.496937498450279236e-02
9.615264832973480225e-03
-1.523601729422807693e-02
-1.762776076793670654e-02
-1.389459706842899323e-02
-1.523541472852230072e-02
4.699571058154106140e-03
7.421380840241909027e-03
1.580950338393449783e-04
5.551690235733985901e-03
-1.643881015479564667e-02
-1.610100828111171722e-02
5.298694595694541931e-03
9.367210790514945984e-03
1.157391443848609924e-02
9.311781264841556549e-03
-1.466615777462720871e-02
-1.493795029819011688e-02
1.009266730397939682e-02
-1.795488176867365837e-03
-1.480154879391193390e-02
7.207894697785377502e-03
-1.619958505034446716e-02
1.816443167626857758e-02
9.235835634171962738e-03
4.847325384616851807e-03
7.523267064243555069e-03
9.237120859324932098e-03
-4.138495028018951416e-02
-3.613580390810966492e-02
6.420876830816268921e-02
-4.984031990170478821e-02
4.874183610081672668e-02
-5.391391366720199585e-02
-5.769027769565582275e-02
4.670973494648933411e-02
2.960646711289882660e-02
1.586342230439186096e-02
2.361609600484371185e-02
3.386032581329345703e-02
7.232108153402805328e-03
-4.202549532055854797e-02
-2.209552191197872162e-02
4.329652711749076843e-02
-4.526116698980331421e-02
-8.290100097656250000e-02
-3.394978120923042297e-02
1.898256130516529083e-02
-1.593648269772529602e-02
3.844952583312988281e-02
-2.146231010556221008e-03
-4.296761378645896912e-02
6.077766045928001404e-02
2.403722703456878662e-02
-2.463901415467262268e-02
-2.716802246868610382e-02
-3.797545284032821655e-02
2.470661886036396027e-03
4.458266496658325195e-02
-3.840206190943717957e-02
1.902696490287780762e-02
1.352953631430864334e-02
3.942148387432098389e-02
-4.120124876499176025e-02
3.635376319289207458e-02
-9.805935621261596680e-02
2.745230495929718018e-02
-2.325066924095153809e-02
4.894071817398071289e-02
6.147577241063117981e-02
8.421507477760314941e-02
4.305924475193023682e-02
-3.413761267438530922e-03
-7.429055403918027878e-03
3.667703643441200256e-02
-2.914438955485820770e-03
-3.161330148577690125e-02
5.179347470402717590e-02
-5.377280060201883316e-03
-1.984087191522121429e-02
-4.374576732516288757e-02
1.396370083093643188e-01
1.641689240932464600e-02
-1.252641994506120682e-02
4.037224501371383667e-02
1.404834240674972534e-01
8.617816120386123657e-02
4.193029180169105530e-02
-5.557558685541152954e-02
-1.152789369225502014e-01
-6.454747170209884644e-02
-2.605666778981685638e-02
1.910788565874099731e-02
8.622369170188903809e-02
6.226764246821403503e-02
2.647899650037288666e-02
1.068169325590133667e-01
3.281132504343986511e-02
4.090366140007972717e-02
-2.772840298712253571e-02
5.395831912755966187e-02
8.337745815515518188e-02
1.196265295147895813e-01
5.324491113424301147e-02
1.035535484552383423e-01
-6.756769865751266479e-02
-1.491366922855377197e-01
1.831178665161132812e-01
-1.048932448029518127e-01
4.856317490339279175e-02
1.184955462813377380e-01
5.906702950596809387e-02
-1.082610338926315308e-01
