1.581074714660644531e+00
-6.160011887550354004e-01
4.815153405070304871e-02
-1.005327701568603516e+00
-9.134671092033386230e-01
1.422568440437316895e+00
1.672240495681762695e+00
1.736211419105529785e+00
-2.571613490581512451e-01
-2.653532028198242188e-01
-5.819216370582580566e-01
-7.043868899345397949e-01
-1.790267080068588257e-01
-7.290722131729125977e-01
2.036114931106567383e-01
1.380775332450866699e+00
-8.778791427612304688e-01
1.486304998397827148e+00
-1.206006407737731934e+00
1.213254213333129883e+00
-1.755425781011581421e-01
-1.315622210502624512e+00
-1.436640024185180664e+00
9.691282510757446289e-01
-7.571060210466384888e-02
8.332612514495849609e-01
-4.512795209884643555e-01
-6.075073406100273132e-02
-3.978229463100433350e-01
1.135241627693176270e+00
1.938190609216690063e-01
-1.158534765243530273e+00
8.982827663421630859e-01
-1.529430627822875977e+00
-1.390087127685546875e+00
1.029708027839660645e+00
1.862434864044189453e+00
-1.096733361482620239e-01
-1.262983560562133789e+00
3.169492781162261963e-01
5.948109030723571777e-01
-7.633292675018310547e-01
6.821334958076477051e-01
1.250036478042602539e+00
-6.798062920570373535e-01
3.581280410289764404e-01
-5.628883242607116699e-01
1.001156866550445557e-01
-1.657263278961181641e+00
5.272033624351024628e-03
