6.527623534202575684e-01
-3.463768959045410156e-01
-5.557656288146972656e-01
2.790617346763610840e-01
3.089123070240020752e-01
8.449687957763671875e-01
4.266626536846160889e-01
5.302127003669738770e-01
-3.122976422309875488e-01
-1.436759382486343384e-01
-3.441488265991210938e+00
-9.534128308296203613e-01
-5.099862813949584961e-01
-9.477961659431457520e-01
8.599121868610382080e-02
1.679196506738662720e-01
5.061840415000915527e-01
-1.356533616781234741e-01
-4.940144345164299011e-02
-1.501767188310623169e-01
-2.801111698150634766e+00
1.885738074779510498e-01
2.573711425065994263e-02
1.629280298948287964e-01
1.534889340400695801e-01
3.071890771389007568e-02
-2.906480059027671814e-02
6.914539635181427002e-02
-6.398238539695739746e-01
1.213325038552284241e-01
-3.392551541328430176e-01
6.516478955745697021e-02
6.124022603034973145e-02
-2.009652704000473022e-01
-2.263754904270172119e-01
1.290251463651657104e-01
5.661031007766723633e-01
-1.423871994018554688e+00
-1.082236245274543762e-01
1.441962178796529770e-02
3.445512652397155762e-01
-3.043283820152282715e-01
9.937860816717147827e-02
4.792069643735885620e-02
2.339505404233932495e-01
8.966138362884521484e-01
-1.708564460277557373e-01
-3.067147731781005859e-01
5.109409689903259277e-01
4.427699148654937744e-01
-4.849741607904434204e-02
1.371627748012542725e-01
3.606605231761932373e-01
6.627637743949890137e-01
1.123682186007499695e-01
3.279951587319374084e-02
-2.121832370758056641e+00
1.909311413764953613e-01
-7.141883969306945801e-01
-2.110432982444763184e-01
6.956957578659057617e-01
-6.668574213981628418e-01
-8.375027179718017578e-01
-1.401815891265869141e+00
-6.505825519561767578e-01
3.838001787662506104e-01
-1.388089299201965332e+00
4.056971073150634766e-01
2.012086957693099976e-01
-1.453631371259689331e-01
3.449361026287078857e-01
1.985472142696380615e-01
4.293571412563323975e-01
1.874497979879379272e-01
3.274345695972442627e-01
3.046039044857025146e-01
-3.264215946197509766e+00
-6.303247213363647461e-01
1.366028785705566406e-01
4.023321568965911865e-01
-2.051301896572113037e-01
4.062301516532897949e-01
-1.515306234359741211e-01
-1.408869326114654541e-01
-7.603601552546024323e-03
-4.758290350437164307e-01
-1.940331608057022095e-01
6.717175841331481934e-01
-2.135770916938781738e-01
-4.948458969593048096e-01
-5.267842411994934082e-01
4.099441170692443848e-01
-8.075234293937683105e-02
1.602049767971038818e-01
3.934331238269805908e-01
1.281574219465255737e-01
-9.567245841026306152e-01
4.183631241321563721e-01
-2.275965213775634766e-01
6.050129532814025879e-01
-6.874271392822265625e+00
-3.961342811584472656e+00
-2.519105672836303711e-01
1.079221442341804504e-01
7.821799069643020630e-02
-3.536134660243988037e-01
-4.695976153016090393e-02
-3.974906802177429199e-01
5.671673417091369629e-01
-2.913016676902770996e-01
-2.217375278472900391e+00
-1.792702972888946533e-01
2.574212551116943359e-01
7.527664303779602051e-01
5.635884776711463928e-02
-2.312444746494293213e-01
4.272261857986450195e-01
1.637804955244064331e-01
-7.367468476295471191e-01
-4.884296655654907227e-01
-7.975334525108337402e-01
-7.424008846282958984e-01
3.434509038925170898e-03
-6.850064992904663086e-01
-1.693121939897537231e-01
-9.164868593215942383e-01
-1.728429913520812988e+00
-6.292766332626342773e-01
-3.431290686130523682e-01
-2.162851691246032715e-01
-3.602731525897979736e-01
-3.836745619773864746e-01
-1.077621936798095703e+00
3.913928270339965820e-01
7.693234831094741821e-02
-7.813083529472351074e-01
-3.164984285831451416e-01
-1.120140314102172852e+00
-7.250578999519348145e-01
1.524710953235626221e-01
2.662659883499145508e-01
4.688760042190551758e-01
2.877643704414367676e-01
1.478072106838226318e-01
-3.692068159580230713e-01
-1.051064431667327881e-01
1.662004590034484863e-01
-6.794793605804443359e-01
-1.356520801782608032e-01
-2.873429358005523682e-01
-2.352013736963272095e-01
-3.426168859004974365e-01
1.967215836048126221e-01
-1.324283331632614136e-01
-3.238507509231567383e-01
-1.279331684112548828e+00
4.285510256886482239e-02
1.329074144363403320e+00
1.628960371017456055e-01
2.492623925209045410e-01
3.194786906242370605e-01
-1.144300103187561035e+00
5.054439902305603027e-01
6.404809653759002686e-02
-1.728868782520294189e-01
-4.370144605636596680e-01
3.943749964237213135e-01
-2.135038137435913086e+00
2.018915414810180664e-01
-5.816372483968734741e-02
1.130675524473190308e-01
2.767310142517089844e-01
2.365651577711105347e-01
1.045621111989021301e-01
8.823235332965850830e-02
2.269150922074913979e-03
-3.475063145160675049e-01
3.183317482471466064e-01
-4.564988613128662109e-02
-8.020687103271484375e-02
4.095613658428192139e-01
-3.841941477730870247e-03
3.301206529140472412e-01
-3.152532875537872314e-02
-1.528560668230056763e-01
2.074756324291229248e-01
1.101978495717048645e-01
1.102705523371696472e-01
4.115459322929382324e-01
-2.501776456832885742e+00
-1.745314747095108032e-01
-2.337788581848144531e+00
2.784421741962432861e-01
-1.583998560905456543e+00
1.094169467687606812e-01
-3.157109916210174561e-01
-2.036542415618896484e+00
-1.621389150619506836e+00
-6.782826781272888184e-02
-2.768331170082092285e-01
3.438357412815093994e-01
6.735048890113830566e-01
6.103997230529785156e-01
5.149762332439422607e-02
2.151731699705123901e-01
-5.043570995330810547e-01
-3.895863592624664307e-01
-4.621160328388214111e-01
-8.012142181396484375e-01
1.486899107694625854e-01
5.641139298677444458e-02
-6.963827610015869141e-01
1.494069397449493408e-01
4.791328310966491699e-01
5.565372705459594727e-01
-1.314613968133926392e-01
5.096639394760131836e-01
1.146948114037513733e-01
-2.768720686435699463e-01
3.487698733806610107e-01
6.710159592330455780e-03
-5.944595336914062500e-01
-1.056184545159339905e-01
3.111541867256164551e-01
-2.635171115398406982e-01
-1.116992950439453125e+00
-2.581770896911621094e+00
-1.395515948534011841e-01
-2.182455211877822876e-01
-4.950463771820068359e-01
-2.420504808425903320e+00
-3.888272047042846680e-01
-3.886492550373077393e-01
-5.947719573974609375e+00
-1.414330452680587769e-01
-1.834636497497558594e+01
-4.057091176509857178e-01
9.792158007621765137e-02
-2.326150424778461456e-02
5.918283015489578247e-02
4.503895342350006104e-01
-2.862050533294677734e+00
-1.172293305397033691e+00
-1.429071128368377686e-01
-1.876076310873031616e-01
-1.510918617248535156e+00
-5.601566433906555176e-01
-4.071190834045410156e+00
1.497878283262252808e-01
1.429569721221923828e-01
